<?xml version="1.0"?>
<opencv_storage>
<cascade>
  <stageType>BOOST</stageType>
  <featureType>LBP</featureType>
  <height>60</height>
  <width>60</width>
  <stageParams>
    <boostType>GAB</boostType>
    <minHitRate>9.9500000476837158e-01</minHitRate>
    <maxFalseAlarm>5.0000000000000000e-01</maxFalseAlarm>
    <weightTrimRate>9.4999999999999996e-01</weightTrimRate>
    <maxDepth>1</maxDepth>
    <maxWeakCount>100</maxWeakCount></stageParams>
  <featureParams>
    <maxCatCount>256</maxCatCount>
    <featSize>1</featSize></featureParams>
  <stageNum>15</stageNum>
  <stages>
    <!-- stage 0 -->
    <_>
      <maxWeakCount>7</maxWeakCount>
      <stageThreshold>-1.3845924139022827e+00</stageThreshold>
      <weakClassifiers>
        <_>
          <internalNodes>
            0 -1 43 -238026786 -208428898 805491165 1898049684
            -1042631544 -1174240608 -773785400 1883501171</internalNodes>
          <leafValues>
            -7.8487920761108398e-01 -6.4467765390872955e-02</leafValues></_>
        <_>
          <internalNodes>
            0 -1 20 -561056306 -245337644 -397374084 1997650182
            -763064184 -141131136 -939244788 1346494674</internalNodes>
          <leafValues>
            -6.1556923389434814e-01 2.1902377903461456e-01</leafValues></_>
        <_>
          <internalNodes>
            0 -1 49 -69468421 -540182229 352390481 -74226670 -1158692184
            -1819727721 1217282508 4506691</internalNodes>
          <leafValues>
            -4.4546625018119812e-01 3.8197922706604004e-01</leafValues></_>
        <_>
          <internalNodes>
            0 -1 9 -20448550 861316022 -41922316 402830880 -1699249952
            404455434 1359299060 1611690966</internalNodes>
          <leafValues>
            -6.4295035600662231e-01 2.5102031230926514e-01</leafValues></_>
        <_>
          <internalNodes>
            0 -1 91 -1576924080 -232775552 35164370 -1189669939
            1238308992 -371570366 -2142682991 -1380318831</internalNodes>
          <leafValues>
            -4.8459005355834961e-01 3.3844479918479919e-01</leafValues></_>
        <_>
          <internalNodes>
            0 -1 127 -1969784273 -2015393885 -1862143167 -904408750
            -1601972129 152224769 -1142314389 -1228220181</internalNodes>
          <leafValues>
            -4.2041379213333130e-01 3.8929432630538940e-01</leafValues></_>
        <_>
          <internalNodes>
            0 -1 41 -1355071561 -270139393 -285311110 -343932946
            1073184751 -65537 -1107417241 -151031812</internalNodes>
          <leafValues>
            -3.6151003837585449e-01 4.6141952276229858e-01</leafValues></_></weakClassifiers></_>
    <!-- stage 1 -->
    <_>
      <maxWeakCount>7</maxWeakCount>
      <stageThreshold>-1.1584066152572632e+00</stageThreshold>
      <weakClassifiers>
        <_>
          <internalNodes>
            0 -1 55 -32897 -306184997 -639905149 -304358401 2147466087
            -73670470 -1310873 -21</internalNodes>
          <leafValues>
            -6.6945737600326538e-01 8.7407410144805908e-02</leafValues></_>
        <_>
          <internalNodes>
            0 -1 150 782122999 -420039681 -585674426 -294652196
            -270532749 -1465268005 -67436945 -285423361</internalNodes>
          <leafValues>
            -4.8870396614074707e-01 2.8901121020317078e-01</leafValues></_>
        <_>
          <internalNodes>
            0 -1 108 -1409325089 -1379147265 -102851761 -1570805825
            -1282444425 -150216085 -3204571 -71688</internalNodes>
          <leafValues>
            -3.6680954694747925e-01 3.9367339015007019e-01</leafValues></_>
        <_>
          <internalNodes>
            0 -1 58 -775815852 -264195712 -2130173556 694022750 23130028
            -1601482408 -1874796354 198687119</internalNodes>
          <leafValues>
            -4.4376906752586365e-01 3.2816460728645325e-01</leafValues></_>
        <_>
          <internalNodes>
            0 -1 32 742135563 786423257 -521142329 -805514980 -923839117
            -641228181 -1610977497 -1128268559</internalNodes>
          <leafValues>
            -4.2436596751213074e-01 3.5996821522712708e-01</leafValues></_>
        <_>
          <internalNodes>
            0 -1 19 -364131654 -614730853 -938263218 2074837259
            -825299786 -338474591 -2069295893 1109256</internalNodes>
          <leafValues>
            -4.8595118522644043e-01 2.9934933781623840e-01</leafValues></_>
        <_>
          <internalNodes>
            0 -1 83 111808293 -1403447219 -174225386 -791510184
            -238479699 -1626668956 -2141070540 -1413984716</internalNodes>
          <leafValues>
            -5.8103144168853760e-01 2.6159450411796570e-01</leafValues></_></weakClassifiers></_>
    <!-- stage 2 -->
    <_>
      <maxWeakCount>8</maxWeakCount>
      <stageThreshold>-1.7061680555343628e+00</stageThreshold>
      <weakClassifiers>
        <_>
          <internalNodes>
            0 -1 131 -1367451777 -1358964777 -189007962 -1969532169
            -73429153 -28344905 -220528769 -285278217</internalNodes>
          <leafValues>
            -7.3753893375396729e-01 -1.5465465188026428e-01</leafValues></_>
        <_>
          <internalNodes>
            0 -1 143 1016880405 -1500097757 -137888935 -1426162241
            -302350721 -2130711119 -1880961547 -1359446659</internalNodes>
          <leafValues>
            -5.9150004386901855e-01 1.9190825521945953e-01</leafValues></_>
        <_>
          <internalNodes>
            0 -1 145 784103781 -1484788857 -224136309 -352379957
            -302088321 -17573093 -844113292 1018200053</internalNodes>
          <leafValues>
            -6.9508433341979980e-01 1.8039704859256744e-01</leafValues></_>
        <_>
          <internalNodes>
            0 -1 104 -1394704717 -1703204537 -384577069 -155539306
            -1604135564 -562360288 -2136995676 -354526363</internalNodes>
          <leafValues>
            -3.8479700684547424e-01 3.6203667521476746e-01</leafValues></_>
        <_>
          <internalNodes>
            0 -1 11 -391126285 2069611876 1276138003 1467458576
            1128584136 143958160 -1256140549 18342627</internalNodes>
          <leafValues>
            -3.9598244428634644e-01 3.7428483366966248e-01</leafValues></_>
        <_>
          <internalNodes>
            0 -1 65 -1081096192 1023504656 1342411009 -1307683372
            1914574252 -1679720310 306873002 1408219931</internalNodes>
          <leafValues>
            -4.3640497326850891e-01 3.1975442171096802e-01</leafValues></_>
        <_>
          <internalNodes>
            0 -1 135 -1363353607 -1902978799 -1995990601 -1504038461
            -526686151 -1429258083 -253533632 888700405</internalNodes>
          <leafValues>
            -5.6093394756317139e-01 2.6111790537834167e-01</leafValues></_>
        <_>
          <internalNodes>
            0 -1 30 -733487955 2007420525 -1367459999 -240058810
            -176300724 222756606 1446169787 1701312151</internalNodes>
          <leafValues>
            -3.4829333424568176e-01 4.2144927382469177e-01</leafValues></_></weakClassifiers></_>
    <!-- stage 3 -->
    <_>
      <maxWeakCount>10</maxWeakCount>
      <stageThreshold>-1.5099738836288452e+00</stageThreshold>
      <weakClassifiers>
        <_>
          <internalNodes>
            0 -1 56 -1410106505 -1357836641 -1018691605 -1023803937
            -152144041 -242234709 -1159212237 -17421961</internalNodes>
          <leafValues>
            -7.4381840229034424e-01 -1.8492673337459564e-01</leafValues></_>
        <_>
          <internalNodes>
            0 -1 140 787774845 -1500488803 -627837456 -1099276690
            -1567794827 -923823590 -153405723 -1125328175</internalNodes>
          <leafValues>
            -5.5871510505676270e-01 1.9011172652244568e-01</leafValues></_>
        <_>
          <internalNodes>
            0 -1 82 -1495393167 -22383273 -576843294 -1258376780
            1823661656 -122057793 -391924499 -1145428972</internalNodes>
          <leafValues>
            -4.3600508570671082e-01 2.9999983310699463e-01</leafValues></_>
        <_>
          <internalNodes>
            0 -1 85 -1912652441 -301989957 -16783441 -1363935874
            -553654411 1073741687 -151527577 -17055754</internalNodes>
          <leafValues>
            -2.7393811941146851e-01 4.7076043486595154e-01</leafValues></_>
        <_>
          <internalNodes>
            0 -1 138 268008629 735867748 -783825193 -1129562473
            -557449269 -550844261 -72635740 -1090749067</internalNodes>
          <leafValues>
            -4.5272442698478699e-01 3.1269392371177673e-01</leafValues></_>
        <_>
          <internalNodes>
            0 -1 31 -727450634 -606273679 -268545739 -1482102668
            -948119620 -122200731 -1221010183 1401144540</internalNodes>
          <leafValues>
            -3.6914804577827454e-01 4.0198534727096558e-01</leafValues></_>
        <_>
          <internalNodes>
            0 -1 118 -1077973249 -1359020101 -4177 -297796237
            -1107460227 -336609417 -1392529546 -16843779</internalNodes>
          <leafValues>
            -3.2471832633018494e-01 4.4209629297256470e-01</leafValues></_>
        <_>
          <internalNodes>
            0 -1 5 -391730522 34402368 -1877256962 -1718147966
            1095108999 769796359 -164559907 -408685741</internalNodes>
          <leafValues>
            -4.0533757209777832e-01 3.6905527114868164e-01</leafValues></_>
        <_>
          <internalNodes>
            0 -1 102 -405537034 991244824 -687833065 -174337536
            1216704648 -2010595197 1120094408 1145554159</internalNodes>
          <leafValues>
            -3.8100817799568176e-01 4.1700598597526550e-01</leafValues></_>
        <_>
          <internalNodes>
            0 -1 1 2141002861 -1150849569 -1190966349 -496797669
            1404866884 1904444867 -240308426 -1112998401</internalNodes>
          <leafValues>
            -4.1022714972496033e-01 3.8609418272972107e-01</leafValues></_></weakClassifiers></_>
    <!-- stage 4 -->
    <_>
      <maxWeakCount>9</maxWeakCount>
      <stageThreshold>-1.3187919855117798e+00</stageThreshold>
      <weakClassifiers>
        <_>
          <internalNodes>
            0 -1 47 -67144193 -812655015 -585416721 -406865153
            -508862597 -880025437 -72705161 -328835</internalNodes>
          <leafValues>
            -6.8717771768569946e-01 -1.0191725194454193e-01</leafValues></_>
        <_>
          <internalNodes>
            0 -1 146 146832741 -1360607779 -733222174 -358661389
            -253691358 -421855101 -1561527513 212385653</internalNodes>
          <leafValues>
            -7.5557678937911987e-01 7.5883753597736359e-02</leafValues></_>
        <_>
          <internalNodes>
            0 -1 80 -2108554 1101911720 -905474820 593505952 -822887476
            1096871936 -1240994384 1147651326</internalNodes>
          <leafValues>
            -4.5833030343055725e-01 2.6209998130798340e-01</leafValues></_>
        <_>
          <internalNodes>
            0 -1 34 -352389617 -1364554806 2022955074 1222702554
            -1425715204 533924533 1455792150 1618471926</internalNodes>
          <leafValues>
            -5.0170171260833740e-01 2.6704728603363037e-01</leafValues></_>
        <_>
          <internalNodes>
            0 -1 0 -163262212 1803940498 1619046604 1662022226
            -555207700 -1432632576 2060462300 1108344896</internalNodes>
          <leafValues>
            -7.1587681770324707e-01 1.7739677429199219e-01</leafValues></_>
        <_>
          <internalNodes>
            0 -1 149 797735319 827773899 -1856966491 -356192231
            -118599605 2063843349 -207918721 2147283929</internalNodes>
          <leafValues>
            -5.1943707466125488e-01 2.1964372694492340e-01</leafValues></_>
        <_>
          <internalNodes>
            0 -1 119 -1537738809 -1064443554 -552566720 -296561703
            -627360495 317252010 -877948571 -621028687</internalNodes>
          <leafValues>
            -4.0841519832611084e-01 3.2937675714492798e-01</leafValues></_>
        <_>
          <internalNodes>
            0 -1 88 -1508371486 -951817581 -249464329 -623242319
            996829789 -1778347798 -788357387 -2086791983</internalNodes>
          <leafValues>
            -4.4863140583038330e-01 3.1165555119514465e-01</leafValues></_>
        <_>
          <internalNodes>
            0 -1 38 -714097754 -1406462030 -1786128664 -1572039544
            -1883170470 1444317306 -1509748169 619307718</internalNodes>
          <leafValues>
            -5.5055332183837891e-01 2.3959873616695404e-01</leafValues></_></weakClassifiers></_>
    <!-- stage 5 -->
    <_>
      <maxWeakCount>10</maxWeakCount>
      <stageThreshold>-1.1958506107330322e+00</stageThreshold>
      <weakClassifiers>
        <_>
          <internalNodes>
            0 -1 133 -270799909 -237004738 -95159637 1627091367
            -427103681 -16078193 -203703489 -345381</internalNodes>
          <leafValues>
            -6.5453970432281494e-01 -4.1948579251766205e-02</leafValues></_>
        <_>
          <internalNodes>
            0 -1 137 770998109 80738295 -1861814387 -1572929641
            1347018605 -254812029 -1174579643 477919557</internalNodes>
          <leafValues>
            -7.2323721647262573e-01 6.5911196172237396e-02</leafValues></_>
        <_>
          <internalNodes>
            0 -1 67 799939909 -1119729361 -150784290 -1628926997
            822805872 -1623480278 -108522136 -1279628308</internalNodes>
          <leafValues>
            -4.5627030730247498e-01 2.1839159727096558e-01</leafValues></_>
        <_>
          <internalNodes>
            0 -1 129 -1504048031 209867147 -654204950 -932570990
            -1679115693 -29638501 -53857929 1891261430</internalNodes>
          <leafValues>
            -5.6667166948318481e-01 2.1526747941970825e-01</leafValues></_>
        <_>
          <internalNodes>
            0 -1 97 -803996014 -1809582374 -1359585615 -168698789
            2111674760 -1686734274 2103767960 -872159513</internalNodes>
          <leafValues>
            -3.1677272915840149e-01 3.6237138509750366e-01</leafValues></_>
        <_>
          <internalNodes>
            0 -1 28 -502282028 443237942 1232509333 -650694521
            -121627430 -1006500676 1514262477 1090987111</internalNodes>
          <leafValues>
            -3.9181262254714966e-01 3.0083021521568298e-01</leafValues></_>
        <_>
          <internalNodes>
            0 -1 100 -685515469 397643569 510127915 606236538 2004788874
            852800369 762781628 -799606909</internalNodes>
          <leafValues>
            -3.3802145719528198e-01 3.6240592598915100e-01</leafValues></_>
        <_>
          <internalNodes>
            0 -1 36 -83906953 -1081761942 -1114387 -787173829 1333741247
            1156866999 1895101928 -1015564294</internalNodes>
          <leafValues>
            -3.0656072497367859e-01 3.9475488662719727e-01</leafValues></_>
        <_>
          <internalNodes>
            0 -1 77 -1057383181 -26177130 -247254090 -1113041262
            1477080241 -891442027 2079152804 -469712252</internalNodes>
          <leafValues>
            -4.1924923658370972e-01 3.0211472511291504e-01</leafValues></_>
        <_>
          <internalNodes>
            0 -1 147 475660237 -1911885127 -796583808 -288558415
            -1208915676 -947680893 -351667599 1073036661</internalNodes>
          <leafValues>
            -5.5962789058685303e-01 2.2996506094932556e-01</leafValues></_></weakClassifiers></_>
    <!-- stage 6 -->
    <_>
      <maxWeakCount>11</maxWeakCount>
      <stageThreshold>-1.4372379779815674e+00</stageThreshold>
      <weakClassifiers>
        <_>
          <internalNodes>
            0 -1 21 -767034145 -76351959 1115716723 -780041842
            -1841069914 -309215200 -31357537 -113000237</internalNodes>
          <leafValues>
            -6.5300285816192627e-01 -5.9760957956314087e-02</leafValues></_>
        <_>
          <internalNodes>
            0 -1 105 -1364568715 -1673048055 281285231 -1148225171
            -1806870347 -1165078010 -290188072 -1342553675</internalNodes>
          <leafValues>
            -4.2690214514732361e-01 2.0609083771705627e-01</leafValues></_>
        <_>
          <internalNodes>
            0 -1 53 -1538558425 -288132650 -217843801 -355475361
            -1095795875 826786459 -55872137 -34624687</internalNodes>
          <leafValues>
            -3.3109936118125916e-01 3.0798813700675964e-01</leafValues></_>
        <_>
          <internalNodes>
            0 -1 45 -665533636 -149904622 537310459 1714256482
            -627125053 1895481476 -338263494 1376768026</internalNodes>
          <leafValues>
            -3.9885234832763672e-01 2.7296099066734314e-01</leafValues></_>
        <_>
          <internalNodes>
            0 -1 92 -20894672 909578527 -823956604 -1602091405
            1615418293 23126416 -1408134870 1153814295</internalNodes>
          <leafValues>
            -4.5419090986251831e-01 2.5902855396270752e-01</leafValues></_>
        <_>
          <internalNodes>
            0 -1 87 -554962480 -642631258 -50358979 -1785856135
            1953215935 -1394933775 2088081192 -286285153</internalNodes>
          <leafValues>
            -2.7867224812507629e-01 3.9152181148529053e-01</leafValues></_>
        <_>
          <internalNodes>
            0 -1 103 -1422780240 -1025883738 -116673814 -1653033032
            -1861847547 942883083 -771009552 -495303144</internalNodes>
          <leafValues>
            -4.1505876183509827e-01 2.7889573574066162e-01</leafValues></_>
        <_>
          <internalNodes>
            0 -1 99 592866861 -1512426211 -1067875126 176069391
            -102933921 -505082473 -1918134162 314143313</internalNodes>
          <leafValues>
            -5.8023607730865479e-01 2.0240168273448944e-01</leafValues></_>
        <_>
          <internalNodes>
            0 -1 74 -135288213 -59937235 1307320544 -460345434
            -1233217665 624846196 -729953212 -143661249</internalNodes>
          <leafValues>
            -2.7432802319526672e-01 4.5108711719512939e-01</leafValues></_>
        <_>
          <internalNodes>
            0 -1 69 -19773416 -772600953 428067391 1063133990
            -1391072819 -1347284973 -1372978808 675565072</internalNodes>
          <leafValues>
            -5.4666996002197266e-01 2.2229073941707611e-01</leafValues></_>
        <_>
          <internalNodes>
            0 -1 16 636300661 -413675446 16874722 -1369474851
            -1473324717 -1719107577 -259329980 869890516</internalNodes>
          <leafValues>
            -5.9113347530364990e-01 1.9474674761295319e-01</leafValues></_></weakClassifiers></_>
    <!-- stage 7 -->
    <_>
      <maxWeakCount>9</maxWeakCount>
      <stageThreshold>-1.5390182733535767e+00</stageThreshold>
      <weakClassifiers>
        <_>
          <internalNodes>
            0 -1 37 -271361 -472416303 -127409277 -278931233 -1785736277
            -14966725 -880100526 -67376131</internalNodes>
          <leafValues>
            -6.3819402456283569e-01 -1.2861736118793488e-02</leafValues></_>
        <_>
          <internalNodes>
            0 -1 22 -967839892 2071393052 1417083932 -140451618
            2051686442 2114979441 -799707014 1090699810</internalNodes>
          <leafValues>
            -5.5730885267257690e-01 1.1880703270435333e-01</leafValues></_>
        <_>
          <internalNodes>
            0 -1 84 784075604 -1074130667 -643870254 495473413
            -2021332266 -1886236130 -1439012099 -1560646364</internalNodes>
          <leafValues>
            -4.5593497157096863e-01 2.0903365314006805e-01</leafValues></_>
        <_>
          <internalNodes>
            0 -1 126 187246755 -1461831405 -183170454 -2103834290
            -888473474 1127917783 681163548 378985181</internalNodes>
          <leafValues>
            -5.6288945674896240e-01 2.1210174262523651e-01</leafValues></_>
        <_>
          <internalNodes>
            0 -1 86 -77075548 1040237316 1098928489 -1926129468
            -2070865172 -1126453144 -975445908 1078061797</internalNodes>
          <leafValues>
            -4.6386843919754028e-01 2.1655520796775818e-01</leafValues></_>
        <_>
          <internalNodes>
            0 -1 141 1020817237 -1609301603 -268183139 -761924649
            1909602997 -912031488 -1408274106 -1107541199</internalNodes>
          <leafValues>
            -4.4677114486694336e-01 2.3833996057510376e-01</leafValues></_>
        <_>
          <internalNodes>
            0 -1 4 -991256361 1256882638 1698977216 219210070 1137525487
            1026207996 -42266431 1262447127</internalNodes>
          <leafValues>
            -3.8549333810806274e-01 2.7909287810325623e-01</leafValues></_>
        <_>
          <internalNodes>
            0 -1 13 1065377121 -561473655 -1709651050 -1224910439
            847647801 -1291075551 -1158967132 -1213795460</internalNodes>
          <leafValues>
            -4.0801861882209778e-01 2.8176480531692505e-01</leafValues></_>
        <_>
          <internalNodes>
            0 -1 17 1908132562 -422239963 1409290400 -2072115937
            -637480874 -1139754775 -642720996 1996483503</internalNodes>
          <leafValues>
            -4.3718123435974121e-01 2.5815153121948242e-01</leafValues></_></weakClassifiers></_>
    <!-- stage 8 -->
    <_>
      <maxWeakCount>11</maxWeakCount>
      <stageThreshold>-1.5521394014358521e+00</stageThreshold>
      <weakClassifiers>
        <_>
          <internalNodes>
            0 -1 121 -1140918273 -778830945 -1794908697 -434635825
            -878444933 -10305268 -1348606341 -69210433</internalNodes>
          <leafValues>
            -6.4572149515151978e-01 -7.5034104287624359e-02</leafValues></_>
        <_>
          <internalNodes>
            0 -1 46 -17888980 -19763164 932610581 -98825227 -1395631616
            -1163770748 -1844941862 -1078014731</internalNodes>
          <leafValues>
            -3.8647007942199707e-01 2.1353879570960999e-01</leafValues></_>
        <_>
          <internalNodes>
            0 -1 52 788144061 1700123549 -574139006 -423454232 732589887
            -214435193 -604027275 301104625</internalNodes>
          <leafValues>
            -5.6782579421997070e-01 1.6004903614521027e-01</leafValues></_>
        <_>
          <internalNodes>
            0 -1 130 -1545195742 -1439709115 1347090564 -225566588
            151134753 1780089027 -1307948608 -1232191196</internalNodes>
          <leafValues>
            -4.3967959284782410e-01 2.3617756366729736e-01</leafValues></_>
        <_>
          <internalNodes>
            0 -1 112 -101476589 -539853051 -286474283 -1783529677
            -2005025229 -1361052202 914191647 -924064605</internalNodes>
          <leafValues>
            -2.4422776699066162e-01 4.4030404090881348e-01</leafValues></_>
        <_>
          <internalNodes>
            0 -1 113 -340822128 153056116 -1660289008 -2123519440
            1879994792 792392454 -1999813499 545101824</internalNodes>
          <leafValues>
            -4.5742166042327881e-01 2.3339983820915222e-01</leafValues></_>
        <_>
          <internalNodes>
            0 -1 24 -2082714195 703189265 -788147508 -436283879
            -1685366745 954008096 -292978832 2121066981</internalNodes>
          <leafValues>
            -5.0926232337951660e-01 1.9725760817527771e-01</leafValues></_>
        <_>
          <internalNodes>
            0 -1 90 -1969864349 -56741231 -1851899522 924584412
            -1172883051 -1387556861 -1763309131 -1467081636</internalNodes>
          <leafValues>
            -4.0893387794494629e-01 2.5653758645057678e-01</leafValues></_>
        <_>
          <internalNodes>
            0 -1 8 2020797710 -750467824 -872105380 42720202 -716078886
            -128569179 -1574713558 1180004899</internalNodes>
          <leafValues>
            -4.3463411927223206e-01 2.5296115875244141e-01</leafValues></_>
        <_>
          <internalNodes>
            0 -1 70 -1636949598 453358603 690357527 -1550798704
            -1039250455 1275478525 566569200 1155977354</internalNodes>
          <leafValues>
            -4.5712596178054810e-01 2.3151387274265289e-01</leafValues></_>
        <_>
          <internalNodes>
            0 -1 7 1779955574 -1291304461 160619732 1615010076
            1405637400 2033377591 -423302446 409388729</internalNodes>
          <leafValues>
            -4.6746048331260681e-01 2.2343979775905609e-01</leafValues></_></weakClassifiers></_>
    <!-- stage 9 -->
    <_>
      <maxWeakCount>11</maxWeakCount>
      <stageThreshold>-1.4143824577331543e+00</stageThreshold>
      <weakClassifiers>
        <_>
          <internalNodes>
            0 -1 48 -101222539 -339122690 -83771186 -335601589
            -223783625 -125239125 -1148207593 -201344111</internalNodes>
          <leafValues>
            -6.9570177793502808e-01 -2.1321794390678406e-01</leafValues></_>
        <_>
          <internalNodes>
            0 -1 81 -625752438 -210082134 -1493541211 -17252990
            -424507712 -1871440012 -1636437270 -743732242</internalNodes>
          <leafValues>
            -2.9884135723114014e-01 3.4212151169776917e-01</leafValues></_>
        <_>
          <internalNodes>
            0 -1 139 846757829 174514232 -2120888067 513725143 -87794834
            -743991160 -1947435011 -1460110991</internalNodes>
          <leafValues>
            -4.3130359053611755e-01 2.1101133525371552e-01</leafValues></_>
        <_>
          <internalNodes>
            0 -1 89 -1365484256 637276939 1908583118 378576273
            -930602447 -209715065 104472737 -1498148491</internalNodes>
          <leafValues>
            -5.5215048789978027e-01 1.6143815219402313e-01</leafValues></_>
        <_>
          <internalNodes>
            0 -1 54 2038910032 668855758 815224991 522860438 -1613817042
            1022659389 310722991 1285916423</internalNodes>
          <leafValues>
            -3.7779787182807922e-01 2.6623398065567017e-01</leafValues></_>
        <_>
          <internalNodes>
            0 -1 42 -67637650 -50644946 -272646514 -356569873 -16831
            2013163509 1417008910 -249567842</internalNodes>
          <leafValues>
            -2.5221511721611023e-01 4.1153764724731445e-01</leafValues></_>
        <_>
          <internalNodes>
            0 -1 39 1662893715 -15754702 -2105431794 -226335824
            -1462391867 -1717970918 -1063957546 1245462721</internalNodes>
          <leafValues>
            -3.8706141710281372e-01 2.8035381436347961e-01</leafValues></_>
        <_>
          <internalNodes>
            0 -1 25 -1026567230 227254742 -1811401507 1032457016
            2030400507 -891174154 -104346644 1592517975</internalNodes>
          <leafValues>
            -3.3359637856483459e-01 3.2356661558151245e-01</leafValues></_>
        <_>
          <internalNodes>
            0 -1 76 -18907038 -172754570 -1074292885 -617751890
            1744803754 1845378492 783282126 -345001254</internalNodes>
          <leafValues>
            -2.1841058135032654e-01 5.1343291997909546e-01</leafValues></_>
        <_>
          <internalNodes>
            0 -1 61 -1368419009 673894961 1493362756 -1050367706
            151308520 442877480 -1250565992 19869876</internalNodes>
          <leafValues>
            -4.6367767453193665e-01 2.5320231914520264e-01</leafValues></_>
        <_>
          <internalNodes>
            0 -1 12 -1005137084 -556723430 -993518254 1235498770
            923168005 -585826303 1437161510 1618175072</internalNodes>
          <leafValues>
            -5.5346059799194336e-01 1.9625897705554962e-01</leafValues></_></weakClassifiers></_>
    <!-- stage 10 -->
    <_>
      <maxWeakCount>12</maxWeakCount>
      <stageThreshold>-1.1722928285598755e+00</stageThreshold>
      <weakClassifiers>
        <_>
          <internalNodes>
            0 -1 123 -220745477 -208293130 1636506109 -139486505
            -1416648001 -1375469134 -1156662358 -72363269</internalNodes>
          <leafValues>
            -6.0934424400329590e-01 1.8731988966464996e-01</leafValues></_>
        <_>
          <internalNodes>
            0 -1 134 940898277 -1407393071 -1014394453 -1361775745
            -143132463 1337968728 -1095114217 1055488893</internalNodes>
          <leafValues>
            -5.5508673191070557e-01 1.0938436537981033e-01</leafValues></_>
        <_>
          <internalNodes>
            0 -1 125 581976673 -1429057049 -615915198 -122514484
            -1314272819 -1987212367 299764641 -1533883936</internalNodes>
          <leafValues>
            -4.4583019614219666e-01 2.0298162102699280e-01</leafValues></_>
        <_>
          <internalNodes>
            0 -1 50 -352580024 -894750406 -757262378 -805273251
            -1453128697 730402819 -342120304 -118330970</internalNodes>
          <leafValues>
            -3.2849881052970886e-01 3.1105095148086548e-01</leafValues></_>
        <_>
          <internalNodes>
            0 -1 26 1802153971 1029362306 -1976390452 -1645916114
            14936235 -555596853 1814366905 1268809343</internalNodes>
          <leafValues>
            -3.2636100053787231e-01 3.0152708292007446e-01</leafValues></_>
        <_>
          <internalNodes>
            0 -1 10 -262877507 -179067152 1285554879 500671202
            1780560558 1249786634 1776421050 425916018</internalNodes>
          <leafValues>
            -3.4089460968971252e-01 2.9961487650871277e-01</leafValues></_>
        <_>
          <internalNodes>
            0 -1 40 257166098 -875313878 146540298 16935041 1276673395
            313570645 -1545250315 1618366739</internalNodes>
          <leafValues>
            -5.4290652275085449e-01 1.9164010882377625e-01</leafValues></_>
        <_>
          <internalNodes>
            0 -1 71 -26422320 -1266518401 -1996480421 257691793
            1383285716 -23443051 2139699624 -1461121342</internalNodes>
          <leafValues>
            -3.7707594037055969e-01 2.7298912405967712e-01</leafValues></_>
        <_>
          <internalNodes>
            0 -1 94 -1263045917 -1382186595 -1240891835 553024920
            -255775873 417795211 -15052528 1240390388</internalNodes>
          <leafValues>
            -4.7379940748214722e-01 2.2040849924087524e-01</leafValues></_>
        <_>
          <internalNodes>
            0 -1 73 -1933698751 1453188413 -788459234 1459249951
            -200754191 -132087581 -913634852 -1766180832</internalNodes>
          <leafValues>
            -4.0799382328987122e-01 2.5080409646034241e-01</leafValues></_>
        <_>
          <internalNodes>
            0 -1 64 -1274462972 -1680827942 291674001 1762960452
            1145313709 -749598209 -1158835404 1095493135</internalNodes>
          <leafValues>
            -4.3139511346817017e-01 2.4642099440097809e-01</leafValues></_>
        <_>
          <internalNodes>
            0 -1 101 2137767575 825931647 1073686499 1027569779
            1158477245 -1906245804 -826819455 -936511869</internalNodes>
          <leafValues>
            -2.7945443987846375e-01 4.0731671452522278e-01</leafValues></_></weakClassifiers></_>
    <!-- stage 11 -->
    <_>
      <maxWeakCount>11</maxWeakCount>
      <stageThreshold>-1.3516353368759155e+00</stageThreshold>
      <weakClassifiers>
        <_>
          <internalNodes>
            0 -1 114 -570707310 -614965094 -1580665352 -741387362
            -878451991 -829210566 -348414533 -67382277</internalNodes>
          <leafValues>
            -6.2671434879302979e-01 3.6630036775022745e-03</leafValues></_>
        <_>
          <internalNodes>
            0 -1 136 854871921 -1554329251 -648742205 -1497910577
            -1278391474 -221540215 -89986811 352123833</internalNodes>
          <leafValues>
            -6.1143386363983154e-01 8.3148017525672913e-02</leafValues></_>
        <_>
          <internalNodes>
            0 -1 144 152922957 -1897933863 1346490699 -353030841
            -2146655457 -1130045425 986512207 -289645721</internalNodes>
          <leafValues>
            -4.0159457921981812e-01 2.2122544050216675e-01</leafValues></_>
        <_>
          <internalNodes>
            0 -1 6 -890117665 -1737302510 1860943597 1407412218
            1114793705 -1105723521 1643609495 -43519913</internalNodes>
          <leafValues>
            -2.2830516099929810e-01 4.1028308868408203e-01</leafValues></_>
        <_>
          <internalNodes>
            0 -1 110 -218124500 -1257337272 -1099382814 -227872786
            -436734002 1414871020 -724271875 -195065878</internalNodes>
          <leafValues>
            -2.6201787590980530e-01 3.7899160385131836e-01</leafValues></_>
        <_>
          <internalNodes>
            0 -1 72 -230858366 -776920940 134365343 765413953 1354697056
            2088042888 -1670445329 543952162</internalNodes>
          <leafValues>
            -4.9172756075859070e-01 2.3322629928588867e-01</leafValues></_>
        <_>
          <internalNodes>
            0 -1 29 -739250946 158740478 1878929015 -169546190
            2146807774 -75628569 -219888406 -672926013</internalNodes>
          <leafValues>
            -2.5719287991523743e-01 4.2879161238670349e-01</leafValues></_>
        <_>
          <internalNodes>
            0 -1 78 1480244240 -1612950514 -1225583339 1334422594
            1089425552 454969503 1080858704 75528998</internalNodes>
          <leafValues>
            -5.4168891906738281e-01 2.0019811391830444e-01</leafValues></_>
        <_>
          <internalNodes>
            0 -1 15 -1647309829 -1444359364 -687618354 -1051269872
            -1165333217 -1983708999 822169093 2099052849</internalNodes>
          <leafValues>
            -5.1225441694259644e-01 1.9340153038501740e-01</leafValues></_>
        <_>
          <internalNodes>
            0 -1 115 -2069895465 821826191 -1711275431 1905235465
            -1555125734 -1971910119 -1731343208 545175622</internalNodes>
          <leafValues>
            -3.5558608174324036e-01 2.9348674416542053e-01</leafValues></_>
        <_>
          <internalNodes>
            0 -1 44 -673208264 466020259 -1070622376 256253518 413467690
            125698334 1611621722 10569182</internalNodes>
          <leafValues>
            -4.9290561676025391e-01 2.2921916842460632e-01</leafValues></_></weakClassifiers></_>
    <!-- stage 12 -->
    <_>
      <maxWeakCount>12</maxWeakCount>
      <stageThreshold>-1.4438625574111938e+00</stageThreshold>
      <weakClassifiers>
        <_>
          <internalNodes>
            0 -1 57 -149973285 -8454033 -501436015 -178281993 -123209265
            -518454784 948353181 -2116934</internalNodes>
          <leafValues>
            -6.1879742145538330e-01 4.2194094508886337e-02</leafValues></_>
        <_>
          <internalNodes>
            0 -1 120 -1399005361 -287563188 1393119 1725352261 46917181
            -1448375267 262847343 -270805697</internalNodes>
          <leafValues>
            -3.3990064263343811e-01 2.5667372345924377e-01</leafValues></_>
        <_>
          <internalNodes>
            0 -1 68 765340783 1706196430 -577687162 1318885627
            2005343069 -24827197 -1694926491 883194484</internalNodes>
          <leafValues>
            -6.1424803733825684e-01 1.4682130515575409e-01</leafValues></_>
        <_>
          <internalNodes>
            0 -1 95 -608466550 1815790528 -1824233470 149172864
            1619243520 841754635 -716977390 1140000762</internalNodes>
          <leafValues>
            -3.6771610379219055e-01 2.7635762095451355e-01</leafValues></_>
        <_>
          <internalNodes>
            0 -1 96 75895165 -1163335348 -1862219560 -1654994602
            -1966072436 -1412259687 -1367176469 -1423812527</internalNodes>
          <leafValues>
            -4.2077651619911194e-01 2.1270097792148590e-01</leafValues></_>
        <_>
          <internalNodes>
            0 -1 132 -55724978 -17963350 -1090572336 -756023638
            -1615465892 773750644 -998846225 -923800210</internalNodes>
          <leafValues>
            -2.3264643549919128e-01 4.1106975078582764e-01</leafValues></_>
        <_>
          <internalNodes>
            0 -1 122 -604002580 1718438958 1928314794 670786891
            -1247355188 -717783352 1702685696 -115612514</internalNodes>
          <leafValues>
            -2.4413137137889862e-01 3.8754323124885559e-01</leafValues></_>
        <_>
          <internalNodes>
            0 -1 150 2043944819 -138210607 1397312544 -295726307
            -225521381 -2100788733 -410342545 2145413599</internalNodes>
          <leafValues>
            -4.0014383196830750e-01 2.5572267174720764e-01</leafValues></_>
        <_>
          <internalNodes>
            0 -1 27 -1261699954 -554532814 76745119 1306509780
            1944951574 2109384841 -258931642 -923275164</internalNodes>
          <leafValues>
            -3.3823043107986450e-01 3.1173208355903625e-01</leafValues></_>
        <_>
          <internalNodes>
            0 -1 93 -163582186 1897583826 -591361133 1230139612
            -209789221 1754351755 -1579478983 1898375455</internalNodes>
          <leafValues>
            -3.4623897075653076e-01 3.0438074469566345e-01</leafValues></_>
        <_>
          <internalNodes>
            0 -1 98 -1634538240 -724549390 -1869818411 -1293662591
            198224617 -1433534448 -492811914 -893772428</internalNodes>
          <leafValues>
            -3.8090661168098450e-01 2.8896808624267578e-01</leafValues></_>
        <_>
          <internalNodes>
            0 -1 142 932214565 -1509633376 -1068314493 -1717682047
            1267262185 327155883 -1970555962 -1493408916</internalNodes>
          <leafValues>
            -4.5108458399772644e-01 2.4503004550933838e-01</leafValues></_></weakClassifiers></_>
    <!-- stage 13 -->
    <_>
      <maxWeakCount>12</maxWeakCount>
      <stageThreshold>-1.3783727884292603e+00</stageThreshold>
      <weakClassifiers>
        <_>
          <internalNodes>
            0 -1 75 -103026213 -259636582 -736058893 -70792454 -79037491
            -35829752 -778388785 -3411270</internalNodes>
          <leafValues>
            -6.1306965351104736e-01 9.4890512526035309e-02</leafValues></_>
        <_>
          <internalNodes>
            0 -1 2 2144345172 -610328233 -58626650 -501617251 1540873048
            1520249017 -1829050337 280239423</internalNodes>
          <leafValues>
            -5.0774359703063965e-01 1.2670828402042389e-01</leafValues></_>
        <_>
          <internalNodes>
            0 -1 128 -1237169193 -1344466533 -629091382 -494783653
            -917845410 -1630926688 -1719627972 2012902092</internalNodes>
          <leafValues>
            -4.0900912880897522e-01 2.0839598774909973e-01</leafValues></_>
        <_>
          <internalNodes>
            0 -1 3 -1441479704 -1386480810 747656541 628119720
            -128949800 -1052983128 1153700660 1178604133</internalNodes>
          <leafValues>
            -6.0043948888778687e-01 1.8399904668331146e-01</leafValues></_>
        <_>
          <internalNodes>
            0 -1 51 -56463260 -191610302 -670449473 -63565729 490939377
            -368567807 2022224881 -1507957589</internalNodes>
          <leafValues>
            -3.3477416634559631e-01 2.7499064803123474e-01</leafValues></_>
        <_>
          <internalNodes>
            0 -1 109 -16282958 -142791250 -1146196173 -138590991
            -1146374197 -839059656 794032046 -10503766</internalNodes>
          <leafValues>
            -1.7470036447048187e-01 5.3272944688796997e-01</leafValues></_>
        <_>
          <internalNodes>
            0 -1 63 135161328 -1156441658 -582212969 482497098
            -286648044 1271945013 942363179 153342226</internalNodes>
          <leafValues>
            -4.9923315644264221e-01 2.1677112579345703e-01</leafValues></_>
        <_>
          <internalNodes>
            0 -1 59 -42490770 -138969548 616476406 -21245954 -10631356
            -679993484 670957532 -37040130</internalNodes>
          <leafValues>
            -2.3660628497600555e-01 4.1851055622100830e-01</leafValues></_>
        <_>
          <internalNodes>
            0 -1 66 -1206384239 -1179514680 -250494306 -856801264
            -1827448417 -2062966722 -426956131 -1979028919</internalNodes>
          <leafValues>
            -4.0344887971878052e-01 2.7821204066276550e-01</leafValues></_>
        <_>
          <internalNodes>
            0 -1 60 1668538283 -738464018 2113926141 -261638566
            616013545 880760435 -1807786519 -108010441</internalNodes>
          <leafValues>
            -2.3711037635803223e-01 4.5629334449768066e-01</leafValues></_>
        <_>
          <internalNodes>
            0 -1 111 -661529001 271003559 -1342277769 272215622
            -570612582 427540319 903869870 -493355790</internalNodes>
          <leafValues>
            -2.7691435813903809e-01 3.8135918974876404e-01</leafValues></_>
        <_>
          <internalNodes>
            0 -1 35 -1237258628 -619030662 -1958542888 -927797796
            -1101503413 587597371 1111255866 1487176011</internalNodes>
          <leafValues>
            -4.7932440042495728e-01 2.3090453445911407e-01</leafValues></_></weakClassifiers></_>
    <!-- stage 14 -->
    <_>
      <maxWeakCount>12</maxWeakCount>
      <stageThreshold>-1.2510211467742920e+00</stageThreshold>
      <weakClassifiers>
        <_>
          <internalNodes>
            0 -1 62 -246238126 -656710834 -1859825422 -75554165
            -217796421 -911988732 1762327785 -2120769</internalNodes>
          <leafValues>
            -6.4256131649017334e-01 -1.0906701534986496e-01</leafValues></_>
        <_>
          <internalNodes>
            0 -1 107 -2142478851 -662535971 -460861206 -28423315
            -82309939 -745832285 -802957064 -1161928700</internalNodes>
          <leafValues>
            -3.9830267429351807e-01 1.7875225841999054e-01</leafValues></_>
        <_>
          <internalNodes>
            0 -1 116 -1191281817 804769827 -183317010 -1505046501
            -643040648 696483904 1771694855 939436284</internalNodes>
          <leafValues>
            -4.2777934670448303e-01 2.0493479073047638e-01</leafValues></_>
        <_>
          <internalNodes>
            0 -1 18 -2056625259 -740203038 108286654 -808499542
            -1209208695 -1515363935 -1462318946 24004096</internalNodes>
          <leafValues>
            -4.1842955350875854e-01 2.0890440046787262e-01</leafValues></_>
        <_>
          <internalNodes>
            0 -1 23 -925841206 1700322839 26546505 1207042020 1364287882
            -829783757 1946634936 1950951714</internalNodes>
          <leafValues>
            -3.4594666957855225e-01 2.8343355655670166e-01</leafValues></_>
        <_>
          <internalNodes>
            0 -1 106 -72878469 2068557301 1609791918 -780924321
            -2122933778 -1921630221 1761579500 -648552581</internalNodes>
          <leafValues>
            -2.0565631985664368e-01 4.5979014039039612e-01</leafValues></_>
        <_>
          <internalNodes>
            0 -1 14 421092677 -1409609271 -1878687382 -1345369822
            -1151652327 1762426890 -55593149 512781561</internalNodes>
          <leafValues>
            -5.2991145849227905e-01 1.9243842363357544e-01</leafValues></_>
        <_>
          <internalNodes>
            0 -1 33 -1065141150 -1441443424 -1784872768 -1505492965
            -857708659 1548992697 -1011007404 1375298</internalNodes>
          <leafValues>
            -6.0253560543060303e-01 1.5558575093746185e-01</leafValues></_>
        <_>
          <internalNodes>
            0 -1 79 -722288902 -711000369 -159482155 1567711218
            -587853848 2104913783 -335892486 -207938566</internalNodes>
          <leafValues>
            -2.2948560118675232e-01 4.4938269257545471e-01</leafValues></_>
        <_>
          <internalNodes>
            0 -1 124 547153139 763867237 -250541952 -2003427108
            -1609831338 -1685389110 -1545438947 993173432</internalNodes>
          <leafValues>
            -4.7917103767395020e-01 2.2415292263031006e-01</leafValues></_>
        <_>
          <internalNodes>
            0 -1 117 -633340137 1371470843 -1111675687 2023022241
            -859632068 -1460551810 988044700 -1711540493</internalNodes>
          <leafValues>
            -2.7025109529495239e-01 4.0584170818328857e-01</leafValues></_>
        <_>
          <internalNodes>
            0 -1 148 717768349 -28387139 -868083500 -1969426413 39328325
            1337673754 -242621789 679741812</internalNodes>
          <leafValues>
            -6.3126003742218018e-01 1.7071822285652161e-01</leafValues></_></weakClassifiers></_></stages>
  <features>
    <_>
      <rect>
        0 0 15 20</rect></_>
    <_>
      <rect>
        0 1 1 1</rect></_>
    <_>
      <rect>
        0 1 2 1</rect></_>
    <_>
      <rect>
        0 6 10 17</rect></_>
    <_>
      <rect>
        0 10 9 5</rect></_>
    <_>
      <rect>
        0 13 10 6</rect></_>
    <_>
      <rect>
        0 19 8 3</rect></_>
    <_>
      <rect>
        0 22 18 8</rect></_>
    <_>
      <rect>
        0 24 10 7</rect></_>
    <_>
      <rect>
        0 25 20 10</rect></_>
    <_>
      <rect>
        0 30 6 6</rect></_>
    <_>
      <rect>
        0 42 20 6</rect></_>
    <_>
      <rect>
        0 48 9 4</rect></_>
    <_>
      <rect>
        0 51 1 1</rect></_>
    <_>
      <rect>
        0 56 1 1</rect></_>
    <_>
      <rect>
        0 56 3 1</rect></_>
    <_>
      <rect>
        0 57 1 1</rect></_>
    <_>
      <rect>
        1 0 4 1</rect></_>
    <_>
      <rect>
        1 0 19 15</rect></_>
    <_>
      <rect>
        1 1 19 12</rect></_>
    <_>
      <rect>
        1 15 14 14</rect></_>
    <_>
      <rect>
        1 21 6 7</rect></_>
    <_>
      <rect>
        1 31 13 8</rect></_>
    <_>
      <rect>
        1 32 7 4</rect></_>
    <_>
      <rect>
        1 56 2 1</rect></_>
    <_>
      <rect>
        2 7 14 7</rect></_>
    <_>
      <rect>
        2 12 9 7</rect></_>
    <_>
      <rect>
        2 13 5 3</rect></_>
    <_>
      <rect>
        2 14 15 8</rect></_>
    <_>
      <rect>
        2 24 5 4</rect></_>
    <_>
      <rect>
        2 31 6 5</rect></_>
    <_>
      <rect>
        2 41 19 6</rect></_>
    <_>
      <rect>
        2 57 2 1</rect></_>
    <_>
      <rect>
        3 0 14 5</rect></_>
    <_>
      <rect>
        3 8 16 3</rect></_>
    <_>
      <rect>
        3 31 15 8</rect></_>
    <_>
      <rect>
        3 35 18 8</rect></_>
    <_>
      <rect>
        4 56 1 1</rect></_>
    <_>
      <rect>
        5 0 8 2</rect></_>
    <_>
      <rect>
        5 3 7 6</rect></_>
    <_>
      <rect>
        5 9 13 4</rect></_>
    <_>
      <rect>
        5 56 1 1</rect></_>
    <_>
      <rect>
        6 0 1 1</rect></_>
    <_>
      <rect>
        6 22 17 9</rect></_>
    <_>
      <rect>
        6 32 10 5</rect></_>
    <_>
      <rect>
        8 24 9 8</rect></_>
    <_>
      <rect>
        8 47 1 1</rect></_>
    <_>
      <rect>
        8 56 1 1</rect></_>
    <_>
      <rect>
        8 57 1 1</rect></_>
    <_>
      <rect>
        9 0 17 9</rect></_>
    <_>
      <rect>
        9 41 1 1</rect></_>
    <_>
      <rect>
        9 49 1 1</rect></_>
    <_>
      <rect>
        10 56 1 1</rect></_>
    <_>
      <rect>
        10 57 1 1</rect></_>
    <_>
      <rect>
        11 8 16 7</rect></_>
    <_>
      <rect>
        12 57 1 1</rect></_>
    <_>
      <rect>
        13 57 1 1</rect></_>
    <_>
      <rect>
        14 8 1 1</rect></_>
    <_>
      <rect>
        14 13 15 14</rect></_>
    <_>
      <rect>
        14 32 1 1</rect></_>
    <_>
      <rect>
        14 34 9 5</rect></_>
    <_>
      <rect>
        14 37 15 7</rect></_>
    <_>
      <rect>
        14 54 1 1</rect></_>
    <_>
      <rect>
        15 18 11 7</rect></_>
    <_>
      <rect>
        15 24 13 7</rect></_>
    <_>
      <rect>
        16 17 14 6</rect></_>
    <_>
      <rect>
        16 30 1 1</rect></_>
    <_>
      <rect>
        16 53 1 1</rect></_>
    <_>
      <rect>
        16 56 2 1</rect></_>
    <_>
      <rect>
        17 0 13 8</rect></_>
    <_>
      <rect>
        19 36 9 7</rect></_>
    <_>
      <rect>
        20 23 7 5</rect></_>
    <_>
      <rect>
        21 1 13 11</rect></_>
    <_>
      <rect>
        21 21 1 1</rect></_>
    <_>
      <rect>
        22 0 1 1</rect></_>
    <_>
      <rect>
        22 14 1 1</rect></_>
    <_>
      <rect>
        22 39 1 1</rect></_>
    <_>
      <rect>
        23 0 9 5</rect></_>
    <_>
      <rect>
        23 21 9 5</rect></_>
    <_>
      <rect>
        23 26 1 1</rect></_>
    <_>
      <rect>
        23 34 12 7</rect></_>
    <_>
      <rect>
        23 39 1 1</rect></_>
    <_>
      <rect>
        24 18 1 1</rect></_>
    <_>
      <rect>
        24 21 1 1</rect></_>
    <_>
      <rect>
        24 25 1 1</rect></_>
    <_>
      <rect>
        25 57 1 1</rect></_>
    <_>
      <rect>
        27 18 11 13</rect></_>
    <_>
      <rect>
        28 18 10 6</rect></_>
    <_>
      <rect>
        29 11 1 1</rect></_>
    <_>
      <rect>
        29 16 1 1</rect></_>
    <_>
      <rect>
        29 18 1 1</rect></_>
    <_>
      <rect>
        29 23 1 1</rect></_>
    <_>
      <rect>
        30 12 10 5</rect></_>
    <_>
      <rect>
        30 37 9 3</rect></_>
    <_>
      <rect>
        30 56 2 1</rect></_>
    <_>
      <rect>
        31 0 1 1</rect></_>
    <_>
      <rect>
        32 22 1 1</rect></_>
    <_>
      <rect>
        33 23 9 5</rect></_>
    <_>
      <rect>
        33 39 1 1</rect></_>
    <_>
      <rect>
        34 57 2 1</rect></_>
    <_>
      <rect>
        36 10 8 4</rect></_>
    <_>
      <rect>
        36 23 8 3</rect></_>
    <_>
      <rect>
        36 25 8 9</rect></_>
    <_>
      <rect>
        36 46 1 1</rect></_>
    <_>
      <rect>
        37 11 1 1</rect></_>
    <_>
      <rect>
        37 20 1 1</rect></_>
    <_>
      <rect>
        37 39 5 4</rect></_>
    <_>
      <rect>
        37 53 1 1</rect></_>
    <_>
      <rect>
        37 56 1 1</rect></_>
    <_>
      <rect>
        38 7 1 1</rect></_>
    <_>
      <rect>
        38 41 1 1</rect></_>
    <_>
      <rect>
        39 13 7 4</rect></_>
    <_>
      <rect>
        39 17 7 10</rect></_>
    <_>
      <rect>
        39 29 7 4</rect></_>
    <_>
      <rect>
        39 31 1 1</rect></_>
    <_>
      <rect>
        39 48 5 4</rect></_>
    <_>
      <rect>
        40 56 1 1</rect></_>
    <_>
      <rect>
        42 20 6 4</rect></_>
    <_>
      <rect>
        42 56 1 1</rect></_>
    <_>
      <rect>
        44 0 3 1</rect></_>
    <_>
      <rect>
        45 55 1 1</rect></_>
    <_>
      <rect>
        45 56 1 1</rect></_>
    <_>
      <rect>
        46 0 1 1</rect></_>
    <_>
      <rect>
        46 23 1 1</rect></_>
    <_>
      <rect>
        47 56 3 1</rect></_>
    <_>
      <rect>
        48 53 1 1</rect></_>
    <_>
      <rect>
        48 56 2 1</rect></_>
    <_>
      <rect>
        48 57 2 1</rect></_>
    <_>
      <rect>
        51 56 2 1</rect></_>
    <_>
      <rect>
        51 57 2 1</rect></_>
    <_>
      <rect>
        53 37 1 1</rect></_>
    <_>
      <rect>
        53 57 1 1</rect></_>
    <_>
      <rect>
        54 20 1 1</rect></_>
    <_>
      <rect>
        55 57 1 1</rect></_>
    <_>
      <rect>
        56 0 1 1</rect></_>
    <_>
      <rect>
        56 1 1 2</rect></_>
    <_>
      <rect>
        56 4 1 1</rect></_>
    <_>
      <rect>
        56 5 1 1</rect></_>
    <_>
      <rect>
        56 8 1 1</rect></_>
    <_>
      <rect>
        56 12 1 1</rect></_>
    <_>
      <rect>
        56 32 1 1</rect></_>
    <_>
      <rect>
        56 42 1 1</rect></_>
    <_>
      <rect>
        56 44 1 1</rect></_>
    <_>
      <rect>
        56 49 1 1</rect></_>
    <_>
      <rect>
        56 55 1 1</rect></_>
    <_>
      <rect>
        56 56 1 1</rect></_>
    <_>
      <rect>
        56 57 1 1</rect></_>
    <_>
      <rect>
        57 0 1 1</rect></_>
    <_>
      <rect>
        57 20 1 1</rect></_>
    <_>
      <rect>
        57 56 1 1</rect></_>
    <_>
      <rect>
        57 57 1 1</rect></_></features></cascade>
</opencv_storage>
