<?xml version="1.0"?>
<opencv_storage>
<cascade>
  <stageType>BOOST</stageType>
  <featureType>LBP</featureType>
  <height>60</height>
  <width>60</width>
  <stageParams>
    <boostType>GAB</boostType>
    <minHitRate>9.9500000476837158e-01</minHitRate>
    <maxFalseAlarm>5.0000000000000000e-01</maxFalseAlarm>
    <weightTrimRate>9.4999999999999996e-01</weightTrimRate>
    <maxDepth>1</maxDepth>
    <maxWeakCount>100</maxWeakCount></stageParams>
  <featureParams>
    <maxCatCount>256</maxCatCount>
    <featSize>1</featSize></featureParams>
  <stageNum>15</stageNum>
  <stages>
    <!-- stage 0 -->
    <_>
      <maxWeakCount>7</maxWeakCount>
      <stageThreshold>-1.3868641853332520e+00</stageThreshold>
      <weakClassifiers>
        <_>
          <internalNodes>
            0 -1 46 -800588834 -645865456 -1962878307 -788434622
            -1073707784 -494174192 -1065291526 2019018290</internalNodes>
          <leafValues>
            -7.5750577449798584e-01 -1.0138248652219772e-01</leafValues></_>
        <_>
          <internalNodes>
            0 -1 7 -456731942 -210598974 -805301927 -520060918
            -926891102 -637362084 1224795160 1145295619</internalNodes>
          <leafValues>
            -5.3432160615921021e-01 2.6352384686470032e-01</leafValues></_>
        <_>
          <internalNodes>
            0 -1 56 -81798954 -1860811454 1954562550 46493891
            -1565215788 1251606912 903531516 1076949186</internalNodes>
          <leafValues>
            -5.2373015880584717e-01 2.9603573679924011e-01</leafValues></_>
        <_>
          <internalNodes>
            0 -1 76 -1728100236 -669255231 -745942051 -1103718311
            -829535792 -1574747968 -1697716556 -1097181532</internalNodes>
          <leafValues>
            -4.2696866393089294e-01 3.5732275247573853e-01</leafValues></_>
        <_>
          <internalNodes>
            0 -1 121 -1406202073 -290455681 -148 -1393098950 -1090683521
            2012688254 -285286569 -184617129</internalNodes>
          <leafValues>
            -3.5342007875442505e-01 4.3686360120773315e-01</leafValues></_>
        <_>
          <internalNodes>
            0 -1 29 -515063166 307282502 285459551 419825715 -1677360996
            -1878237056 1640120986 1080522070</internalNodes>
          <leafValues>
            -5.2749121189117432e-01 3.0606493353843689e-01</leafValues></_>
        <_>
          <internalNodes>
            0 -1 50 2124343545 -82654894 1426063475 2025861194
            -1143182696 -360562555 -1962049200 1145332800</internalNodes>
          <leafValues>
            -5.3716135025024414e-01 3.0624049901962280e-01</leafValues></_></weakClassifiers></_>
    <!-- stage 1 -->
    <_>
      <maxWeakCount>7</maxWeakCount>
      <stageThreshold>-1.3069587945938110e+00</stageThreshold>
      <weakClassifiers>
        <_>
          <internalNodes>
            0 -1 26 1073690111 -2498053 -91894353 -279446659 -1106289809
            -1075665927 -1555096203 -3</internalNodes>
          <leafValues>
            -7.2871571779251099e-01 -7.0921987295150757e-02</leafValues></_>
        <_>
          <internalNodes>
            0 -1 137 716537109 -1503857833 -1752705425 -354707457
            -1395458975 -1772890697 -624829065 -1359153739</internalNodes>
          <leafValues>
            -5.8057367801666260e-01 2.1510627865791321e-01</leafValues></_>
        <_>
          <internalNodes>
            0 -1 139 619018085 -1361651755 -607396413 -289414293
            -69633933 -1349860726 -335807451 918093749</internalNodes>
          <leafValues>
            -6.5743571519851685e-01 2.0158417522907257e-01</leafValues></_>
        <_>
          <internalNodes>
            0 -1 60 -707400232 -203625008 -211957684 -620693968
            1624024780 -2004233680 1481954552 138670999</internalNodes>
          <leafValues>
            -4.7684589028358459e-01 3.1826469302177429e-01</leafValues></_>
        <_>
          <internalNodes>
            0 -1 124 -1489004553 -1351680521 -16781393 -352682011
            -268435593 -33554561 -805355657 -290529862</internalNodes>
          <leafValues>
            -3.1826734542846680e-01 4.5661291480064392e-01</leafValues></_>
        <_>
          <internalNodes>
            0 -1 10 -162532422 -239696110 287396346 1468147394
            1406209136 -184549216 1896191994 1359047530</internalNodes>
          <leafValues>
            -4.3239045143127441e-01 3.4385535120964050e-01</leafValues></_>
        <_>
          <internalNodes>
            0 -1 43 -1075368321 -281018691 -1342324761 -268439569
            -557714 1610612735 -1242208426 -161743387</internalNodes>
          <leafValues>
            -3.4108394384384155e-01 4.3118524551391602e-01</leafValues></_></weakClassifiers></_>
    <!-- stage 2 -->
    <_>
      <maxWeakCount>8</maxWeakCount>
      <stageThreshold>-1.2651617527008057e+00</stageThreshold>
      <weakClassifiers>
        <_>
          <internalNodes>
            0 -1 110 -1476431873 -1430782017 -699405909 -1430851289
            -1377085057 -473716313 -1345931467 -67175745</internalNodes>
          <leafValues>
            -7.2764378786087036e-01 -1.1535269767045975e-01</leafValues></_>
        <_>
          <internalNodes>
            0 -1 138 783576885 -1495761957 -652115057 -358724710
            2044620647 -158093347 -808849836 784105341</internalNodes>
          <leafValues>
            -7.9376918077468872e-01 8.2827337086200714e-02</leafValues></_>
        <_>
          <internalNodes>
            0 -1 91 177869589 1022371697 -539704844 -145206763
            -436177059 -336858691 -1564533039 -1610989452</internalNodes>
          <leafValues>
            -5.1431405544281006e-01 2.5634896755218506e-01</leafValues></_>
        <_>
          <internalNodes>
            0 -1 72 780024637 -338233573 -73086010 -1495761477
            1676110101 570409447 -1215343772 -67470124</internalNodes>
          <leafValues>
            -4.4395843148231506e-01 3.1210902333259583e-01</leafValues></_>
        <_>
          <internalNodes>
            0 -1 80 -750258182 1369292972 -1602019239 1368998144
            -1055919926 958722 1210467580 1091552510</internalNodes>
          <leafValues>
            -3.5130086541175842e-01 3.8386681675910950e-01</leafValues></_>
        <_>
          <internalNodes>
            0 -1 49 -1879097993 -1367363777 -4116 -286031945 -668041
            536829951 -1073998075 -310387291</internalNodes>
          <leafValues>
            -3.5972896218299866e-01 3.9547204971313477e-01</leafValues></_>
        <_>
          <internalNodes>
            0 -1 27 -137832168 -212762596 1073770641 1360869649
            -1575700434 -492961686 -1068778833 308035778</internalNodes>
          <leafValues>
            -5.2640962600708008e-01 2.7107876539230347e-01</leafValues></_>
        <_>
          <internalNodes>
            0 -1 79 -1527624411 -1190635725 1055953872 -51201379
            -1747430413 -1169430991 1426262929 -1099033420</internalNodes>
          <leafValues>
            -4.5857000350952148e-01 3.1380805373191833e-01</leafValues></_></weakClassifiers></_>
    <!-- stage 3 -->
    <_>
      <maxWeakCount>9</maxWeakCount>
      <stageThreshold>-1.3705123662948608e+00</stageThreshold>
      <weakClassifiers>
        <_>
          <internalNodes>
            0 -1 52 -134251137 -271067649 -561776349 -275050065
            -68157441 -289292129 -2098365 -1</internalNodes>
          <leafValues>
            -6.5064972639083862e-01 8.9678511023521423e-02</leafValues></_>
        <_>
          <internalNodes>
            0 -1 144 774117885 -1399154237 -1013456129 -1172960612
            -1645335715 -270736649 -69544203 -1363378699</internalNodes>
          <leafValues>
            -5.3624057769775391e-01 1.8090362846851349e-01</leafValues></_>
        <_>
          <internalNodes>
            0 -1 133 1073020765 -1904232675 -40987733 -356515845
            -168862883 -722475445 -86246348 788299132</internalNodes>
          <leafValues>
            -5.6927978992462158e-01 2.1005122363567352e-01</leafValues></_>
        <_>
          <internalNodes>
            0 -1 8 -60884738 494432334 1343213978 1898972170 1725155342
            -567620544 1275425514 1950443090</internalNodes>
          <leafValues>
            -4.4542571902275085e-01 3.1202435493469238e-01</leafValues></_>
        <_>
          <internalNodes>
            0 -1 143 209996449 -1404777249 -796660226 -85153314
            -26455696 -239381805 -1178682379 -1501271708</internalNodes>
          <leafValues>
            -5.4967266321182251e-01 2.4846836924552917e-01</leafValues></_>
        <_>
          <internalNodes>
            0 -1 18 -395908141 2075831366 788063991 -8798489 1689808559
            -21076107 1517698158 -68684313</internalNodes>
          <leafValues>
            -2.7794992923736572e-01 5.0635784864425659e-01</leafValues></_>
        <_>
          <internalNodes>
            0 -1 84 -1902625355 -422027899 -334772074 -684838839
            -343744207 -820412286 -253078220 -1162203399</internalNodes>
          <leafValues>
            -4.1265320777893066e-01 3.3070552349090576e-01</leafValues></_>
        <_>
          <internalNodes>
            0 -1 11 -523258958 -1198083904 621516906 -649460650
            -297250656 1210138677 -310358656 1344395490</internalNodes>
          <leafValues>
            -5.1680743694305420e-01 2.6337346434593201e-01</leafValues></_>
        <_>
          <internalNodes>
            0 -1 36 -207089683 72023851 -66518225 1086608096 -220442295
            -1286573557 -1567666347 -285541868</internalNodes>
          <leafValues>
            -4.3230137228965759e-01 3.3148899674415588e-01</leafValues></_></weakClassifiers></_>
    <!-- stage 4 -->
    <_>
      <maxWeakCount>10</maxWeakCount>
      <stageThreshold>-1.1492567062377930e+00</stageThreshold>
      <weakClassifiers>
        <_>
          <internalNodes>
            0 -1 13 -1078198785 -269485607 -705570865 -301992995
            -203425025 -68573029 -619725961 -1283</internalNodes>
          <leafValues>
            -6.5705424547195435e-01 2.8148148208856583e-02</leafValues></_>
        <_>
          <internalNodes>
            0 -1 147 720732025 -1359506725 -116428317 -295828779
            -74581890 -1449146149 -551619757 2143068159</internalNodes>
          <leafValues>
            -5.4541677236557007e-01 1.6944955289363861e-01</leafValues></_>
        <_>
          <internalNodes>
            0 -1 85 -1440981232 -1372303157 -174273825 -1093656769
            -274110983 -123493183 -1631417624 -1196282251</internalNodes>
          <leafValues>
            -4.6770128607749939e-01 2.5555694103240967e-01</leafValues></_>
        <_>
          <internalNodes>
            0 -1 0 -68945982 -282352498 -685652368 -1172769054
            -839259196 -1706425591 1878851712 1615128742</internalNodes>
          <leafValues>
            -4.8610138893127441e-01 2.5150400400161743e-01</leafValues></_>
        <_>
          <internalNodes>
            0 -1 119 301301241 -1948255855 -107742769 -1405099849
            1942026348 -208959231 -1316124299 -290931803</internalNodes>
          <leafValues>
            -3.9663529396057129e-01 3.1481060385704041e-01</leafValues></_>
        <_>
          <internalNodes>
            0 -1 3 -972100452 498647370 1497457160 2098692488 950682037
            -1440599268 247628419 1113813251</internalNodes>
          <leafValues>
            -4.5984968543052673e-01 2.8891631960868835e-01</leafValues></_>
        <_>
          <internalNodes>
            0 -1 135 375749749 -1361980981 -786433577 -798243683
            -724162307 -81166204 1068202232 -1428657675</internalNodes>
          <leafValues>
            -4.3692994117736816e-01 2.9833784699440002e-01</leafValues></_>
        <_>
          <internalNodes>
            0 -1 82 -95425075 745386346 -435891032 -1436658809
            -586565784 1469677750 2078391844 -427558249</internalNodes>
          <leafValues>
            -4.7314563393592834e-01 2.8957605361938477e-01</leafValues></_>
        <_>
          <internalNodes>
            0 -1 28 -104601958 -1744673281 1076617784 1141760657
            2014036356 -293400439 -364435320 1282929165</internalNodes>
          <leafValues>
            -4.5127496123313904e-01 2.9347184300422668e-01</leafValues></_>
        <_>
          <internalNodes>
            0 -1 2 -792218433 464148971 -2138943318 -619794282
            1892355468 -1404417830 -863986726 1188099414</internalNodes>
          <leafValues>
            -3.7857836484909058e-01 3.7807011604309082e-01</leafValues></_></weakClassifiers></_>
    <!-- stage 5 -->
    <_>
      <maxWeakCount>11</maxWeakCount>
      <stageThreshold>-1.5106028318405151e+00</stageThreshold>
      <weakClassifiers>
        <_>
          <internalNodes>
            0 -1 41 -134217729 -28321 -682264369 -272639027 -71042321
            -315647958 -18352013 -67109385</internalNodes>
          <leafValues>
            -6.2828284502029419e-01 1.7701148986816406e-01</leafValues></_>
        <_>
          <internalNodes>
            0 -1 108 -1997578251 628036745 1481365414 -1430548230
            1657122686 -1933641025 -815074503 -1094792197</internalNodes>
          <leafValues>
            -4.2096614837646484e-01 2.1839848160743713e-01</leafValues></_>
        <_>
          <internalNodes>
            0 -1 92 -602931750 474676129 79773106 1000927909 2033909968
            1258863370 -643028476 -2138776828</internalNodes>
          <leafValues>
            -4.4691306352615356e-01 2.2286392748355865e-01</leafValues></_>
        <_>
          <internalNodes>
            0 -1 45 -298333076 -1389470570 -1735749454 -967271788
            1259915599 1795838603 -789335660 -588973754</internalNodes>
          <leafValues>
            -4.0502965450286865e-01 2.5604054331779480e-01</leafValues></_>
        <_>
          <internalNodes>
            0 -1 130 1041256237 543486417 -650645183 -287378097
            1940255263 1845605031 -1143260623 990665077</internalNodes>
          <leafValues>
            -6.4143115282058716e-01 1.8847955763339996e-01</leafValues></_>
        <_>
          <internalNodes>
            0 -1 6 -503383460 1894054356 21469577 1629082586 -124722466
            1937893637 1220845740 1094001904</internalNodes>
          <leafValues>
            -5.1553201675415039e-01 1.9421789050102234e-01</leafValues></_>
        <_>
          <internalNodes>
            0 -1 89 -612898117 445662430 -323026978 896706742 1761602203
            72547413 1308482776 -867965478</internalNodes>
          <leafValues>
            -2.8368419408798218e-01 3.9201456308364868e-01</leafValues></_>
        <_>
          <internalNodes>
            0 -1 47 -1513794195 991988311 -934234916 -608696020
            -56997883 -637615463 -1172924543 -1405455856</internalNodes>
          <leafValues>
            -3.9036354422569275e-01 2.9352089762687683e-01</leafValues></_>
        <_>
          <internalNodes>
            0 -1 99 -1049306 2023877357 -1091147877 -1678576223
            217707963 -2131298980 -1049501554 -1310206526</internalNodes>
          <leafValues>
            -2.8034958243370056e-01 4.1288027167320251e-01</leafValues></_>
        <_>
          <internalNodes>
            0 -1 16 -481644406 -1181242733 269549757 -1482059635
            -402258250 -23414769 -1450237043 839259764</internalNodes>
          <leafValues>
            -4.7605317831039429e-01 2.5167861580848694e-01</leafValues></_>
        <_>
          <internalNodes>
            0 -1 59 663302151 1740816697 1208124622 -341610358
            1938515695 641449989 199110981 2133719368</internalNodes>
          <leafValues>
            -5.7266604900360107e-01 2.0389497280120850e-01</leafValues></_></weakClassifiers></_>
    <!-- stage 6 -->
    <_>
      <maxWeakCount>10</maxWeakCount>
      <stageThreshold>-1.6117227077484131e+00</stageThreshold>
      <weakClassifiers>
        <_>
          <internalNodes>
            0 -1 14 -150995585 -2362921 -752092209 -269487139 -341836549
            -72691581 -5506777 -8193</internalNodes>
          <leafValues>
            -6.2352263927459717e-01 1.4617168903350830e-01</leafValues></_>
        <_>
          <internalNodes>
            0 -1 122 -1205698819 -1412695841 -909584414 -1361162034
            -1445275090 2131728903 -840708033 -1230050845</internalNodes>
          <leafValues>
            -4.2485696077346802e-01 2.2524568438529968e-01</leafValues></_>
        <_>
          <internalNodes>
            0 -1 25 -336595110 1273733624 2043515596 319857746
            1089433480 505950451 1089873656 1342230944</internalNodes>
          <leafValues>
            -5.2848070859909058e-01 1.9157716631889343e-01</leafValues></_>
        <_>
          <internalNodes>
            0 -1 102 -1498251337 -927149937 -753608385 -1090631458
            -1529065437 -993793311 -56978460 -1230340372</internalNodes>
          <leafValues>
            -3.6259981989860535e-01 2.7497050166130066e-01</leafValues></_>
        <_>
          <internalNodes>
            0 -1 98 -35389710 -1238015406 2113929209 -1988313177
            1961993656 1212055525 480934036 1214764446</internalNodes>
          <leafValues>
            -3.1367084383964539e-01 3.4459581971168518e-01</leafValues></_>
        <_>
          <internalNodes>
            0 -1 63 -1801312399 -1275063742 -989630329 -1083030575
            -1995546591 -674262846 -1543608140 -1128338799</internalNodes>
          <leafValues>
            -3.5956257581710815e-01 2.9872035980224609e-01</leafValues></_>
        <_>
          <internalNodes>
            0 -1 70 -322247300 170574550 309763672 1271554694
            -1027759968 340679106 -725064848 17031238</internalNodes>
          <leafValues>
            -6.0309338569641113e-01 1.7486138641834259e-01</leafValues></_>
        <_>
          <internalNodes>
            0 -1 123 -1908473878 -356003245 -855387804 1274581476
            -1307382992 227068035 -266831849 -1301325424</internalNodes>
          <leafValues>
            -4.2018523812294006e-01 2.6149654388427734e-01</leafValues></_>
        <_>
          <internalNodes>
            0 -1 74 -559248210 -720174845 -2063589954 -83283428
            324670863 -1075511266 714752440 574628112</internalNodes>
          <leafValues>
            -5.4187107086181641e-01 2.0264714956283569e-01</leafValues></_>
        <_>
          <internalNodes>
            0 -1 114 -1485932241 105669376 17150711 1674997882
            -884378581 -1979572064 -1931937429 -1963052673</internalNodes>
          <leafValues>
            -3.8833287358283997e-01 2.9841360449790955e-01</leafValues></_></weakClassifiers></_>
    <!-- stage 7 -->
    <_>
      <maxWeakCount>11</maxWeakCount>
      <stageThreshold>-1.2913451194763184e+00</stageThreshold>
      <weakClassifiers>
        <_>
          <internalNodes>
            0 -1 33 -2049 -3672113 -913651221 -338172977 -108595041
            -1474531 -84935817 -4211713</internalNodes>
          <leafValues>
            -6.1685168743133545e-01 1.7312660813331604e-01</leafValues></_>
        <_>
          <internalNodes>
            0 -1 132 1053880125 -1411694177 -753405213 802558876
            -207751577 -226033532 -1719147675 1017667045</internalNodes>
          <leafValues>
            -5.7556647062301636e-01 1.0099027305841446e-01</leafValues></_>
        <_>
          <internalNodes>
            0 -1 23 1881196422 424362102 -921671067 -1860631549
            1112345788 -1880774027 2067908952 -306125801</internalNodes>
          <leafValues>
            -3.7767311930656433e-01 2.5585284829139709e-01</leafValues></_>
        <_>
          <internalNodes>
            0 -1 77 -1501669531 -321114040 -936683687 2144755827
            -2002715956 -393674623 666974533 -425788820</internalNodes>
          <leafValues>
            -3.2199791073799133e-01 3.2623970508575439e-01</leafValues></_>
        <_>
          <internalNodes>
            0 -1 69 -1315052528 1390567512 -1800942659 -1662714174
            134973354 -1399832665 409935530 430699251</internalNodes>
          <leafValues>
            -4.0763619542121887e-01 2.4386204779148102e-01</leafValues></_>
        <_>
          <internalNodes>
            0 -1 42 -643832800 1632176288 546066566 1791624855
            -794133935 1459646600 1694519302 1424945694</internalNodes>
          <leafValues>
            -4.3773609399795532e-01 2.5240725278854370e-01</leafValues></_>
        <_>
          <internalNodes>
            0 -1 103 203313135 -1308311415 -864559458 -1110515195
            -1331138215 690717837 1089382623 -1346883335</internalNodes>
          <leafValues>
            -3.9626449346542358e-01 2.8153619170188904e-01</leafValues></_>
        <_>
          <internalNodes>
            0 -1 5 -403730785 -34906509 -1082731169 521698421 1723127526
            -543264779 -330154259 -749607613</internalNodes>
          <leafValues>
            -2.5128570199012756e-01 4.4284084439277649e-01</leafValues></_>
        <_>
          <internalNodes>
            0 -1 44 -761531647 -1545502369 -1739200061 792106443
            -450134457 -1816985267 1369994051 1943466871</internalNodes>
          <leafValues>
            -4.8749059438705444e-01 2.3682273924350739e-01</leafValues></_>
        <_>
          <internalNodes>
            0 -1 21 -587807211 2119307543 -935016104 2108744466
            -386638855 218708043 2066693066 544491867</internalNodes>
          <leafValues>
            -3.9333525300025940e-01 2.8552901744842529e-01</leafValues></_>
        <_>
          <internalNodes>
            0 -1 51 -1050247082 -796933068 -1323630469 -211529402
            -134150270 -1692823909 -1334998341 -839265248</internalNodes>
          <leafValues>
            -3.7080779671669006e-01 3.1195390224456787e-01</leafValues></_></weakClassifiers></_>
    <!-- stage 8 -->
    <_>
      <maxWeakCount>11</maxWeakCount>
      <stageThreshold>-1.1822233200073242e+00</stageThreshold>
      <weakClassifiers>
        <_>
          <internalNodes>
            0 -1 40 -1214414977 -338824249 -645871381 -337912883
            -276562945 -108859261 -154420633 -1131523</internalNodes>
          <leafValues>
            -6.9333332777023315e-01 -1.8999999761581421e-01</leafValues></_>
        <_>
          <internalNodes>
            0 -1 78 215749661 -824707747 -511642934 -321551038
            2143511879 -477183287 -90265807 61742837</internalNodes>
          <leafValues>
            -6.0105925798416138e-01 8.2225739955902100e-02</leafValues></_>
        <_>
          <internalNodes>
            0 -1 131 1031133805 -864621673 -166456758 -1365297251
            -527820449 -187989331 -1685198827 947679805</internalNodes>
          <leafValues>
            -5.1974660158157349e-01 1.6821555793285370e-01</leafValues></_>
        <_>
          <internalNodes>
            0 -1 31 -563417378 1939581010 -1001213523 5112554 1849200853
            -109113083 37085650 -800603526</internalNodes>
          <leafValues>
            -3.2103273272514343e-01 3.1730791926383972e-01</leafValues></_>
        <_>
          <internalNodes>
            0 -1 93 1565519763 2086857880 2138602493 -1989681219
            -555944257 -289459341 9477486 23573143</internalNodes>
          <leafValues>
            -2.9667630791664124e-01 3.5223940014839172e-01</leafValues></_>
        <_>
          <internalNodes>
            0 -1 54 893807669 102565005 -262964817 -1028460239
            -2113591197 -973043061 -137828815 1995451248</internalNodes>
          <leafValues>
            -5.8747661113739014e-01 1.8598681688308716e-01</leafValues></_>
        <_>
          <internalNodes>
            0 -1 120 -1143881566 2056713818 420533204 1414826692
            -1839584507 1847796560 456706477 -413404346</internalNodes>
          <leafValues>
            -3.4273105859756470e-01 3.0825066566467285e-01</leafValues></_>
        <_>
          <internalNodes>
            0 -1 38 1018088064 378716944 1108413453 -1660446693
            1004497075 1042434208 353921181 140080483</internalNodes>
          <leafValues>
            -4.7498467564582825e-01 2.2587589919567108e-01</leafValues></_>
        <_>
          <internalNodes>
            0 -1 39 -1325907951 1919174940 -670804518 -563342840
            -393652720 -1442078720 -1205834765 -4567111</internalNodes>
          <leafValues>
            -3.9642626047134399e-01 2.7915465831756592e-01</leafValues></_>
        <_>
          <internalNodes>
            0 -1 1 -724970260 -1353367188 117156594 1727910428
            -1899193162 173594779 1119745186 4945236</internalNodes>
          <leafValues>
            -5.3856563568115234e-01 1.9508036971092224e-01</leafValues></_>
        <_>
          <internalNodes>
            0 -1 30 -85799137 339451495 -335993025 -1950634373
            -724724328 -578879625 -1079264040 -230031730</internalNodes>
          <leafValues>
            -2.7288830280303955e-01 4.3942931294441223e-01</leafValues></_></weakClassifiers></_>
    <!-- stage 9 -->
    <_>
      <maxWeakCount>11</maxWeakCount>
      <stageThreshold>-1.3947167396545410e+00</stageThreshold>
      <weakClassifiers>
        <_>
          <internalNodes>
            0 -1 68 -11534337 -2928201 -240915989 -337671205 -71830553
            -309465781 -140535181 -4195393</internalNodes>
          <leafValues>
            -6.1216944456100464e-01 1.3838119804859161e-01</leafValues></_>
        <_>
          <internalNodes>
            0 -1 146 764968313 -1357196817 -2062172018 -498195715
            2072524875 2022408323 -67114641 985461756</internalNodes>
          <leafValues>
            -6.1946046352386475e-01 9.3953795731067657e-02</leafValues></_>
        <_>
          <internalNodes>
            0 -1 116 -1364 1173859517 1941894440 -360710684 -134744603
            1572830582 796390487 -197425957</internalNodes>
          <leafValues>
            -2.6459482312202454e-01 3.5532900691032410e-01</leafValues></_>
        <_>
          <internalNodes>
            0 -1 4 -292884773 514264681 -1212256735 -1727474049
            -2076107034 -94570546 -327267119 -517814445</internalNodes>
          <leafValues>
            -2.8031572699546814e-01 3.2486191391944885e-01</leafValues></_>
        <_>
          <internalNodes>
            0 -1 86 -935614464 444756432 1280743974 1710760136 868180708
            84279543 -993308408 1090968196</internalNodes>
          <leafValues>
            -5.3760224580764771e-01 2.1058392524719238e-01</leafValues></_>
        <_>
          <internalNodes>
            0 -1 117 -271402840 -671117380 968244187 1474013685
            -1342652438 -58953835 -1629950209 -805568566</internalNodes>
          <leafValues>
            -2.1546250581741333e-01 4.9002540111541748e-01</leafValues></_>
        <_>
          <internalNodes>
            0 -1 105 -1969476028 421740744 1644253200 414325123
            -372544072 -1732440059 1705934868 2475026</internalNodes>
          <leafValues>
            -5.2416533231735229e-01 2.1356727182865143e-01</leafValues></_>
        <_>
          <internalNodes>
            0 -1 141 1876197057 -908611445 1364849026 -90255214
            -612349373 1535116838 -58524930 -153600540</internalNodes>
          <leafValues>
            -3.8696646690368652e-01 2.7320915460586548e-01</leafValues></_>
        <_>
          <internalNodes>
            0 -1 106 -1468847115 -1411526377 -1052651038 675433879
            -104728287 1740194257 -1198614415 442917277</internalNodes>
          <leafValues>
            -5.2199172973632813e-01 2.0562176406383514e-01</leafValues></_>
        <_>
          <internalNodes>
            0 -1 101 -1635647147 -735436152 314900511 1004032736
            -1056392848 1241874953 -260005732 -1415004003</internalNodes>
          <leafValues>
            -4.0095397830009460e-01 2.7062749862670898e-01</leafValues></_>
        <_>
          <internalNodes>
            0 -1 71 689047849 37752865 -129484324 -1387110312 1489395840
            -1727135461 -1278715236 -1180035068</internalNodes>
          <leafValues>
            -5.2908694744110107e-01 2.0628814399242401e-01</leafValues></_></weakClassifiers></_>
    <!-- stage 10 -->
    <_>
      <maxWeakCount>12</maxWeakCount>
      <stageThreshold>-1.5107530355453491e+00</stageThreshold>
      <weakClassifiers>
        <_>
          <internalNodes>
            0 -1 126 -547954785 -387975205 -787361494 -830844529
            -876373233 -1448414646 -81086421 -272958785</internalNodes>
          <leafValues>
            -6.8340051174163818e-01 -2.0068317651748657e-01</leafValues></_>
        <_>
          <internalNodes>
            0 -1 64 -1343324811 -321120079 -216924978 -270601315
            -204739737 425893907 -72697835 1061087740</internalNodes>
          <leafValues>
            -4.8436391353607178e-01 1.2679260969161987e-01</leafValues></_>
        <_>
          <internalNodes>
            0 -1 73 -942475382 -22312814 -2008520512 72368342 1382455554
            29376522 -35738874 -1043196216</internalNodes>
          <leafValues>
            -3.5370302200317383e-01 2.5079265236854553e-01</leafValues></_>
        <_>
          <internalNodes>
            0 -1 96 1896862261 417855091 -275518549 1014759214
            1834894553 -1938071594 -86519592 -589564003</internalNodes>
          <leafValues>
            -2.6730972528457642e-01 3.5221004486083984e-01</leafValues></_>
        <_>
          <internalNodes>
            0 -1 62 -1580467467 17965077 -1121431298 1232220354
            298889902 148488950 1845096851 167547542</internalNodes>
          <leafValues>
            -3.4600242972373962e-01 2.9158261418342590e-01</leafValues></_>
        <_>
          <internalNodes>
            0 -1 57 -565715078 -28036005 1502968107 850355682 -86579050
            -1116586439 1141936593 2036573050</internalNodes>
          <leafValues>
            -3.4805449843406677e-01 2.8576809167861938e-01</leafValues></_>
        <_>
          <internalNodes>
            0 -1 61 -1130544388 2075152864 -266279646 197988553
            -1192691940 -1699706993 -1409103010 1175209619</internalNodes>
          <leafValues>
            -3.8941419124603271e-01 2.6496672630310059e-01</leafValues></_>
        <_>
          <internalNodes>
            0 -1 97 1246053633 892543620 1926172971 900528451 143206483
            714138589 1404354687 444842570</internalNodes>
          <leafValues>
            -3.6947485804557800e-01 2.6903659105300903e-01</leafValues></_>
        <_>
          <internalNodes>
            0 -1 34 -1371603243 -94743783 18571072 -106018232 731609335
            -1975826285 -942695224 324978</internalNodes>
          <leafValues>
            -4.2605707049369812e-01 2.3349350690841675e-01</leafValues></_>
        <_>
          <internalNodes>
            0 -1 90 -743194098 -483213472 785313525 -210653708
            1744484043 1567358837 -2055973640 -749484513</internalNodes>
          <leafValues>
            -2.8656265139579773e-01 3.7102311849594116e-01</leafValues></_>
        <_>
          <internalNodes>
            0 -1 115 1623574039 1696989235 1476717967 -1059684258
            1133364895 -892319670 -1836882578 2094392675</internalNodes>
          <leafValues>
            -3.5925620794296265e-01 2.9919105768203735e-01</leafValues></_>
        <_>
          <internalNodes>
            0 -1 145 649069029 1373593753 -752794418 -961129535
            -1566704671 -251084790 -2004226183 -1229437953</internalNodes>
          <leafValues>
            -4.1161346435546875e-01 2.7064797282218933e-01</leafValues></_></weakClassifiers></_>
    <!-- stage 11 -->
    <_>
      <maxWeakCount>11</maxWeakCount>
      <stageThreshold>-1.1548029184341431e+00</stageThreshold>
      <weakClassifiers>
        <_>
          <internalNodes>
            0 -1 75 -2647078 -749935925 1355962075 1609412869 -276124789
            -208535423 -85788677 -604000790</internalNodes>
          <leafValues>
            -6.2885361909866333e-01 1.7889087321236730e-03</leafValues></_>
        <_>
          <internalNodes>
            0 -1 14 649878885 -272412439 1906203430 -439909547
            -675573440 -495259246 -1410664160 920474428</internalNodes>
          <leafValues>
            -5.8493423461914063e-01 8.3180606365203857e-02</leafValues></_>
        <_>
          <internalNodes>
            0 -1 127 -574445653 1096669163 455327936 224674268
            1640138627 1760773039 -208936382 1207417754</internalNodes>
          <leafValues>
            -3.3440995216369629e-01 2.5937840342521667e-01</leafValues></_>
        <_>
          <internalNodes>
            0 -1 81 -1529006275 1876941205 -251151328 -465565230
            -2088555682 -661970901 1907036536 2126965256</internalNodes>
          <leafValues>
            -4.0977597236633301e-01 2.5472882390022278e-01</leafValues></_>
        <_>
          <internalNodes>
            0 -1 111 -841283166 1820872918 822121869 -1261375021
            -342940096 -1463091032 -1117488720 -164435936</internalNodes>
          <leafValues>
            -3.5399371385574341e-01 2.5974068045616150e-01</leafValues></_>
        <_>
          <internalNodes>
            0 -1 87 -1396831376 -1026502655 -1919691372 -222627516
            -30764699 -752181119 -409775374 -1197455355</internalNodes>
          <leafValues>
            -4.5038238167762756e-01 2.2031652927398682e-01</leafValues></_>
        <_>
          <internalNodes>
            0 -1 109 2132496531 938671530 1790951227 11224812 1197340648
            1895157311 2086137534 -871170169</internalNodes>
          <leafValues>
            -2.9653522372245789e-01 3.4823486208915710e-01</leafValues></_>
        <_>
          <internalNodes>
            0 -1 24 -2132497213 -758975488 -1727629108 595600206
            1078053600 828039217 273112326 1515683959</internalNodes>
          <leafValues>
            -4.4258689880371094e-01 2.4082972109317780e-01</leafValues></_>
        <_>
          <internalNodes>
            0 -1 58 -244341058 -693141972 -1166233605 -4802898
            -277684533 -851566756 -449464850 -167517126</internalNodes>
          <leafValues>
            -2.1658885478973389e-01 4.9288669228553772e-01</leafValues></_>
        <_>
          <internalNodes>
            0 -1 20 -44308185 -222252391 430572220 2112382766 566488606
            -1318256464 877431480 1345811802</internalNodes>
          <leafValues>
            -3.5089743137359619e-01 3.0198186635971069e-01</leafValues></_>
        <_>
          <internalNodes>
            0 -1 12 805887285 -543852771 -1052933 -1143083059
            -1577728229 -117571721 -1343293799 -1351802899</internalNodes>
          <leafValues>
            -2.7075704932212830e-01 3.9283010363578796e-01</leafValues></_></weakClassifiers></_>
    <!-- stage 12 -->
    <_>
      <maxWeakCount>10</maxWeakCount>
      <stageThreshold>-1.2185491323471069e+00</stageThreshold>
      <weakClassifiers>
        <_>
          <internalNodes>
            0 -1 112 -1342188553 -237248057 -805186101 -360738389
            -338964865 -341114705 -628711381 -4196705</internalNodes>
          <leafValues>
            -6.4649373292922974e-01 -1.0424710065126419e-01</leafValues></_>
        <_>
          <internalNodes>
            0 -1 35 1552449277 -205269160 1092798430 -390143157
            -1412433589 -343383997 -1182020761 -1208460677</internalNodes>
          <leafValues>
            -3.7088838219642639e-01 2.0008516311645508e-01</leafValues></_>
        <_>
          <internalNodes>
            0 -1 136 796469373 -1555080621 1167312094 -1567206963
            -1961190971 -120902454 -87352592 791444809</internalNodes>
          <leafValues>
            -5.2353787422180176e-01 1.5852908790111542e-01</leafValues></_>
        <_>
          <internalNodes>
            0 -1 48 -52949221 -473935717 -732477172 -985507649
            -377327239 -125267958 -592823515 1006304796</internalNodes>
          <leafValues>
            -3.7866216897964478e-01 2.7137863636016846e-01</leafValues></_>
        <_>
          <internalNodes>
            0 -1 55 -184341394 1127109134 1965695118 -328499054
            -486430129 1127983105 -266262224 2118119814</internalNodes>
          <leafValues>
            -3.9495214819908142e-01 2.3884573578834534e-01</leafValues></_>
        <_>
          <internalNodes>
            0 -1 37 -1773959156 668852502 1696478985 2113894092
            -2003914574 -1735754871 -156423700 140534480</internalNodes>
          <leafValues>
            -5.3585022687911987e-01 1.7572957277297974e-01</leafValues></_>
        <_>
          <internalNodes>
            0 -1 104 -47202706 -180388804 2130096611 -172024135
            -31873844 -1769998372 1970404863 -12606293</internalNodes>
          <leafValues>
            -1.8515004217624664e-01 5.4725283384323120e-01</leafValues></_>
        <_>
          <internalNodes>
            0 -1 65 114325765 -813501917 -1650441777 -325070772
            -226396143 1653178403 -125394379 580905780</internalNodes>
          <leafValues>
            -5.3905403614044189e-01 1.9805920124053955e-01</leafValues></_>
        <_>
          <internalNodes>
            0 -1 83 76078192 -564354987 -800911082 -92092142 1705007168
            2035916841 -895019266 -1074126692</internalNodes>
          <leafValues>
            -3.8999330997467041e-01 2.5982138514518738e-01</leafValues></_>
        <_>
          <internalNodes>
            0 -1 94 -1915372944 -1303990144 1938019165 860604570
            -661319426 -1998609529 -793937460 1081189970</internalNodes>
          <leafValues>
            -4.2377278208732605e-01 2.4140590429306030e-01</leafValues></_></weakClassifiers></_>
    <!-- stage 13 -->
    <_>
      <maxWeakCount>11</maxWeakCount>
      <stageThreshold>-1.1669455766677856e+00</stageThreshold>
      <weakClassifiers>
        <_>
          <internalNodes>
            0 -1 125 -744508728 -548814226 1628542041 2040343227
            -460553506 -535717742 -754791701 -16242</internalNodes>
          <leafValues>
            -6.3591635227203369e-01 -4.9382716417312622e-02</leafValues></_>
        <_>
          <internalNodes>
            0 -1 128 -817804341 -909126949 298800908 75657354
            -1853767674 -41778942 -1148469425 1941618682</internalNodes>
          <leafValues>
            -4.0880852937698364e-01 1.7485278844833374e-01</leafValues></_>
        <_>
          <internalNodes>
            0 -1 53 -1226663946 -1652682465 1219552217 -954695980
            -137436439 -911953775 1308549660 -212552582</internalNodes>
          <leafValues>
            -2.9672539234161377e-01 2.9463025927543640e-01</leafValues></_>
        <_>
          <internalNodes>
            0 -1 32 -1081582305 1140080836 -1056859962 -423124325
            -108129317 -16154454 -626109594 2108845300</internalNodes>
          <leafValues>
            -4.4289994239807129e-01 2.1455486118793488e-01</leafValues></_>
        <_>
          <internalNodes>
            0 -1 142 718043751 -1606330921 -787882529 -19393551
            -1365681727 1896513674 -1416697104 -67351307</internalNodes>
          <leafValues>
            -3.4742528200149536e-01 2.6982587575912476e-01</leafValues></_>
        <_>
          <internalNodes>
            0 -1 67 -537943097 1931914145 -1627464107 -1678203212
            418882840 1483704317 -252267028 2134214287</internalNodes>
          <leafValues>
            -2.7861979603767395e-01 3.5982543230056763e-01</leafValues></_>
        <_>
          <internalNodes>
            0 -1 113 -1299440284 -1763414015 -1845456683 278266899
            1453916228 -201244524 -913946644 -556643431</internalNodes>
          <leafValues>
            -4.0199410915374756e-01 2.4882237613201141e-01</leafValues></_>
        <_>
          <internalNodes>
            0 -1 9 -152049811 -24965193 2122316509 -2127778250
            -1249940082 -297994507 1416581657 -804782177</internalNodes>
          <leafValues>
            -2.7653348445892334e-01 3.6375600099563599e-01</leafValues></_>
        <_>
          <internalNodes>
            0 -1 17 -918129533 1441686505 -156641225 -1727904105
            570833612 680952504 -1601750940 -1917323946</internalNodes>
          <leafValues>
            -3.0733895301818848e-01 3.2871383428573608e-01</leafValues></_>
        <_>
          <internalNodes>
            0 -1 100 -448005917 688983823 1498665137 -1215200090
            1645655033 -117231481 -1035012918 975490867</internalNodes>
          <leafValues>
            -3.1225818395614624e-01 3.2620736956596375e-01</leafValues></_>
        <_>
          <internalNodes>
            0 -1 66 1130848656 957019322 -600536704 -829240126
            1621181716 -1582650597 979663110 1079477844</internalNodes>
          <leafValues>
            -5.3995537757873535e-01 1.9078625738620758e-01</leafValues></_></weakClassifiers></_>
    <!-- stage 14 -->
    <_>
      <maxWeakCount>10</maxWeakCount>
      <stageThreshold>-1.2494671344757080e+00</stageThreshold>
      <weakClassifiers>
        <_>
          <internalNodes>
            0 -1 118 -36992422 -677699367 -263605488 2001211725
            -885871934 -448192502 -103905142 -619973990</internalNodes>
          <leafValues>
            -6.5848869085311890e-01 -1.0320284962654114e-01</leafValues></_>
        <_>
          <internalNodes>
            0 -1 129 441987564 718856340 -850673014 250583817
            -1580469852 1196136602 -71839727 804093309</internalNodes>
          <leafValues>
            -6.2139695882797241e-01 5.9544570744037628e-02</leafValues></_>
        <_>
          <internalNodes>
            0 -1 22 654709809 -831126631 -268252710 -1689210527
            -1337953516 1896450057 -1207260671 -1146743944</internalNodes>
          <leafValues>
            -4.3246763944625854e-01 1.8653434514999390e-01</leafValues></_>
        <_>
          <internalNodes>
            0 -1 15 1476386687 -68681921 -151060561 -415957045
            -1115717893 -655489 -277119645 -277348361</internalNodes>
          <leafValues>
            -1.8651674687862396e-01 4.5806583762168884e-01</leafValues></_>
        <_>
          <internalNodes>
            0 -1 88 -106716984 1110980608 2129898105 -604532745
            -571547710 -805832860 259924148 -213127770</internalNodes>
          <leafValues>
            -2.3284620046615601e-01 3.9838051795959473e-01</leafValues></_>
        <_>
          <internalNodes>
            0 -1 19 -897135946 -640616774 -1056779054 646632142 54749072
            -1036414174 1880496050 56804295</internalNodes>
          <leafValues>
            -4.1491934657096863e-01 2.5001883506774902e-01</leafValues></_>
        <_>
          <internalNodes>
            0 -1 140 773857713 -628539252 -1962868076 1049677831
            -1550946231 -402407285 -354686057 774909544</internalNodes>
          <leafValues>
            -5.8292597532272339e-01 1.6447642445564270e-01</leafValues></_>
        <_>
          <internalNodes>
            0 -1 95 1000095319 224347423 9113216 -1440991399 -634469411
            1544061353 -1449937602 146447346</internalNodes>
          <leafValues>
            -4.7788894176483154e-01 2.1702532470226288e-01</leafValues></_>
        <_>
          <internalNodes>
            0 -1 107 -110647672 1504309262 -1563388006 -236661580
            1095470835 143376794 1087196096 -458497517</internalNodes>
          <leafValues>
            -3.2953548431396484e-01 3.1109446287155151e-01</leafValues></_>
        <_>
          <internalNodes>
            0 -1 134 615792937 -1470928224 -770534574 -489627205
            -1500770145 -24967037 -1716858892 -1162839264</internalNodes>
          <leafValues>
            -4.6689581871032715e-01 2.2430095076560974e-01</leafValues></_></weakClassifiers></_></stages>
  <features>
    <_>
      <rect>
        0 0 17 5</rect></_>
    <_>
      <rect>
        0 3 20 19</rect></_>
    <_>
      <rect>
        0 5 11 4</rect></_>
    <_>
      <rect>
        0 5 19 9</rect></_>
    <_>
      <rect>
        0 18 6 6</rect></_>
    <_>
      <rect>
        0 18 6 9</rect></_>
    <_>
      <rect>
        0 18 15 14</rect></_>
    <_>
      <rect>
        0 21 10 10</rect></_>
    <_>
      <rect>
        0 22 12 11</rect></_>
    <_>
      <rect>
        0 27 18 6</rect></_>
    <_>
      <rect>
        0 33 10 9</rect></_>
    <_>
      <rect>
        0 38 18 7</rect></_>
    <_>
      <rect>
        0 53 2 1</rect></_>
    <_>
      <rect>
        0 56 1 1</rect></_>
    <_>
      <rect>
        0 57 1 1</rect></_>
    <_>
      <rect>
        0 57 8 1</rect></_>
    <_>
      <rect>
        1 3 14 11</rect></_>
    <_>
      <rect>
        1 15 4 3</rect></_>
    <_>
      <rect>
        1 16 11 6</rect></_>
    <_>
      <rect>
        1 36 7 3</rect></_>
    <_>
      <rect>
        1 41 8 4</rect></_>
    <_>
      <rect>
        1 47 7 4</rect></_>
    <_>
      <rect>
        1 51 1 1</rect></_>
    <_>
      <rect>
        2 16 13 8</rect></_>
    <_>
      <rect>
        2 18 10 4</rect></_>
    <_>
      <rect>
        2 26 17 11</rect></_>
    <_>
      <rect>
        2 56 2 1</rect></_>
    <_>
      <rect>
        3 0 19 18</rect></_>
    <_>
      <rect>
        3 17 18 9</rect></_>
    <_>
      <rect>
        4 11 18 10</rect></_>
    <_>
      <rect>
        4 22 12 7</rect></_>
    <_>
      <rect>
        4 27 9 4</rect></_>
    <_>
      <rect>
        4 56 1 1</rect></_>
    <_>
      <rect>
        4 57 1 1</rect></_>
    <_>
      <rect>
        5 0 18 9</rect></_>
    <_>
      <rect>
        5 1 1 1</rect></_>
    <_>
      <rect>
        5 1 1 2</rect></_>
    <_>
      <rect>
        5 1 10 13</rect></_>
    <_>
      <rect>
        5 7 16 8</rect></_>
    <_>
      <rect>
        5 47 1 1</rect></_>
    <_>
      <rect>
        5 56 1 1</rect></_>
    <_>
      <rect>
        5 57 1 1</rect></_>
    <_>
      <rect>
        6 0 1 1</rect></_>
    <_>
      <rect>
        6 57 1 1</rect></_>
    <_>
      <rect>
        6 57 5 1</rect></_>
    <_>
      <rect>
        7 29 2 1</rect></_>
    <_>
      <rect>
        8 16 13 12</rect></_>
    <_>
      <rect>
        8 50 1 1</rect></_>
    <_>
      <rect>
        8 56 1 1</rect></_>
    <_>
      <rect>
        9 57 1 1</rect></_>
    <_>
      <rect>
        10 0 16 8</rect></_>
    <_>
      <rect>
        11 19 12 10</rect></_>
    <_>
      <rect>
        12 56 1 1</rect></_>
    <_>
      <rect>
        13 43 10 4</rect></_>
    <_>
      <rect>
        13 57 1 1</rect></_>
    <_>
      <rect>
        14 1 1 1</rect></_>
    <_>
      <rect>
        14 23 15 11</rect></_>
    <_>
      <rect>
        14 26 11 6</rect></_>
    <_>
      <rect>
        14 29 1 1</rect></_>
    <_>
      <rect>
        14 56 1 1</rect></_>
    <_>
      <rect>
        15 9 15 17</rect></_>
    <_>
      <rect>
        15 21 10 5</rect></_>
    <_>
      <rect>
        15 36 15 8</rect></_>
    <_>
      <rect>
        16 17 1 1</rect></_>
    <_>
      <rect>
        16 56 1 1</rect></_>
    <_>
      <rect>
        16 57 1 1</rect></_>
    <_>
      <rect>
        19 22 12 6</rect></_>
    <_>
      <rect>
        20 33 10 8</rect></_>
    <_>
      <rect>
        20 57 1 1</rect></_>
    <_>
      <rect>
        21 14 12 7</rect></_>
    <_>
      <rect>
        21 31 13 6</rect></_>
    <_>
      <rect>
        21 53 1 1</rect></_>
    <_>
      <rect>
        21 56 1 1</rect></_>
    <_>
      <rect>
        23 0 1 1</rect></_>
    <_>
      <rect>
        23 0 12 8</rect></_>
    <_>
      <rect>
        23 7 1 1</rect></_>
    <_>
      <rect>
        24 51 1 1</rect></_>
    <_>
      <rect>
        24 55 1 1</rect></_>
    <_>
      <rect>
        24 57 2 1</rect></_>
    <_>
      <rect>
        26 19 1 1</rect></_>
    <_>
      <rect>
        26 34 11 7</rect></_>
    <_>
      <rect>
        27 56 2 1</rect></_>
    <_>
      <rect>
        29 0 10 2</rect></_>
    <_>
      <rect>
        29 14 1 1</rect></_>
    <_>
      <rect>
        29 17 1 1</rect></_>
    <_>
      <rect>
        29 25 1 1</rect></_>
    <_>
      <rect>
        29 40 8 3</rect></_>
    <_>
      <rect>
        29 43 1 1</rect></_>
    <_>
      <rect>
        30 38 1 1</rect></_>
    <_>
      <rect>
        30 40 10 5</rect></_>
    <_>
      <rect>
        31 34 8 6</rect></_>
    <_>
      <rect>
        32 22 1 1</rect></_>
    <_>
      <rect>
        33 0 6 4</rect></_>
    <_>
      <rect>
        33 18 9 9</rect></_>
    <_>
      <rect>
        33 22 9 10</rect></_>
    <_>
      <rect>
        33 56 3 1</rect></_>
    <_>
      <rect>
        35 12 8 3</rect></_>
    <_>
      <rect>
        35 15 7 4</rect></_>
    <_>
      <rect>
        35 21 8 6</rect></_>
    <_>
      <rect>
        35 28 8 5</rect></_>
    <_>
      <rect>
        36 1 8 11</rect></_>
    <_>
      <rect>
        37 22 1 1</rect></_>
    <_>
      <rect>
        37 51 1 1</rect></_>
    <_>
      <rect>
        37 52 1 1</rect></_>
    <_>
      <rect>
        38 7 1 1</rect></_>
    <_>
      <rect>
        38 26 7 5</rect></_>
    <_>
      <rect>
        40 56 2 1</rect></_>
    <_>
      <rect>
        41 30 5 3</rect></_>
    <_>
      <rect>
        41 56 2 1</rect></_>
    <_>
      <rect>
        42 10 6 4</rect></_>
    <_>
      <rect>
        42 56 1 1</rect></_>
    <_>
      <rect>
        43 11 1 1</rect></_>
    <_>
      <rect>
        44 57 1 1</rect></_>
    <_>
      <rect>
        45 17 1 1</rect></_>
    <_>
      <rect>
        45 55 1 1</rect></_>
    <_>
      <rect>
        45 57 4 1</rect></_>
    <_>
      <rect>
        46 0 1 1</rect></_>
    <_>
      <rect>
        47 7 1 1</rect></_>
    <_>
      <rect>
        47 14 1 1</rect></_>
    <_>
      <rect>
        48 56 1 1</rect></_>
    <_>
      <rect>
        50 23 2 1</rect></_>
    <_>
      <rect>
        50 57 1 1</rect></_>
    <_>
      <rect>
        52 56 1 1</rect></_>
    <_>
      <rect>
        53 0 2 1</rect></_>
    <_>
      <rect>
        53 57 1 1</rect></_>
    <_>
      <rect>
        54 7 1 1</rect></_>
    <_>
      <rect>
        54 57 2 1</rect></_>
    <_>
      <rect>
        55 0 1 1</rect></_>
    <_>
      <rect>
        55 57 1 1</rect></_>
    <_>
      <rect>
        56 0 1 1</rect></_>
    <_>
      <rect>
        56 2 1 1</rect></_>
    <_>
      <rect>
        56 3 1 1</rect></_>
    <_>
      <rect>
        56 4 1 1</rect></_>
    <_>
      <rect>
        56 5 1 1</rect></_>
    <_>
      <rect>
        56 16 1 1</rect></_>
    <_>
      <rect>
        56 17 1 1</rect></_>
    <_>
      <rect>
        56 48 1 1</rect></_>
    <_>
      <rect>
        56 49 1 1</rect></_>
    <_>
      <rect>
        56 56 1 1</rect></_>
    <_>
      <rect>
        56 57 1 1</rect></_>
    <_>
      <rect>
        57 12 1 1</rect></_>
    <_>
      <rect>
        57 34 1 1</rect></_>
    <_>
      <rect>
        57 36 1 1</rect></_>
    <_>
      <rect>
        57 41 1 1</rect></_>
    <_>
      <rect>
        57 50 1 1</rect></_>
    <_>
      <rect>
        57 53 1 1</rect></_>
    <_>
      <rect>
        57 56 1 1</rect></_>
    <_>
      <rect>
        57 57 1 1</rect></_></features></cascade>
</opencv_storage>
