<?xml version="1.0"?>
<opencv_storage>
<cascade>
  <stageType>BOOST</stageType>
  <featureType>LBP</featureType>
  <height>60</height>
  <width>60</width>
  <stageParams>
    <boostType>GAB</boostType>
    <minHitRate>9.9500000476837158e-01</minHitRate>
    <maxFalseAlarm>5.0000000000000000e-01</maxFalseAlarm>
    <weightTrimRate>9.4999999999999996e-01</weightTrimRate>
    <maxDepth>1</maxDepth>
    <maxWeakCount>100</maxWeakCount></stageParams>
  <featureParams>
    <maxCatCount>256</maxCatCount>
    <featSize>1</featSize></featureParams>
  <stageNum>15</stageNum>
  <stages>
    <!-- stage 0 -->
    <_>
      <maxWeakCount>5</maxWeakCount>
      <stageThreshold>-1.3199408054351807e+00</stageThreshold>
      <weakClassifiers>
        <_>
          <internalNodes>
            0 -1 35 -708313122 -217996912 -1055886885 1896990930
            -804986680 -1583648638 -1023359589 -652217397</internalNodes>
          <leafValues>
            -8.2939362525939941e-01 9.0909093618392944e-02</leafValues></_>
        <_>
          <internalNodes>
            0 -1 0 -100141110 -619648880 -683032164 -108936446
            -1071591198 -83744636 -805125506 -615529097</internalNodes>
          <leafValues>
            -6.1757898330688477e-01 4.2116576433181763e-01</leafValues></_>
        <_>
          <internalNodes>
            0 -1 50 -170932846 306229378 285794257 -1597988432
            -1012479848 1385105562 -800562568 1076216375</internalNodes>
          <leafValues>
            -7.2553312778472900e-01 3.6904200911521912e-01</leafValues></_>
        <_>
          <internalNodes>
            0 -1 48 -2098533 -99559846 272978466 424154568 -926561794
            -1577025390 151830973 1483863015</internalNodes>
          <leafValues>
            -5.1467299461364746e-01 4.9310511350631714e-01</leafValues></_>
        <_>
          <internalNodes>
            0 -1 1 -488705026 -250052138 1342984520 -1622638394
            1495687666 -905791488 1749125832 1275323031</internalNodes>
          <leafValues>
            -5.6084281206130981e-01 4.7349911928176880e-01</leafValues></_></weakClassifiers></_>
    <!-- stage 1 -->
    <_>
      <maxWeakCount>6</maxWeakCount>
      <stageThreshold>-1.8790189027786255e+00</stageThreshold>
      <weakClassifiers>
        <_>
          <internalNodes>
            0 -1 10 -148180516 -212536612 1393087448 -203689232
            -1060714258 -1424997758 -754059041 -344493666</internalNodes>
          <leafValues>
            -8.7079763412475586e-01 -2.7272728085517883e-01</leafValues></_>
        <_>
          <internalNodes>
            0 -1 7 -539045135 -586820710 1458816 -1279978620 -272528721
            -889061346 1274757087 1611713090</internalNodes>
          <leafValues>
            -6.5440243482589722e-01 2.0946703851222992e-01</leafValues></_>
        <_>
          <internalNodes>
            0 -1 43 -753010468 -141495952 822501532 1490079956
            -238758152 -349634168 -488769303 1195225679</internalNodes>
          <leafValues>
            -6.7062938213348389e-01 3.0561548471450806e-01</leafValues></_>
        <_>
          <internalNodes>
            0 -1 31 -1186037889 -402719293 -146303164 -413409331
            -219989481 121356515 -1161848991 -168034484</internalNodes>
          <leafValues>
            -5.1113379001617432e-01 4.2797628045082092e-01</leafValues></_>
        <_>
          <internalNodes>
            0 -1 45 -925504690 -787413924 -733994286 -793730980
            1636541582 536887362 -1771931410 70084487</internalNodes>
          <leafValues>
            -6.0949999094009399e-01 3.5493439435958862e-01</leafValues></_>
        <_>
          <internalNodes>
            0 -1 88 1239092335 1191166855 1254310159 1614340250
            2081204482 -745864573 -750347765 -270337294</internalNodes>
          <leafValues>
            -4.7791060805320740e-01 4.4945284724235535e-01</leafValues></_></weakClassifiers></_>
    <!-- stage 2 -->
    <_>
      <maxWeakCount>6</maxWeakCount>
      <stageThreshold>-1.2573992013931274e+00</stageThreshold>
      <weakClassifiers>
        <_>
          <internalNodes>
            0 -1 5 -1074036737 -36449411 -189270037 -270535905
            -513804865 -7685 -1312905 -4115</internalNodes>
          <leafValues>
            -7.7910447120666504e-01 -9.5238098874688148e-03</leafValues></_>
        <_>
          <internalNodes>
            0 -1 90 249654653 -1903212551 -232793868 -1361126243
            -2047968451 -105944866 -822183242 -1896055303</internalNodes>
          <leafValues>
            -7.1405416727066040e-01 1.7068605124950409e-01</leafValues></_>
        <_>
          <internalNodes>
            0 -1 51 -1435093443 -1271997698 -208300801 -17760968
            2031487749 1943394425 -1985247056 -21013456</internalNodes>
          <leafValues>
            -5.4957973957061768e-01 3.8218316435813904e-01</leafValues></_>
        <_>
          <internalNodes>
            0 -1 82 780095267 -1371684929 -779681818 -1465388276 -558249
            -557067157 -904747177 -152115275</internalNodes>
          <leafValues>
            -6.1033391952514648e-01 3.6481431126594543e-01</leafValues></_>
        <_>
          <internalNodes>
            0 -1 66 178459492 -788956737 504566737 -1404383064
            2074767948 -504577913 -347283491 -1976543136</internalNodes>
          <leafValues>
            -7.4215680360794067e-01 3.0017355084419250e-01</leafValues></_>
        <_>
          <internalNodes>
            0 -1 37 -511540974 -1173363886 -1862073255 1771250385
            -1860556905 -356441055 -2004796709 2037350375</internalNodes>
          <leafValues>
            -5.5882132053375244e-01 3.9520150423049927e-01</leafValues></_></weakClassifiers></_>
    <!-- stage 3 -->
    <_>
      <maxWeakCount>6</maxWeakCount>
      <stageThreshold>-1.4193012714385986e+00</stageThreshold>
      <weakClassifiers>
        <_>
          <internalNodes>
            0 -1 91 803045375 -134230017 -343549685 -352339751 -70321569
            -67509105 -6554753 -201729</internalNodes>
          <leafValues>
            -8.2042646408081055e-01 -1.6666667163372040e-01</leafValues></_>
        <_>
          <internalNodes>
            0 -1 62 1021280127 -270607915 -257969185 -1365597170
            -391423107 -219576065 -124012175 -65612</internalNodes>
          <leafValues>
            -6.0803401470184326e-01 2.9540160298347473e-01</leafValues></_>
        <_>
          <internalNodes>
            0 -1 17 -1414392513 787346893 -135745585 -291594753
            1856986990 -605320309 -743720076 1694129661</internalNodes>
          <leafValues>
            -7.3640114068984985e-01 2.8126621246337891e-01</leafValues></_>
        <_>
          <internalNodes>
            0 -1 76 803086119 -1923623683 -313598577 -1437609593
            -779585697 1788074687 -68425181 -55640079</internalNodes>
          <leafValues>
            -5.4534029960632324e-01 3.6796063184738159e-01</leafValues></_>
        <_>
          <internalNodes>
            0 -1 47 1134537126 307878876 1124260316 -800157092
            -2063079697 -1068185466 1168689406 280072442</internalNodes>
          <leafValues>
            -6.1267590522766113e-01 3.6955884099006653e-01</leafValues></_>
        <_>
          <internalNodes>
            0 -1 18 -1322289625 -2010257159 -1996097370 1341314007
            1789557064 -6967823 474577521 1601567464</internalNodes>
          <leafValues>
            -6.7128622531890869e-01 3.1196704506874084e-01</leafValues></_></weakClassifiers></_>
    <!-- stage 4 -->
    <_>
      <maxWeakCount>6</maxWeakCount>
      <stageThreshold>-1.2587722539901733e+00</stageThreshold>
      <weakClassifiers>
        <_>
          <internalNodes>
            0 -1 84 -2140161 -1098791739 -171196469 -287516259 -51998081
            -72639646 -912589441 -1123329</internalNodes>
          <leafValues>
            -7.8525638580322266e-01 -1.7921146750450134e-01</leafValues></_>
        <_>
          <internalNodes>
            0 -1 67 -2074464943 -1093647419 -1086099089 -2337833
            1817930385 -644097335 -385954894 -1095067359</internalNodes>
          <leafValues>
            -6.1562359333038330e-01 1.9912376999855042e-01</leafValues></_>
        <_>
          <internalNodes>
            0 -1 29 -163588901 -1087555699 -1606124024 -1378262222
            -875630891 -1618337736 -640409491 2420323</internalNodes>
          <leafValues>
            -5.7735842466354370e-01 2.8913795948028564e-01</leafValues></_>
        <_>
          <internalNodes>
            0 -1 8 -70320282 -168365070 -71151525 -408395562 -241915414
            1781055628 -616537652 1361536124</internalNodes>
          <leafValues>
            -6.4646840095520020e-01 2.8213924169540405e-01</leafValues></_>
        <_>
          <internalNodes>
            0 -1 54 -866955578 124470005 -1858004560 493924355
            -802405757 -1819733879 690292361 477817019</internalNodes>
          <leafValues>
            -5.6079339981079102e-01 3.5582688450813293e-01</leafValues></_>
        <_>
          <internalNodes>
            0 -1 23 -10496597 -150658866 -1525149392 -75173817
            -892875352 999014631 1082741205 -639928214</internalNodes>
          <leafValues>
            -4.2267200350761414e-01 5.0612896680831909e-01</leafValues></_></weakClassifiers></_>
    <!-- stage 5 -->
    <_>
      <maxWeakCount>6</maxWeakCount>
      <stageThreshold>-1.8197561502456665e+00</stageThreshold>
      <weakClassifiers>
        <_>
          <internalNodes>
            0 -1 40 -103942145 -75760783 2068048127 -576203375
            -540429829 -1084583445 -1176327734 -538969957</internalNodes>
          <leafValues>
            -7.2690033912658691e-01 1.1587982624769211e-01</leafValues></_>
        <_>
          <internalNodes>
            0 -1 63 752320325 -409865327 -106439146 -358748090
            -538739367 -1131577321 -1153904873 -16852635</internalNodes>
          <leafValues>
            -5.8121144771575928e-01 1.8938402831554413e-01</leafValues></_>
        <_>
          <internalNodes>
            0 -1 86 721164183 -622929925 -1949662516 783301439
            -1930266273 -8486294 -38017185 883481468</internalNodes>
          <leafValues>
            -6.8479979038238525e-01 2.2554111480712891e-01</leafValues></_>
        <_>
          <internalNodes>
            0 -1 60 -118855923 -1571674959 1951881926 586699717
            -539285387 1843626081 -91021228 -1405160600</internalNodes>
          <leafValues>
            -5.7772529125213623e-01 2.8285303711891174e-01</leafValues></_>
        <_>
          <internalNodes>
            0 -1 57 685669504 264447220 -1311981156 -1270183895
            1670205615 816093806 1477432040 1204000547</internalNodes>
          <leafValues>
            -6.5994119644165039e-01 2.8146812319755554e-01</leafValues></_>
        <_>
          <internalNodes>
            0 -1 2 -909942562 -26127950 1427211199 -680478130
            -1361812186 -233661088 1216759518 -637277290</internalNodes>
          <leafValues>
            -4.4092831015586853e-01 4.1040480136871338e-01</leafValues></_></weakClassifiers></_>
    <!-- stage 6 -->
    <_>
      <maxWeakCount>7</maxWeakCount>
      <stageThreshold>-1.5132710933685303e+00</stageThreshold>
      <weakClassifiers>
        <_>
          <internalNodes>
            0 -1 73 -134217925 -2128257 2855197 -648548261 -535918145
            -1970282327 -221672726 -268443201</internalNodes>
          <leafValues>
            -7.2357726097106934e-01 1.4814814925193787e-01</leafValues></_>
        <_>
          <internalNodes>
            0 -1 28 -1256558777 -422395576 -108695070 1860011206
            -641012878 -387415989 -85268363 1409186421</internalNodes>
          <leafValues>
            -7.0047771930694580e-01 1.0652190446853638e-01</leafValues></_>
        <_>
          <internalNodes>
            0 -1 79 -1370551316 516919695 -380645334 -494937638
            -1618548671 -91518327 -1207176605 -1224905874</internalNodes>
          <leafValues>
            -4.9347642064094543e-01 3.0134952068328857e-01</leafValues></_>
        <_>
          <internalNodes>
            0 -1 61 -1262987207 -1488571430 681644483 -135629932
            184703610 -259347321 969881995 -1117638348</internalNodes>
          <leafValues>
            -6.1194175481796265e-01 2.6771456003189087e-01</leafValues></_>
        <_>
          <internalNodes>
            0 -1 75 -22545375 992718630 -330765 964263531 2146367384
            2105540471 -18908691 -692468162</internalNodes>
          <leafValues>
            -3.8934722542762756e-01 4.6796259284019470e-01</leafValues></_>
        <_>
          <internalNodes>
            0 -1 11 1661730532 2124350596 1297269593 2112493034
            1116398634 -660451966 -207177840 1664149587</internalNodes>
          <leafValues>
            -5.3371965885162354e-01 3.6065363883972168e-01</leafValues></_>
        <_>
          <internalNodes>
            0 -1 77 -1549796379 -1966702144 -268131198 -1963400168
            -549323514 1376815266 -1164190957 -1057742541</internalNodes>
          <leafValues>
            -6.0693866014480591e-01 3.0322843790054321e-01</leafValues></_></weakClassifiers></_>
    <!-- stage 7 -->
    <_>
      <maxWeakCount>6</maxWeakCount>
      <stageThreshold>-1.3637504577636719e+00</stageThreshold>
      <weakClassifiers>
        <_>
          <internalNodes>
            0 -1 80 -165677097 1394329179 -670722727 1500902171
            -21529860 -1415966713 -659706945 -20973637</internalNodes>
          <leafValues>
            -7.3888361454010010e-01 -2.5316456332802773e-02</leafValues></_>
        <_>
          <internalNodes>
            0 -1 6 -1345101969 -1479560782 -796795933 -274860715
            -1293161923 -96762813 -74327451 1072159973</internalNodes>
          <leafValues>
            -6.0783642530441284e-01 1.6322736442089081e-01</leafValues></_>
        <_>
          <internalNodes>
            0 -1 64 785349804 -421565876 -1355708200 523956420 94788759
            -1594566225 739227330 323704</internalNodes>
          <leafValues>
            -7.7345019578933716e-01 1.8225237727165222e-01</leafValues></_>
        <_>
          <internalNodes>
            0 -1 83 2110854448 1484886289 -509459608 370992168
            -704075648 -352148926 -1233069832 -1474435034</internalNodes>
          <leafValues>
            -5.3897303342819214e-01 3.1341898441314697e-01</leafValues></_>
        <_>
          <internalNodes>
            0 -1 41 -686504998 1743438292 -1878195180 -1617628210
            -1551441641 -4480864 -1153058370 217119541</internalNodes>
          <leafValues>
            -5.7437878847122192e-01 3.0856794118881226e-01</leafValues></_>
        <_>
          <internalNodes>
            0 -1 12 885708236 -1701511268 294342878 -226434025
            -392902722 -721223270 1111069568 1077703238</internalNodes>
          <leafValues>
            -7.9756212234497070e-01 2.1576113998889923e-01</leafValues></_></weakClassifiers></_>
    <!-- stage 8 -->
    <_>
      <maxWeakCount>7</maxWeakCount>
      <stageThreshold>-1.1235222816467285e+00</stageThreshold>
      <weakClassifiers>
        <_>
          <internalNodes>
            0 -1 42 -606079265 -82065790 1896813909 -638336457
            -181427715 -1626650481 -1353742193 -69206017</internalNodes>
          <leafValues>
            -7.1912616491317749e-01 2.2994652390480042e-01</leafValues></_>
        <_>
          <internalNodes>
            0 -1 39 -1094886105 -282084341 -129240627 -292042129
            1787002483 1149208647 -136184463 1912593136</internalNodes>
          <leafValues>
            -6.7404842376708984e-01 1.1308293044567108e-01</leafValues></_>
        <_>
          <internalNodes>
            0 -1 58 391338649 361882649 541454996 1583035653 994216011
            -1106137569 -1090159105 1680348693</internalNodes>
          <leafValues>
            -5.8401632308959961e-01 2.5039309263229370e-01</leafValues></_>
        <_>
          <internalNodes>
            0 -1 69 -1027518960 1034276172 -1805016866 -1727183117
            1122859187 2032304163 -1710574894 1613443649</internalNodes>
          <leafValues>
            -5.9120738506317139e-01 2.9996287822723389e-01</leafValues></_>
        <_>
          <internalNodes>
            0 -1 55 -1200163232 1149391191 268494216 -1403193918
            -1385756411 2109378691 1784670800 840628971</internalNodes>
          <leafValues>
            -7.3686826229095459e-01 2.2047372162342072e-01</leafValues></_>
        <_>
          <internalNodes>
            0 -1 38 -1462784656 294664471 79714511 390401672 405670438
            -91520017 1510194234 412254214</internalNodes>
          <leafValues>
            -6.2622022628784180e-01 2.7182957530021667e-01</leafValues></_>
        <_>
          <internalNodes>
            0 -1 74 1000306525 -1143286977 -1735796126 -421736314
            1519056426 -763181046 -74908874 2008206828</internalNodes>
          <leafValues>
            -5.9277844429016113e-01 2.8837394714355469e-01</leafValues></_></weakClassifiers></_>
    <!-- stage 9 -->
    <_>
      <maxWeakCount>6</maxWeakCount>
      <stageThreshold>-1.2429980039596558e+00</stageThreshold>
      <weakClassifiers>
        <_>
          <internalNodes>
            0 -1 14 -337647969 -143269739 -796897601 -1212763965
            -945959794 -57112164 -660649729 -1194057</internalNodes>
          <leafValues>
            -7.4891358613967896e-01 -5.2924789488315582e-02</leafValues></_>
        <_>
          <internalNodes>
            0 -1 24 1354623699 -608073567 1982249654 -1857030733
            1081152475 -87928636 1777166557 -1135089953</internalNodes>
          <leafValues>
            -4.4345438480377197e-01 3.5096696019172668e-01</leafValues></_>
        <_>
          <internalNodes>
            0 -1 70 -1885362782 -307595569 -587172462 -763852760
            -352069162 856654897 -9687964 1912988820</internalNodes>
          <leafValues>
            -6.6184186935424805e-01 2.2887763381004333e-01</leafValues></_>
        <_>
          <internalNodes>
            0 -1 22 -1134759264 -1186421941 -648220737 -270477725
            -229152295 1254916545 -320789958 1996501084</internalNodes>
          <leafValues>
            -5.6679517030715942e-01 2.7807402610778809e-01</leafValues></_>
        <_>
          <internalNodes>
            0 -1 89 939326317 54972519 -691405932 -423627827 -133572408
            -120878393 787119920 1224522041</internalNodes>
          <leafValues>
            -6.2248140573501587e-01 2.8982302546501160e-01</leafValues></_>
        <_>
          <internalNodes>
            0 -1 36 -1076736159 -1160312613 -1072590609 -457039141
            1779053180 1887961144 -242841023 -1193914568</internalNodes>
          <leafValues>
            -5.5126231908798218e-01 3.1007829308509827e-01</leafValues></_></weakClassifiers></_>
    <!-- stage 10 -->
    <_>
      <maxWeakCount>6</maxWeakCount>
      <stageThreshold>-1.5369719266891479e+00</stageThreshold>
      <weakClassifiers>
        <_>
          <internalNodes>
            0 -1 33 1943009087 -77888291 -1676412221 -179831788
            -746473860 -1443427815 -1112280194 -1073809429</internalNodes>
          <leafValues>
            -7.5285357236862183e-01 -1.2771084904670715e-01</leafValues></_>
        <_>
          <internalNodes>
            0 -1 26 1082993100 1037812107 -250602034 492093336
            -2006296139 -25349985 -1411728712 787822820</internalNodes>
          <leafValues>
            -7.6143199205398560e-01 6.1107125133275986e-02</leafValues></_>
        <_>
          <internalNodes>
            0 -1 9 111140370 348644345 1258418262 -1712441627 277417218
            -4604854 776281005 -1596440507</internalNodes>
          <leafValues>
            -6.1210489273071289e-01 2.2193612158298492e-01</leafValues></_>
        <_>
          <internalNodes>
            0 -1 65 -557114362 824262664 -602876980 743428948 996486092
            -875853772 1208894341 474839020</internalNodes>
          <leafValues>
            -6.5585958957672119e-01 2.6551818847656250e-01</leafValues></_>
        <_>
          <internalNodes>
            0 -1 30 1380639360 2050670812 255204316 -588056808
            -858664528 775144003 -794647953 967144138</internalNodes>
          <leafValues>
            -6.9488954544067383e-01 2.3194344341754913e-01</leafValues></_>
        <_>
          <internalNodes>
            0 -1 68 1021197345 -1506307121 -654196224 -457385840
            -355091925 830701715 -1165266575 637451149</internalNodes>
          <leafValues>
            -7.7645742893218994e-01 1.9079555571079254e-01</leafValues></_></weakClassifiers></_>
    <!-- stage 11 -->
    <_>
      <maxWeakCount>6</maxWeakCount>
      <stageThreshold>-1.2905704975128174e+00</stageThreshold>
      <weakClassifiers>
        <_>
          <internalNodes>
            0 -1 32 -102760489 -137686929 -1006419683 -581708849
            -118636070 -141572085 -7734321 -7169</internalNodes>
          <leafValues>
            -7.0493233203887939e-01 3.2374101877212524e-01</leafValues></_>
        <_>
          <internalNodes>
            0 -1 49 -625608258 -542561214 -382062249 863165276
            -741733912 2072809679 -387395356 -245377430</internalNodes>
          <leafValues>
            -5.1933658123016357e-01 2.1992969512939453e-01</leafValues></_>
        <_>
          <internalNodes>
            0 -1 59 -600264481 -636865712 168713213 -354831396
            1937621976 -172848485 2089717205 221621163</internalNodes>
          <leafValues>
            -4.5160537958145142e-01 3.2772830128669739e-01</leafValues></_>
        <_>
          <internalNodes>
            0 -1 21 -1666432080 582713410 303707636 228536486
            -1109577193 2019743675 -1716585999 661805797</internalNodes>
          <leafValues>
            -7.3238122463226318e-01 2.2335116565227509e-01</leafValues></_>
        <_>
          <internalNodes>
            0 -1 46 1961257536 -682208431 16962166 -382054334 1217368956
            -211090359 -496232250 -1191059976</internalNodes>
          <leafValues>
            -5.4421603679656982e-01 3.1596332788467407e-01</leafValues></_>
        <_>
          <internalNodes>
            0 -1 19 -1089778162 2064576860 1125553606 -1438367006
            1099647252 673317067 -377330159 1960016868</internalNodes>
          <leafValues>
            -7.1687829494476318e-01 2.1326267719268799e-01</leafValues></_></weakClassifiers></_>
    <!-- stage 12 -->
    <_>
      <maxWeakCount>7</maxWeakCount>
      <stageThreshold>-1.4963240623474121e+00</stageThreshold>
      <weakClassifiers>
        <_>
          <internalNodes>
            0 -1 56 -273689601 -740357153 -1064444021 -249565009
            -154873346 -2133917490 1951129769 -1062401</internalNodes>
          <leafValues>
            -7.4031889438629150e-01 1.2195122241973877e-01</leafValues></_>
        <_>
          <internalNodes>
            0 -1 81 -1295797859 1087882262 -53382979 -1418887146
            -1617772381 -1689812784 -2087992679 232122107</internalNodes>
          <leafValues>
            -5.8327412605285645e-01 1.9482427835464478e-01</leafValues></_>
        <_>
          <internalNodes>
            0 -1 27 1450159522 -1126856815 809554131 860683017
            2034680296 -821196599 461942512 -1067240873</internalNodes>
          <leafValues>
            -4.9012199044227600e-01 3.1706684827804565e-01</leafValues></_>
        <_>
          <internalNodes>
            0 -1 44 816718864 -1948089357 -128909863 1240306053
            1806431136 -1143565968 -504968420 -1421417703</internalNodes>
          <leafValues>
            -5.4680490493774414e-01 2.9577869176864624e-01</leafValues></_>
        <_>
          <internalNodes>
            0 -1 53 1197081744 246559385 -1992179367 -2131274807
            -2117234820 -370450275 -923054572 554026728</internalNodes>
          <leafValues>
            -7.1360337734222412e-01 2.5677785277366638e-01</leafValues></_>
        <_>
          <internalNodes>
            0 -1 4 -1211471477 -200507173 -1752163887 2076418352
            -131767610 -55691123 1745996545 -284978614</internalNodes>
          <leafValues>
            -4.2021390795707703e-01 4.2766854166984558e-01</leafValues></_>
        <_>
          <internalNodes>
            0 -1 85 212879247 -1060339374 -249727625 315906823 688661246
            1017221291 -1718904412 -1936551425</internalNodes>
          <leafValues>
            -5.2661180496215820e-01 3.5764464735984802e-01</leafValues></_></weakClassifiers></_>
    <!-- stage 13 -->
    <_>
      <maxWeakCount>6</maxWeakCount>
      <stageThreshold>-1.3653088808059692e+00</stageThreshold>
      <weakClassifiers>
        <_>
          <internalNodes>
            0 -1 15 -137626217 -671090007 1976826559 -1381544229
            -280853107 -208952517 -272449793 -67109730</internalNodes>
          <leafValues>
            -7.4706161022186279e-01 -4.0293041616678238e-02</leafValues></_>
        <_>
          <internalNodes>
            0 -1 78 -1896382639 -1843957713 156882168 -1835468264
            881464084 -540895095 -1359986612 -282213156</internalNodes>
          <leafValues>
            -6.0343456268310547e-01 1.5890856087207794e-01</leafValues></_>
        <_>
          <internalNodes>
            0 -1 87 -192475355 1537159178 -821489468 -490221279
            -577767165 1378680929 2089306385 1789807306</internalNodes>
          <leafValues>
            -5.7406347990036011e-01 2.6652222871780396e-01</leafValues></_>
        <_>
          <internalNodes>
            0 -1 34 854221248 993971142 -661381525 -901585564 -872725904
            -1147043134 -2063001763 119858944</internalNodes>
          <leafValues>
            -8.1988263130187988e-01 1.9599772989749908e-01</leafValues></_>
        <_>
          <internalNodes>
            0 -1 20 -331496720 -1483085531 1074370462 760424904
            806070296 -1668287935 -1421161576 403456356</internalNodes>
          <leafValues>
            -7.4135339260101318e-01 2.2109167277812958e-01</leafValues></_>
        <_>
          <internalNodes>
            0 -1 52 1210442275 1908658459 -1677101902 -657709430
            -74843433 980124177 -439835058 -420628379</internalNodes>
          <leafValues>
            -4.4488716125488281e-01 3.9794108271598816e-01</leafValues></_></weakClassifiers></_>
    <!-- stage 14 -->
    <_>
      <maxWeakCount>6</maxWeakCount>
      <stageThreshold>-1.1774847507476807e+00</stageThreshold>
      <weakClassifiers>
        <_>
          <internalNodes>
            0 -1 13 -173026817 -740488545 890880244 -272929645
            -748714195 -62773 -570449521 -1025</internalNodes>
          <leafValues>
            -7.3279714584350586e-01 2.4691358208656311e-01</leafValues></_>
        <_>
          <internalNodes>
            0 -1 71 -1355920837 1264858585 -1324313635 -6850073
            137050353 -267844992 -58525228 -1631163872</internalNodes>
          <leafValues>
            -6.1258548498153687e-01 1.5524582564830780e-01</leafValues></_>
        <_>
          <internalNodes>
            0 -1 3 -1160812949 1951159538 1763596390 -623580715
            -1924182492 -977197032 -1086281556 -1528432436</internalNodes>
          <leafValues>
            -5.1373040676116943e-01 2.9651913046836853e-01</leafValues></_>
        <_>
          <internalNodes>
            0 -1 72 -640722538 487760451 -1374305359 477705121
            -2118616067 -645318093 494385848 -1602509942</internalNodes>
          <leafValues>
            -4.3497246503829956e-01 3.8122475147247314e-01</leafValues></_>
        <_>
          <internalNodes>
            0 -1 25 559856675 -1597050538 340950692 788146514
            -1500494440 -735888807 -634126242 4386469</internalNodes>
          <leafValues>
            -6.8301880359649658e-01 2.6795095205307007e-01</leafValues></_>
        <_>
          <internalNodes>
            0 -1 16 -900567445 2012946952 -922680760 1763230312
            1208871226 1412049153 1613148850 1243768226</internalNodes>
          <leafValues>
            -5.9465849399566650e-01 2.7713146805763245e-01</leafValues></_></weakClassifiers></_></stages>
  <features>
    <_>
      <rect>
        0 10 16 14</rect></_>
    <_>
      <rect>
        0 26 10 9</rect></_>
    <_>
      <rect>
        0 36 10 5</rect></_>
    <_>
      <rect>
        0 40 2 1</rect></_>
    <_>
      <rect>
        0 45 8 3</rect></_>
    <_>
      <rect>
        0 57 1 1</rect></_>
    <_>
      <rect>
        0 57 2 1</rect></_>
    <_>
      <rect>
        1 1 19 7</rect></_>
    <_>
      <rect>
        1 6 13 18</rect></_>
    <_>
      <rect>
        1 11 9 10</rect></_>
    <_>
      <rect>
        1 14 17 15</rect></_>
    <_>
      <rect>
        1 38 10 7</rect></_>
    <_>
      <rect>
        2 8 19 16</rect></_>
    <_>
      <rect>
        2 9 17 14</rect></_>
    <_>
      <rect>
        2 16 6 8</rect></_>
    <_>
      <rect>
        2 21 11 5</rect></_>
    <_>
      <rect>
        2 34 7 4</rect></_>
    <_>
      <rect>
        2 56 2 1</rect></_>
    <_>
      <rect>
        2 57 3 1</rect></_>
    <_>
      <rect>
        3 0 6 2</rect></_>
    <_>
      <rect>
        3 1 10 13</rect></_>
    <_>
      <rect>
        3 6 15 9</rect></_>
    <_>
      <rect>
        3 17 16 6</rect></_>
    <_>
      <rect>
        3 20 16 12</rect></_>
    <_>
      <rect>
        4 12 12 10</rect></_>
    <_>
      <rect>
        5 1 18 5</rect></_>
    <_>
      <rect>
        5 3 11 9</rect></_>
    <_>
      <rect>
        5 17 7 9</rect></_>
    <_>
      <rect>
        5 57 1 1</rect></_>
    <_>
      <rect>
        6 1 16 8</rect></_>
    <_>
      <rect>
        6 8 18 13</rect></_>
    <_>
      <rect>
        6 56 2 1</rect></_>
    <_>
      <rect>
        7 10 7 13</rect></_>
    <_>
      <rect>
        7 15 16 10</rect></_>
    <_>
      <rect>
        7 21 15 6</rect></_>
    <_>
      <rect>
        8 9 17 17</rect></_>
    <_>
      <rect>
        8 49 1 1</rect></_>
    <_>
      <rect>
        9 7 16 12</rect></_>
    <_>
      <rect>
        9 20 9 5</rect></_>
    <_>
      <rect>
        9 57 2 1</rect></_>
    <_>
      <rect>
        10 15 14 8</rect></_>
    <_>
      <rect>
        11 2 15 12</rect></_>
    <_>
      <rect>
        11 4 12 14</rect></_>
    <_>
      <rect>
        11 6 16 18</rect></_>
    <_>
      <rect>
        11 21 12 5</rect></_>
    <_>
      <rect>
        11 29 9 4</rect></_>
    <_>
      <rect>
        11 36 8 6</rect></_>
    <_>
      <rect>
        12 35 16 8</rect></_>
    <_>
      <rect>
        13 3 13 5</rect></_>
    <_>
      <rect>
        13 29 10 8</rect></_>
    <_>
      <rect>
        14 22 15 8</rect></_>
    <_>
      <rect>
        16 19 1 1</rect></_>
    <_>
      <rect>
        17 1 7 3</rect></_>
    <_>
      <rect>
        19 25 7 5</rect></_>
    <_>
      <rect>
        20 8 13 8</rect></_>
    <_>
      <rect>
        21 0 2 1</rect></_>
    <_>
      <rect>
        21 12 7 11</rect></_>
    <_>
      <rect>
        22 21 11 6</rect></_>
    <_>
      <rect>
        23 1 12 8</rect></_>
    <_>
      <rect>
        23 26 10 6</rect></_>
    <_>
      <rect>
        24 1 1 1</rect></_>
    <_>
      <rect>
        24 17 1 2</rect></_>
    <_>
      <rect>
        24 56 1 1</rect></_>
    <_>
      <rect>
        24 57 1 1</rect></_>
    <_>
      <rect>
        26 45 10 5</rect></_>
    <_>
      <rect>
        29 17 10 4</rect></_>
    <_>
      <rect>
        32 22 1 1</rect></_>
    <_>
      <rect>
        32 26 1 1</rect></_>
    <_>
      <rect>
        32 56 1 1</rect></_>
    <_>
      <rect>
        33 20 9 6</rect></_>
    <_>
      <rect>
        33 37 6 2</rect></_>
    <_>
      <rect>
        34 19 1 1</rect></_>
    <_>
      <rect>
        35 24 8 4</rect></_>
    <_>
      <rect>
        36 18 8 9</rect></_>
    <_>
      <rect>
        36 56 1 1</rect></_>
    <_>
      <rect>
        39 10 7 6</rect></_>
    <_>
      <rect>
        40 56 1 1</rect></_>
    <_>
      <rect>
        41 0 5 2</rect></_>
    <_>
      <rect>
        41 19 4 2</rect></_>
    <_>
      <rect>
        41 57 1 1</rect></_>
    <_>
      <rect>
        42 14 6 4</rect></_>
    <_>
      <rect>
        42 41 6 5</rect></_>
    <_>
      <rect>
        43 57 2 1</rect></_>
    <_>
      <rect>
        45 14 5 8</rect></_>
    <_>
      <rect>
        53 56 2 1</rect></_>
    <_>
      <rect>
        54 51 2 1</rect></_>
    <_>
      <rect>
        54 56 2 1</rect></_>
    <_>
      <rect>
        54 57 1 1</rect></_>
    <_>
      <rect>
        55 57 1 1</rect></_>
    <_>
      <rect>
        56 5 1 1</rect></_>
    <_>
      <rect>
        56 48 1 1</rect></_>
    <_>
      <rect>
        57 57 1 1</rect></_></features></cascade>
</opencv_storage>
