<?xml version="1.0"?>
<opencv_storage>
<cascade>
  <stageType>BOOST</stageType>
  <featureType>LBP</featureType>
  <height>60</height>
  <width>60</width>
  <stageParams>
    <boostType>GAB</boostType>
    <minHitRate>9.9500000476837158e-01</minHitRate>
    <maxFalseAlarm>5.0000000000000000e-01</maxFalseAlarm>
    <weightTrimRate>9.4999999999999996e-01</weightTrimRate>
    <maxDepth>1</maxDepth>
    <maxWeakCount>100</maxWeakCount></stageParams>
  <featureParams>
    <maxCatCount>256</maxCatCount>
    <featSize>1</featSize></featureParams>
  <stageNum>10</stageNum>
  <stages>
    <!-- stage 0 -->
    <_>
      <maxWeakCount>7</maxWeakCount>
      <stageThreshold>-1.2943829298019409e+00</stageThreshold>
      <weakClassifiers>
        <_>
          <internalNodes>
            0 -1 27 -70256162 -779926702 -2147401511 1896084350
            -712798054 -1207299456 1150327176 1430380827</internalNodes>
          <leafValues>
            -7.6434814929962158e-01 -7.0133961737155914e-02</leafValues></_>
        <_>
          <internalNodes>
            0 -1 17 -3146018 2045935910 -174927592 12625426 -354957880
            1243250953 1896072392 1350685122</internalNodes>
          <leafValues>
            -6.1763209104537964e-01 2.2211544215679169e-01</leafValues></_>
        <_>
          <internalNodes>
            0 -1 23 -19925005 -720837804 134218392 2105993754 -622406708
            -1102353910 -1034829440 1089794176</internalNodes>
          <leafValues>
            -4.8750677704811096e-01 3.3562278747558594e-01</leafValues></_>
        <_>
          <internalNodes>
            0 -1 60 -1969090384 -1299316686 -788478499 -1812430380
            -1971191667 -1160642424 -1974861384 -1164289963</internalNodes>
          <leafValues>
            -5.2508550882339478e-01 3.3518752455711365e-01</leafValues></_>
        <_>
          <internalNodes>
            0 -1 4 -94896170 -211294720 1644216587 -328009280 1534853130
            -1861090974 -225740213 1091035926</internalNodes>
          <leafValues>
            -4.1271173954010010e-01 4.0124872326850891e-01</leafValues></_>
        <_>
          <internalNodes>
            0 -1 75 -1397027937 -1396707329 -1224736785 -452984853
            -1392582793 2139062270 -268960649 -285286570</internalNodes>
          <leafValues>
            -3.9043876528739929e-01 4.5376899838447571e-01</leafValues></_>
        <_>
          <internalNodes>
            0 -1 48 -767036240 -1748610812 1090524185 -1249869758
            1078170243 -24641405 42330571 504492067</internalNodes>
          <leafValues>
            -4.4064277410507202e-01 3.6937838792800903e-01</leafValues></_></weakClassifiers></_>
    <!-- stage 1 -->
    <_>
      <maxWeakCount>7</maxWeakCount>
      <stageThreshold>-1.3258628845214844e+00</stageThreshold>
      <weakClassifiers>
        <_>
          <internalNodes>
            0 -1 32 -1075880065 -338169537 -745552217 -421537905
            1741912579 -1682973245 -74188443 -4457547</internalNodes>
          <leafValues>
            -7.2465854883193970e-01 -7.5134165585041046e-02</leafValues></_>
        <_>
          <internalNodes>
            0 -1 63 780098359 -1358966307 -8784945 -423632897 -413139341
            1802705091 -102908554 -318841884</internalNodes>
          <leafValues>
            -4.9479535222053528e-01 2.6870593428611755e-01</leafValues></_>
        <_>
          <internalNodes>
            0 -1 33 -708529788 -237488742 17871132 -775860156
            -1058760724 -1991622519 -1845431590 1342291274</internalNodes>
          <leafValues>
            -5.6354731321334839e-01 2.4145916104316711e-01</leafValues></_>
        <_>
          <internalNodes>
            0 -1 89 788356069 -1361650211 -79059550 -290491525
            -520521089 -426786293 -1543504001 922288125</internalNodes>
          <leafValues>
            -6.1499887704849243e-01 2.2644157707691193e-01</leafValues></_>
        <_>
          <internalNodes>
            0 -1 92 249566393 -1541779517 -916891829 -527940538
            -16818137 -1085699741 -1702113936 -1498125001</internalNodes>
          <leafValues>
            -5.6344121694564819e-01 2.8280046582221985e-01</leafValues></_>
        <_>
          <internalNodes>
            0 -1 76 -1158316165 -1921089737 -268435601 -286015621
            -1073741985 -562069505 -838860954 -356581901</internalNodes>
          <leafValues>
            -3.3684834837913513e-01 4.2226770520210266e-01</leafValues></_>
        <_>
          <internalNodes>
            0 -1 7 -1212985943 -293601297 2147450791 -1350565907
            -536879629 -276824193 -33685658 -539140</internalNodes>
          <leafValues>
            -3.2124653458595276e-01 4.8146191239356995e-01</leafValues></_></weakClassifiers></_>
    <!-- stage 2 -->
    <_>
      <maxWeakCount>10</maxWeakCount>
      <stageThreshold>-1.3228746652603149e+00</stageThreshold>
      <weakClassifiers>
        <_>
          <internalNodes>
            0 -1 30 -1077968897 -73404201 -7078227 -470297089 -879003043
            -337134329 -336643273 -4194315</internalNodes>
          <leafValues>
            -6.9893944263458252e-01 -5.8341864496469498e-02</leafValues></_>
        <_>
          <internalNodes>
            0 -1 88 750022445 -1502185609 -81315186 -352691766 -295595
            2095049683 -990945420 767360621</internalNodes>
          <leafValues>
            -7.6652455329895020e-01 9.2050708830356598e-02</leafValues></_>
        <_>
          <internalNodes>
            0 -1 87 581468053 83674453 -742406715 -153478537 -84970159
            -163725181 -1348210251 -1325599631</internalNodes>
          <leafValues>
            -5.2677333354949951e-01 2.3494678735733032e-01</leafValues></_>
        <_>
          <internalNodes>
            0 -1 3 -1301356344 462864418 1073928321 2097791107 278151880
            1208242192 1761891806 -477904269</internalNodes>
          <leafValues>
            -4.1848039627075195e-01 3.4778377413749695e-01</leafValues></_>
        <_>
          <internalNodes>
            0 -1 50 -892210992 -754900903 639248 -955135470 -1845192454
            -931004256 1082441932 1225379946</internalNodes>
          <leafValues>
            -4.5658174157142639e-01 3.0517131090164185e-01</leafValues></_>
        <_>
          <internalNodes>
            0 -1 36 -1067517290 1652133954 -1793978148 -801583038
            1524564643 1087914155 1105562104 1406916714</internalNodes>
          <leafValues>
            -4.6393623948097229e-01 3.1546387076377869e-01</leafValues></_>
        <_>
          <internalNodes>
            0 -1 44 -1385532843 -1355319186 -1738619153 -1240307840
            578996334 -365433154 -1473640207 -1392883343</internalNodes>
          <leafValues>
            -4.5690706372261047e-01 3.3755698800086975e-01</leafValues></_>
        <_>
          <internalNodes>
            0 -1 65 -1426972777 -1239115711 -1870269609 -14796849
            -1740548436 1025082674 -2063062036 -37870352</internalNodes>
          <leafValues>
            -3.9407336711883545e-01 3.7110650539398193e-01</leafValues></_>
        <_>
          <internalNodes>
            0 -1 59 -710429034 -788424688 8503552 356860161 -1737838942
            -603258055 1454092942 67689063</internalNodes>
          <leafValues>
            -4.3582692742347717e-01 3.4786397218704224e-01</leafValues></_>
        <_>
          <internalNodes>
            0 -1 31 -1415233692 597382977 1675037565 -858382071
            164317249 -391505510 1741388591 -272664035</internalNodes>
          <leafValues>
            -4.4705736637115479e-01 3.4718671441078186e-01</leafValues></_></weakClassifiers></_>
    <!-- stage 3 -->
    <_>
      <maxWeakCount>8</maxWeakCount>
      <stageThreshold>-1.1793270111083984e+00</stageThreshold>
      <weakClassifiers>
        <_>
          <internalNodes>
            0 -1 18 -1275101185 -405278081 -67386905 -335546935
            -33822169 -269269057 -17067166 -134219267</internalNodes>
          <leafValues>
            -7.0297032594680786e-01 -4.2224511504173279e-02</leafValues></_>
        <_>
          <internalNodes>
            0 -1 37 633290015 -270674977 -671754546 -419452523 732897663
            -19930481 -134523824 -328268</internalNodes>
          <leafValues>
            -4.8808977007865906e-01 2.5281482934951782e-01</leafValues></_>
        <_>
          <internalNodes>
            0 -1 94 750018535 -1493797537 -14203545 -295799153
            -1140916353 1784279259 -609554565 2130500863</internalNodes>
          <leafValues>
            -5.4919362068176270e-01 2.4810732901096344e-01</leafValues></_>
        <_>
          <internalNodes>
            0 -1 83 1049653117 -1361395297 -28334877 -289490955
            1993043805 -759047269 -68820363 -1661173903</internalNodes>
          <leafValues>
            -5.2779692411422729e-01 2.6554006338119507e-01</leafValues></_>
        <_>
          <internalNodes>
            0 -1 58 -691014436 52072688 -2105019342 -641176028
            -1823218464 201777282 1290956992 1073988659</internalNodes>
          <leafValues>
            -4.9096101522445679e-01 3.1869825720787048e-01</leafValues></_>
        <_>
          <internalNodes>
            0 -1 40 -1430579595 -1114345447 -606582658 -1103350061
            -251959204 -1184170741 -1260570188 -1178726287</internalNodes>
          <leafValues>
            -4.6264097094535828e-01 2.9755899310112000e-01</leafValues></_>
        <_>
          <internalNodes>
            0 -1 6 -19728391 1635218822 -1476339331 -176992111
            1101812459 1879064684 1921886494 543383777</internalNodes>
          <leafValues>
            -4.3454256653785706e-01 3.2952484488487244e-01</leafValues></_>
        <_>
          <internalNodes>
            0 -1 85 20738165 -1085779362 -300091233 -1401491271
            -367420787 -259166573 -339023676 -1897366699</internalNodes>
          <leafValues>
            -5.1542025804519653e-01 2.7368262410163879e-01</leafValues></_></weakClassifiers></_>
    <!-- stage 4 -->
    <_>
      <maxWeakCount>11</maxWeakCount>
      <stageThreshold>-1.2688353061676025e+00</stageThreshold>
      <weakClassifiers>
        <_>
          <internalNodes>
            0 -1 80 -102765121 -67148921 -64752177 -354451301 -203455637
            -99374935 -204605925 -1025</internalNodes>
          <leafValues>
            -6.3577902317047119e-01 1.5657620131969452e-01</leafValues></_>
        <_>
          <internalNodes>
            0 -1 21 -28579582 -192432183 -926343000 43184894 -1461795128
            1145176690 1121013844 1354874674</internalNodes>
          <leafValues>
            -6.6361612081527710e-01 9.9952988326549530e-02</leafValues></_>
        <_>
          <internalNodes>
            0 -1 35 211438385 1809676967 -711264596 -465192187
            -1208456406 -1014299713 -124866235 1853387508</internalNodes>
          <leafValues>
            -5.7323449850082397e-01 1.7381048202514648e-01</leafValues></_>
        <_>
          <internalNodes>
            0 -1 15 -193673990 1393070420 1090525525 -683651052
            -90377796 -773715840 -784095208 1131464034</internalNodes>
          <leafValues>
            -4.9885147809982300e-01 2.3497511446475983e-01</leafValues></_>
        <_>
          <internalNodes>
            0 -1 54 803175789 265968323 -780041819 -1368243977
            1910789225 -34373445 -107744755 -152536603</internalNodes>
          <leafValues>
            -4.4170260429382324e-01 2.7280026674270630e-01</leafValues></_>
        <_>
          <internalNodes>
            0 -1 14 -1352717 -670733316 -16820378 -487931913 2147483462
            1039658858 -1888026855 -497098829</internalNodes>
          <leafValues>
            -3.1087034940719604e-01 3.8435494899749756e-01</leafValues></_>
        <_>
          <internalNodes>
            0 -1 9 -367269334 2135270840 -1958125 2068171684 -906748750
            -1074724900 1135900108 1230488579</internalNodes>
          <leafValues>
            -3.3216896653175354e-01 3.4654846787452698e-01</leafValues></_>
        <_>
          <internalNodes>
            0 -1 34 -1034708137 -1813042050 -285720867 1508961218
            1568529663 -17859212 -327101653 -380643822</internalNodes>
          <leafValues>
            -2.3796091973781586e-01 4.9595835804939270e-01</leafValues></_>
        <_>
          <internalNodes>
            0 -1 42 -289782447 -580500843 -788511518 -118619942
            -208930688 -1434041847 -2103784528 -1171372512</internalNodes>
          <leafValues>
            -3.7477362155914307e-01 3.3201736211776733e-01</leafValues></_>
        <_>
          <internalNodes>
            0 -1 55 -1005 -1674183469 1036867409 880934575 -94636824
            511638546 -1224477014 -332946721</internalNodes>
          <leafValues>
            -2.6030036807060242e-01 4.7597804665565491e-01</leafValues></_>
        <_>
          <internalNodes>
            0 -1 90 760536557 -1471483225 -685685989 -1965899363
            -879533323 -649488245 1284198421 1878817232</internalNodes>
          <leafValues>
            -5.6409639120101929e-01 2.2343634068965912e-01</leafValues></_></weakClassifiers></_>
    <!-- stage 5 -->
    <_>
      <maxWeakCount>10</maxWeakCount>
      <stageThreshold>-1.2717368602752686e+00</stageThreshold>
      <weakClassifiers>
        <_>
          <internalNodes>
            0 -1 74 -1348468737 -471864585 -1584162329 -358623013
            -222563545 -617897541 -1952206321 -16785921</internalNodes>
          <leafValues>
            -6.6951382160186768e-01 -7.2429902851581573e-02</leafValues></_>
        <_>
          <internalNodes>
            0 -1 66 -1308656641 -309607793 -753535826 -358684277
            -95028497 -577010941 -271885529 -1121351</internalNodes>
          <leafValues>
            -3.5085600614547729e-01 2.9960641264915466e-01</leafValues></_>
        <_>
          <internalNodes>
            0 -1 82 497835621 -1470856361 -452649062 -1366888287
            -578088067 -527505528 -1146533035 771251773</internalNodes>
          <leafValues>
            -6.6023689508438110e-01 1.5628267824649811e-01</leafValues></_>
        <_>
          <internalNodes>
            0 -1 8 -78797572 -1651786181 -1274400002 197791590
            -1339580795 -1962513601 1223510253 1648389184</internalNodes>
          <leafValues>
            -4.5866817235946655e-01 2.4341692030429840e-01</leafValues></_>
        <_>
          <internalNodes>
            0 -1 53 -1975891659 -1886185875 -175073281 -556750820
            -2009419468 954509463 -1736047152 -1527227612</internalNodes>
          <leafValues>
            -4.8720917105674744e-01 2.0436905324459076e-01</leafValues></_>
        <_>
          <internalNodes>
            0 -1 45 -673189906 1252769786 -335861852 16155547 1991749378
            393592756 -570511565 -739826465</internalNodes>
          <leafValues>
            -2.8603953123092651e-01 4.0562000870704651e-01</leafValues></_>
        <_>
          <internalNodes>
            0 -1 11 -276368182 1532612724 -636070236 -204351784
            1384531096 -1307562960 -511515110 1159840542</internalNodes>
          <leafValues>
            -4.3807393312454224e-01 2.5969907641410828e-01</leafValues></_>
        <_>
          <internalNodes>
            0 -1 43 1525536144 2101542513 -1883423267 -41485558
            1048364794 -1996947478 -18497877 -840448645</internalNodes>
          <leafValues>
            -3.0528679490089417e-01 3.6700803041458130e-01</leafValues></_>
        <_>
          <internalNodes>
            0 -1 62 670968157 1692746194 -775863486 -353184546
            -1320197525 1518576001 -876500124 905205608</internalNodes>
          <leafValues>
            -6.7498701810836792e-01 1.7980641126632690e-01</leafValues></_>
        <_>
          <internalNodes>
            0 -1 86 1052597813 -1561013003 -788057261 -152907714
            1393626151 -1123491702 -1293189915 -1365741492</internalNodes>
          <leafValues>
            -4.8911467194557190e-01 2.4567285180091858e-01</leafValues></_></weakClassifiers></_>
    <!-- stage 6 -->
    <_>
      <maxWeakCount>10</maxWeakCount>
      <stageThreshold>-1.1927887201309204e+00</stageThreshold>
      <weakClassifiers>
        <_>
          <internalNodes>
            0 -1 73 -203450373 -8398869 1963315501 -421817893 -207378325
            -808856949 -73418421 -2359333</internalNodes>
          <leafValues>
            -6.3377779722213745e-01 7.4285715818405151e-02</leafValues></_>
        <_>
          <internalNodes>
            0 -1 25 751840805 -275061217 -107001405 -271723573
            -685350297 -1551641777 -1968903307 1475427172</internalNodes>
          <leafValues>
            -6.3181692361831665e-01 9.4837762415409088e-02</leafValues></_>
        <_>
          <internalNodes>
            0 -1 69 -973365654 -267718916 -33587454 -1595248700
            -1963407454 187957247 -101017855 -673475905</internalNodes>
          <leafValues>
            -2.7767458558082581e-01 3.5897371172904968e-01</leafValues></_>
        <_>
          <internalNodes>
            0 -1 2 -1031345485 496185046 -67846192 2067359262
            -1974415386 -1226113231 1086594293 -1047111693</internalNodes>
          <leafValues>
            -3.1090912222862244e-01 3.2487559318542480e-01</leafValues></_>
        <_>
          <internalNodes>
            0 -1 47 -2046661771 1020011978 -783264106 -229127718
            -878652219 -234258357 42500857 -1365110316</internalNodes>
          <leafValues>
            -3.5845756530761719e-01 3.0926308035850525e-01</leafValues></_>
        <_>
          <internalNodes>
            0 -1 5 2146804784 1382304506 -1193640374 -1282238318
            -253937906 1381040160 1776349216 1731256418</internalNodes>
          <leafValues>
            -5.4869109392166138e-01 1.9086141884326935e-01</leafValues></_>
        <_>
          <internalNodes>
            0 -1 77 -1933685403 917302780 -16844801 -194789851
            -1902739721 -905969939 -436316673 -1644294721</internalNodes>
          <leafValues>
            -3.2469037175178528e-01 3.4892952442169189e-01</leafValues></_>
        <_>
          <internalNodes>
            0 -1 56 982120144 -44705638 1363187093 -1165115328
            -662420404 -2000181109 -527514920 -2001612296</internalNodes>
          <leafValues>
            -4.6091663837432861e-01 2.3879325389862061e-01</leafValues></_>
        <_>
          <internalNodes>
            0 -1 24 -1739787314 -1722403594 -1878908537 363406429
            -2136406642 -399310808 -433518615 470312229</internalNodes>
          <leafValues>
            -5.0349348783493042e-01 2.2024789452552795e-01</leafValues></_>
        <_>
          <internalNodes>
            0 -1 84 749796093 1283909199 -753807069 -964897905
            -1316339629 1353433218 -1725377675 1052292469</internalNodes>
          <leafValues>
            -5.8071124553680420e-01 1.8763081729412079e-01</leafValues></_></weakClassifiers></_>
    <!-- stage 7 -->
    <_>
      <maxWeakCount>11</maxWeakCount>
      <stageThreshold>-1.3043111562728882e+00</stageThreshold>
      <weakClassifiers>
        <_>
          <internalNodes>
            0 -1 71 -2013265925 -671624813 1371919274 -486649430
            -291767873 -98914230 -103040130 -262149</internalNodes>
          <leafValues>
            -6.5706974267959595e-01 -5.9431523084640503e-02</leafValues></_>
        <_>
          <internalNodes>
            0 -1 68 -727988344 -246538110 1343260852 -669374132
            -763163940 -861175296 1629168264 -648314738</internalNodes>
          <leafValues>
            -3.3148086071014404e-01 2.8715711832046509e-01</leafValues></_>
        <_>
          <internalNodes>
            0 -1 93 756834461 -1482761277 -1862187569 -1428790627
            -224499191 1803797227 1938303093 934836213</internalNodes>
          <leafValues>
            -6.5973240137100220e-01 1.4873887598514557e-01</leafValues></_>
        <_>
          <internalNodes>
            0 -1 61 -211847664 1428206943 -1609461423 1232458506
            2055960716 -2144133110 -332521068 3602055</internalNodes>
          <leafValues>
            -3.8159048557281494e-01 2.6897186040878296e-01</leafValues></_>
        <_>
          <internalNodes>
            0 -1 72 2058342655 1871835931 -654276210 -1026249777
            -204477866 -1948444533 -609332869 251091819</internalNodes>
          <leafValues>
            -3.5981267690658569e-01 2.7411386370658875e-01</leafValues></_>
        <_>
          <internalNodes>
            0 -1 1 -379869875 -331340434 278358422 -1249787623
            -305522035 -1601497016 2125399007 1358428071</internalNodes>
          <leafValues>
            -3.3866876363754272e-01 3.0306470394134521e-01</leafValues></_>
        <_>
          <internalNodes>
            0 -1 12 -557849817 1987012218 -17929094 -2115983392
            1190514207 1182039925 1718035899 -768121325</internalNodes>
          <leafValues>
            -3.1399792432785034e-01 3.3501297235488892e-01</leafValues></_>
        <_>
          <internalNodes>
            0 -1 29 -399213291 -1701640059 -201313895 -1847858878
            -1521659537 -1427953141 -483824925 -1162048452</internalNodes>
          <leafValues>
            -3.4850826859474182e-01 3.1571671366691589e-01</leafValues></_>
        <_>
          <internalNodes>
            0 -1 64 -797063609 325424723 -1225261915 414834517
            1436104182 981462899 -1784665108 -1978863985</internalNodes>
          <leafValues>
            -3.0129921436309814e-01 3.7294673919677734e-01</leafValues></_>
        <_>
          <internalNodes>
            0 -1 52 -1104557742 -1247915582 -1059847481 -664331652
            2046779392 -1635096568 430262064 -636159536</internalNodes>
          <leafValues>
            -4.0521979331970215e-01 2.8561526536941528e-01</leafValues></_>
        <_>
          <internalNodes>
            0 -1 81 804260377 -455962482 1342711824 1918941844 144753570
            -1168113016 1855580898 -740255568</internalNodes>
          <leafValues>
            -4.7513887286186218e-01 2.4063202738761902e-01</leafValues></_></weakClassifiers></_>
    <!-- stage 8 -->
    <_>
      <maxWeakCount>10</maxWeakCount>
      <stageThreshold>-1.5304967164993286e+00</stageThreshold>
      <weakClassifiers>
        <_>
          <internalNodes>
            0 -1 79 -136314881 -78646329 -237899345 -354446145 -86381589
            -123025373 -84936321 -5248001</internalNodes>
          <leafValues>
            -6.1615580320358276e-01 1.2469437718391418e-01</leafValues></_>
        <_>
          <internalNodes>
            0 -1 13 -713588993 -276824073 -1358954518 -269778967
            -402685969 -1 -134291609 -83919363</internalNodes>
          <leafValues>
            -2.9725912213325500e-01 3.2796272635459900e-01</leafValues></_>
        <_>
          <internalNodes>
            0 -1 20 -2004152826 103087795 416197808 -2142490773
            1748968611 208103855 1843405332 1884872499</internalNodes>
          <leafValues>
            -6.0815542936325073e-01 1.4989291131496429e-01</leafValues></_>
        <_>
          <internalNodes>
            0 -1 41 -1632424107 -1235724472 -585457259 -560594671
            -506664288 -72776160 -270434824 -1431924587</internalNodes>
          <leafValues>
            -3.4737244248390198e-01 2.6611867547035217e-01</leafValues></_>
        <_>
          <internalNodes>
            0 -1 67 -440161896 527099952 37750903 1039225484 1763467917
            -937893877 1485163100 1078181890</internalNodes>
          <leafValues>
            -3.7958687543869019e-01 2.7160990238189697e-01</leafValues></_>
        <_>
          <internalNodes>
            0 -1 46 -459502535 -729625045 -612085962 1914706486
            -769689527 -1125481741 -232645388 1075102784</internalNodes>
          <leafValues>
            -5.1370930671691895e-01 2.1233536303043365e-01</leafValues></_>
        <_>
          <internalNodes>
            0 -1 38 -410073430 2132243458 -664740780 1921140360
            1239009466 -1831796057 -1079144420 -1059604873</internalNodes>
          <leafValues>
            -3.9679047465324402e-01 2.6320701837539673e-01</leafValues></_>
        <_>
          <internalNodes>
            0 -1 16 -62329658 1043860438 1979899117 -775286074
            1508083864 1012724196 -429893300 1308697506</internalNodes>
          <leafValues>
            -4.3697285652160645e-01 2.3688858747482300e-01</leafValues></_>
        <_>
          <internalNodes>
            0 -1 10 -368515084 -277294269 1490165479 -480545880
            -389627216 -644840130 -1510643192 1346462423</internalNodes>
          <leafValues>
            -4.4443425536155701e-01 2.4143080413341522e-01</leafValues></_>
        <_>
          <internalNodes>
            0 -1 0 -142620677 -108532161 -536887640 -520358290 -8362
            -188284955 -268436649 -173050381</internalNodes>
          <leafValues>
            -3.0801203846931458e-01 3.5845339298248291e-01</leafValues></_></weakClassifiers></_>
    <!-- stage 9 -->
    <_>
      <maxWeakCount>11</maxWeakCount>
      <stageThreshold>-1.2043379545211792e+00</stageThreshold>
      <weakClassifiers>
        <_>
          <internalNodes>
            0 -1 39 -67168337 -337680807 1150323950 -339110369
            -229936769 -80609248 -478551450 -1049126</internalNodes>
          <leafValues>
            -6.7847025394439697e-01 -1.7100371420383453e-01</leafValues></_>
        <_>
          <internalNodes>
            0 -1 70 -1427153435 -1409821638 -552104018 -431688764
            -778978996 580639278 -322313348 1056497084</internalNodes>
          <leafValues>
            -5.3161942958831787e-01 1.1492010951042175e-01</leafValues></_>
        <_>
          <internalNodes>
            0 -1 51 102631540 985408572 -1325281072 -1176580610
            -1198438145 -1431501819 -1454713955 -1464965464</internalNodes>
          <leafValues>
            -4.2872169613838196e-01 2.1088598668575287e-01</leafValues></_>
        <_>
          <internalNodes>
            0 -1 26 1058742826 1397527084 275061055 -227458511
            1610777504 -31995641 1888346792 -671046866</internalNodes>
          <leafValues>
            -3.2077065110206604e-01 2.9860240221023560e-01</leafValues></_>
        <_>
          <internalNodes>
            0 -1 49 202347716 17803316 46958326 428155506 -1367868858
            479502904 -1018440536 67296525</internalNodes>
          <leafValues>
            -4.8533934354782104e-01 2.0154464244842529e-01</leafValues></_>
        <_>
          <internalNodes>
            0 -1 78 -1114764965 -1372401615 -16148638 -1902925349
            1439996534 -3430231 -825295269 -1226134555</internalNodes>
          <leafValues>
            -3.9911019802093506e-01 2.5711458921432495e-01</leafValues></_>
        <_>
          <internalNodes>
            0 -1 91 716185333 1385656491 -1006398031 -1122742270
            -1848882472 -86310909 -1281187108 804288629</internalNodes>
          <leafValues>
            -5.2900516986846924e-01 1.9305346906185150e-01</leafValues></_>
        <_>
          <internalNodes>
            0 -1 57 -289279564 300585504 -2012199343 -659964520
            -2123369431 -1591571293 1884416129 5469095</internalNodes>
          <leafValues>
            -4.3922001123428345e-01 2.4542228877544403e-01</leafValues></_>
        <_>
          <internalNodes>
            0 -1 19 -358440302 -761968038 395773397 1372004909
            1126229590 -390764111 683245893 459543634</internalNodes>
          <leafValues>
            -4.7089108824729919e-01 2.2995974123477936e-01</leafValues></_>
        <_>
          <internalNodes>
            0 -1 28 -223099118 289317600 1915867983 -47250615 518271289
            -2111012681 -1670066872 -652223902</internalNodes>
          <leafValues>
            -3.3227309584617615e-01 3.4112691879272461e-01</leafValues></_>
        <_>
          <internalNodes>
            0 -1 22 96841850 -587564273 1097646481 1709873300
            -1016372550 691425392 -1602036600 285704602</internalNodes>
          <leafValues>
            -4.5432403683662415e-01 2.5433668494224548e-01</leafValues></_></weakClassifiers></_></stages>
  <features>
    <_>
      <rect>
        0 0 9 2</rect></_>
    <_>
      <rect>
        0 7 19 5</rect></_>
    <_>
      <rect>
        0 9 8 10</rect></_>
    <_>
      <rect>
        0 16 15 7</rect></_>
    <_>
      <rect>
        0 28 11 8</rect></_>
    <_>
      <rect>
        0 40 16 6</rect></_>
    <_>
      <rect>
        0 48 19 4</rect></_>
    <_>
      <rect>
        0 57 1 1</rect></_>
    <_>
      <rect>
        1 1 12 7</rect></_>
    <_>
      <rect>
        1 10 8 12</rect></_>
    <_>
      <rect>
        1 22 10 10</rect></_>
    <_>
      <rect>
        1 29 13 9</rect></_>
    <_>
      <rect>
        1 37 5 2</rect></_>
    <_>
      <rect>
        1 56 1 1</rect></_>
    <_>
      <rect>
        2 0 2 2</rect></_>
    <_>
      <rect>
        2 4 14 18</rect></_>
    <_>
      <rect>
        2 20 12 7</rect></_>
    <_>
      <rect>
        2 26 19 10</rect></_>
    <_>
      <rect>
        2 57 1 1</rect></_>
    <_>
      <rect>
        3 9 11 9</rect></_>
    <_>
      <rect>
        3 15 13 4</rect></_>
    <_>
      <rect>
        4 4 18 4</rect></_>
    <_>
      <rect>
        4 34 14 6</rect></_>
    <_>
      <rect>
        5 0 15 6</rect></_>
    <_>
      <rect>
        5 1 7 10</rect></_>
    <_>
      <rect>
        5 57 1 1</rect></_>
    <_>
      <rect>
        6 33 8 8</rect></_>
    <_>
      <rect>
        7 20 15 10</rect></_>
    <_>
      <rect>
        8 17 13 7</rect></_>
    <_>
      <rect>
        8 51 1 1</rect></_>
    <_>
      <rect>
        8 56 1 1</rect></_>
    <_>
      <rect>
        9 55 1 1</rect></_>
    <_>
      <rect>
        9 57 1 1</rect></_>
    <_>
      <rect>
        10 13 13 14</rect></_>
    <_>
      <rect>
        10 22 7 8</rect></_>
    <_>
      <rect>
        10 57 2 1</rect></_>
    <_>
      <rect>
        12 35 15 7</rect></_>
    <_>
      <rect>
        12 56 1 1</rect></_>
    <_>
      <rect>
        13 32 13 3</rect></_>
    <_>
      <rect>
        14 56 1 1</rect></_>
    <_>
      <rect>
        16 21 1 1</rect></_>
    <_>
      <rect>
        16 29 1 1</rect></_>
    <_>
      <rect>
        19 43 1 1</rect></_>
    <_>
      <rect>
        21 14 12 8</rect></_>
    <_>
      <rect>
        21 17 1 1</rect></_>
    <_>
      <rect>
        23 0 1 1</rect></_>
    <_>
      <rect>
        24 1 9 5</rect></_>
    <_>
      <rect>
        24 12 1 1</rect></_>
    <_>
      <rect>
        24 18 9 7</rect></_>
    <_>
      <rect>
        24 34 12 8</rect></_>
    <_>
      <rect>
        26 9 10 16</rect></_>
    <_>
      <rect>
        26 26 1 1</rect></_>
    <_>
      <rect>
        29 14 3 1</rect></_>
    <_>
      <rect>
        29 16 1 1</rect></_>
    <_>
      <rect>
        29 56 1 1</rect></_>
    <_>
      <rect>
        30 16 10 7</rect></_>
    <_>
      <rect>
        31 3 9 17</rect></_>
    <_>
      <rect>
        31 26 9 4</rect></_>
    <_>
      <rect>
        31 33 9 6</rect></_>
    <_>
      <rect>
        32 3 9 9</rect></_>
    <_>
      <rect>
        32 22 1 1</rect></_>
    <_>
      <rect>
        35 30 8 3</rect></_>
    <_>
      <rect>
        35 56 1 1</rect></_>
    <_>
      <rect>
        35 57 1 1</rect></_>
    <_>
      <rect>
        36 15 8 5</rect></_>
    <_>
      <rect>
        37 24 1 1</rect></_>
    <_>
      <rect>
        37 56 1 1</rect></_>
    <_>
      <rect>
        38 26 6 8</rect></_>
    <_>
      <rect>
        38 38 1 1</rect></_>
    <_>
      <rect>
        39 0 1 1</rect></_>
    <_>
      <rect>
        40 56 2 1</rect></_>
    <_>
      <rect>
        45 57 1 1</rect></_>
    <_>
      <rect>
        45 57 4 1</rect></_>
    <_>
      <rect>
        47 56 1 1</rect></_>
    <_>
      <rect>
        48 57 1 1</rect></_>
    <_>
      <rect>
        50 57 1 1</rect></_>
    <_>
      <rect>
        52 57 1 1</rect></_>
    <_>
      <rect>
        53 53 1 1</rect></_>
    <_>
      <rect>
        53 56 2 1</rect></_>
    <_>
      <rect>
        53 57 1 1</rect></_>
    <_>
      <rect>
        54 56 1 1</rect></_>
    <_>
      <rect>
        55 32 1 1</rect></_>
    <_>
      <rect>
        56 3 1 1</rect></_>
    <_>
      <rect>
        56 4 1 1</rect></_>
    <_>
      <rect>
        56 5 1 1</rect></_>
    <_>
      <rect>
        56 11 1 1</rect></_>
    <_>
      <rect>
        56 33 1 1</rect></_>
    <_>
      <rect>
        56 50 1 1</rect></_>
    <_>
      <rect>
        56 56 1 1</rect></_>
    <_>
      <rect>
        56 57 1 1</rect></_>
    <_>
      <rect>
        57 1 1 2</rect></_>
    <_>
      <rect>
        57 20 1 1</rect></_>
    <_>
      <rect>
        57 53 1 1</rect></_>
    <_>
      <rect>
        57 56 1 1</rect></_>
    <_>
      <rect>
        57 57 1 1</rect></_></features></cascade>
</opencv_storage>
