<?xml version="1.0"?>
<opencv_storage>
<stage3>
  <maxWeakCount>9</maxWeakCount>
  <stageThreshold>-1.3705123662948608e+00</stageThreshold>
  <weakClassifiers>
    <_>
      <internalNodes>
        0 -1 135668 -134251137 -271067649 -561776349 -275050065
        -68157441 -289292129 -2098365 -1</internalNodes>
      <leafValues>
        -6.5064972639083862e-01 8.9678511023521423e-02</leafValues></_>
    <_>
      <internalNodes>
        0 -1 348085 774117885 -1399154237 -1013456129 -1172960612
        -1645335715 -270736649 -69544203 -1363378699</internalNodes>
      <leafValues>
        -5.3624057769775391e-01 1.8090362846851349e-01</leafValues></_>
    <_>
      <internalNodes>
        0 -1 347015 1073020765 -1904232675 -40987733 -356515845
        -168862883 -722475445 -86246348 788299132</internalNodes>
      <leafValues>
        -5.6927978992462158e-01 2.1005122363567352e-01</leafValues></_>
    <_>
      <internalNodes>
        0 -1 7262 -60884738 494432334 1343213978 1898972170 1725155342
        -567620544 1275425514 1950443090</internalNodes>
      <leafValues>
        -4.4542571902275085e-01 3.1202435493469238e-01</leafValues></_>
    <_>
      <internalNodes>
        0 -1 348043 209996449 -1404777249 -796660226 -85153314 -26455696
        -239381805 -1178682379 -1501271708</internalNodes>
      <leafValues>
        -5.4967266321182251e-01 2.4846836924552917e-01</leafValues></_>
    <_>
      <internalNodes>
        0 -1 17170 -395908141 2075831366 788063991 -8798489 1689808559
        -21076107 1517698158 -68684313</internalNodes>
      <leafValues>
        -2.7794992923736572e-01 5.0635784864425659e-01</leafValues></_>
    <_>
      <internalNodes>
        0 -1 259540 -1902625355 -422027899 -334772074 -684838839
        -343744207 -820412286 -253078220 -1162203399</internalNodes>
      <leafValues>
        -4.1265320777893066e-01 3.3070552349090576e-01</leafValues></_>
    <_>
      <internalNodes>
        0 -1 10385 -523258958 -1198083904 621516906 -649460650
        -297250656 1210138677 -310358656 1344395490</internalNodes>
      <leafValues>
        -5.1680743694305420e-01 2.6337346434593201e-01</leafValues></_>
    <_>
      <internalNodes>
        0 -1 56411 -207089683 72023851 -66518225 1086608096 -220442295
        -1286573557 -1567666347 -285541868</internalNodes>
      <leafValues>
        -4.3230137228965759e-01 3.3148899674415588e-01</leafValues></_></weakClassifiers></stage3>
</opencv_storage>
