<?xml version="1.0"?>
<opencv_storage>
<stage4>
  <maxWeakCount>10</maxWeakCount>
  <stageThreshold>-1.1492567062377930e+00</stageThreshold>
  <weakClassifiers>
    <_>
      <internalNodes>
        0 -1 11760 -1078198785 -269485607 -705570865 -301992995
        -203425025 -68573029 -619725961 -1283</internalNodes>
      <leafValues>
        -6.5705424547195435e-01 2.8148148208856583e-02</leafValues></_>
    <_>
      <internalNodes>
        0 -1 348099 720732025 -1359506725 -116428317 -295828779
        -74581890 -1449146149 -551619757 2143068159</internalNodes>
      <leafValues>
        -5.4541677236557007e-01 1.6944955289363861e-01</leafValues></_>
    <_>
      <internalNodes>
        0 -1 260570 -1440981232 -1372303157 -174273825 -1093656769
        -274110983 -123493183 -1631417624 -1196282251</internalNodes>
      <leafValues>
        -4.6770128607749939e-01 2.5555694103240967e-01</leafValues></_>
    <_>
      <internalNodes>
        0 -1 324 -68945982 -282352498 -685652368 -1172769054 -839259196
        -1706425591 1878851712 1615128742</internalNodes>
      <leafValues>
        -4.8610138893127441e-01 2.5150400400161743e-01</leafValues></_>
    <_>
      <internalNodes>
        0 -1 337472 301301241 -1948255855 -107742769 -1405099849
        1942026348 -208959231 -1316124299 -290931803</internalNodes>
      <leafValues>
        -3.9663529396057129e-01 3.1481060385704041e-01</leafValues></_>
    <_>
      <internalNodes>
        0 -1 2232 -972100452 498647370 1497457160 2098692488 950682037
        -1440599268 247628419 1113813251</internalNodes>
      <leafValues>
        -4.5984968543052673e-01 2.8891631960868835e-01</leafValues></_>
    <_>
      <internalNodes>
        0 -1 347209 375749749 -1361980981 -786433577 -798243683
        -724162307 -81166204 1068202232 -1428657675</internalNodes>
      <leafValues>
        -4.3692994117736816e-01 2.9833784699440002e-01</leafValues></_>
    <_>
      <internalNodes>
        0 -1 256831 -95425075 745386346 -435891032 -1436658809
        -586565784 1469677750 2078391844 -427558249</internalNodes>
      <leafValues>
        -4.7314563393592834e-01 2.8957605361938477e-01</leafValues></_>
    <_>
      <internalNodes>
        0 -1 39957 -104601958 -1744673281 1076617784 1141760657
        2014036356 -293400439 -364435320 1282929165</internalNodes>
      <leafValues>
        -4.5127496123313904e-01 2.9347184300422668e-01</leafValues></_>
    <_>
      <internalNodes>
        0 -1 2083 -792218433 464148971 -2138943318 -619794282 1892355468
        -1404417830 -863986726 1188099414</internalNodes>
      <leafValues>
        -3.7857836484909058e-01 3.7807011604309082e-01</leafValues></_></weakClassifiers></stage4>
</opencv_storage>
