<?xml version="1.0"?>
<opencv_storage>
<stage12>
  <maxWeakCount>10</maxWeakCount>
  <stageThreshold>-1.2185491323471069e+00</stageThreshold>
  <weakClassifiers>
    <_>
      <internalNodes>
        0 -1 327445 -1342188553 -237248057 -805186101 -360738389
        -338964865 -341114705 -628711381 -4196705</internalNodes>
      <leafValues>
        -6.4649373292922974e-01 -1.0424710065126419e-01</leafValues></_>
    <_>
      <internalNodes>
        0 -1 56410 1552449277 -205269160 1092798430 -390143157
        -1412433589 -343383997 -1182020761 -1208460677</internalNodes>
      <leafValues>
        -3.7088838219642639e-01 2.0008516311645508e-01</leafValues></_>
    <_>
      <internalNodes>
        0 -1 347488 796469373 -1555080621 1167312094 -1567206963
        -1961190971 -120902454 -87352592 791444809</internalNodes>
      <leafValues>
        -5.2353787422180176e-01 1.5852908790111542e-01</leafValues></_>
    <_>
      <internalNodes>
        0 -1 97316 -52949221 -473935717 -732477172 -985507649 -377327239
        -125267958 -592823515 1006304796</internalNodes>
      <leafValues>
        -3.7866216897964478e-01 2.7137863636016846e-01</leafValues></_>
    <_>
      <internalNodes>
        0 -1 144850 -184341394 1127109134 1965695118 -328499054
        -486430129 1127983105 -266262224 2118119814</internalNodes>
      <leafValues>
        -3.9495214819908142e-01 2.3884573578834534e-01</leafValues></_>
    <_>
      <internalNodes>
        0 -1 56593 -1773959156 668852502 1696478985 2113894092
        -2003914574 -1735754871 -156423700 140534480</internalNodes>
      <leafValues>
        -5.3585022687911987e-01 1.7572957277297974e-01</leafValues></_>
    <_>
      <internalNodes>
        0 -1 303587 -47202706 -180388804 2130096611 -172024135 -31873844
        -1769998372 1970404863 -12606293</internalNodes>
      <leafValues>
        -1.8515004217624664e-01 5.4725283384323120e-01</leafValues></_>
    <_>
      <internalNodes>
        0 -1 170496 114325765 -813501917 -1650441777 -325070772
        -226396143 1653178403 -125394379 580905780</internalNodes>
      <leafValues>
        -5.3905403614044189e-01 1.9805920124053955e-01</leafValues></_>
    <_>
      <internalNodes>
        0 -1 259100 76078192 -564354987 -800911082 -92092142 1705007168
        2035916841 -895019266 -1074126692</internalNodes>
      <leafValues>
        -3.8999330997467041e-01 2.5982138514518738e-01</leafValues></_>
    <_>
      <internalNodes>
        0 -1 282379 -1915372944 -1303990144 1938019165 860604570
        -661319426 -1998609529 -793937460 1081189970</internalNodes>
      <leafValues>
        -4.2377278208732605e-01 2.4140590429306030e-01</leafValues></_></weakClassifiers></stage12>
</opencv_storage>
