<?xml version="1.0"?>
<opencv_storage>
<stage8>
  <maxWeakCount>11</maxWeakCount>
  <stageThreshold>-1.1822233200073242e+00</stageThreshold>
  <weakClassifiers>
    <_>
      <internalNodes>
        0 -1 66634 -1214414977 -338824249 -645871381 -337912883
        -276562945 -108859261 -154420633 -1131523</internalNodes>
      <leafValues>
        -6.9333332777023315e-01 -1.8999999761581421e-01</leafValues></_>
    <_>
      <internalNodes>
        0 -1 231269 215749661 -824707747 -511642934 -321551038
        2143511879 -477183287 -90265807 61742837</internalNodes>
      <leafValues>
        -6.0105925798416138e-01 8.2225739955902100e-02</leafValues></_>
    <_>
      <internalNodes>
        0 -1 346978 1031133805 -864621673 -166456758 -1365297251
        -527820449 -187989331 -1685198827 947679805</internalNodes>
      <leafValues>
        -5.1974660158157349e-01 1.6821555793285370e-01</leafValues></_>
    <_>
      <internalNodes>
        0 -1 52973 -563417378 1939581010 -1001213523 5112554 1849200853
        -109113083 37085650 -800603526</internalNodes>
      <leafValues>
        -3.2103273272514343e-01 3.1730791926383972e-01</leafValues></_>
    <_>
      <internalNodes>
        0 -1 281917 1565519763 2086857880 2138602493 -1989681219
        -555944257 -289459341 9477486 23573143</internalNodes>
      <leafValues>
        -2.9667630791664124e-01 3.5223940014839172e-01</leafValues></_>
    <_>
      <internalNodes>
        0 -1 144535 893807669 102565005 -262964817 -1028460239
        -2113591197 -973043061 -137828815 1995451248</internalNodes>
      <leafValues>
        -5.8747661113739014e-01 1.8598681688308716e-01</leafValues></_>
    <_>
      <internalNodes>
        0 -1 340366 -1143881566 2056713818 420533204 1414826692
        -1839584507 1847796560 456706477 -413404346</internalNodes>
      <leafValues>
        -3.4273105859756470e-01 3.0825066566467285e-01</leafValues></_>
    <_>
      <internalNodes>
        0 -1 58670 1018088064 378716944 1108413453 -1660446693
        1004497075 1042434208 353921181 140080483</internalNodes>
      <leafValues>
        -4.7498467564582825e-01 2.2587589919567108e-01</leafValues></_>
    <_>
      <internalNodes>
        0 -1 66202 -1325907951 1919174940 -670804518 -563342840
        -393652720 -1442078720 -1205834765 -4567111</internalNodes>
      <leafValues>
        -3.9642626047134399e-01 2.7915465831756592e-01</leafValues></_>
    <_>
      <internalNodes>
        0 -1 1539 -724970260 -1353367188 117156594 1727910428
        -1899193162 173594779 1119745186 4945236</internalNodes>
      <leafValues>
        -5.3856563568115234e-01 1.9508036971092224e-01</leafValues></_>
    <_>
      <internalNodes>
        0 -1 51976 -85799137 339451495 -335993025 -1950634373 -724724328
        -578879625 -1079264040 -230031730</internalNodes>
      <leafValues>
        -2.7288830280303955e-01 4.3942931294441223e-01</leafValues></_></weakClassifiers></stage8>
</opencv_storage>
