<?xml version="1.0"?>
<opencv_storage>
<stage1>
  <maxWeakCount>7</maxWeakCount>
  <stageThreshold>-1.3069587945938110e+00</stageThreshold>
  <weakClassifiers>
    <_>
      <internalNodes>
        0 -1 34183 1073690111 -2498053 -91894353 -279446659 -1106289809
        -1075665927 -1555096203 -3</internalNodes>
      <leafValues>
        -7.2871571779251099e-01 -7.0921987295150757e-02</leafValues></_>
    <_>
      <internalNodes>
        0 -1 347492 716537109 -1503857833 -1752705425 -354707457
        -1395458975 -1772890697 -624829065 -1359153739</internalNodes>
      <leafValues>
        -5.8057367801666260e-01 2.1510627865791321e-01</leafValues></_>
    <_>
      <internalNodes>
        0 -1 347509 619018085 -1361651755 -607396413 -289414293
        -69633933 -1349860726 -335807451 918093749</internalNodes>
      <leafValues>
        -6.5743571519851685e-01 2.0158417522907257e-01</leafValues></_>
    <_>
      <internalNodes>
        0 -1 156129 -707400232 -203625008 -211957684 -620693968
        1624024780 -2004233680 1481954552 138670999</internalNodes>
      <leafValues>
        -4.7684589028358459e-01 3.1826469302177429e-01</leafValues></_>
    <_>
      <internalNodes>
        0 -1 345148 -1489004553 -1351680521 -16781393 -352682011
        -268435593 -33554561 -805355657 -290529862</internalNodes>
      <leafValues>
        -3.1826734542846680e-01 4.5661291480064392e-01</leafValues></_>
    <_>
      <internalNodes>
        0 -1 9549 -162532422 -239696110 287396346 1468147394 1406209136
        -184549216 1896191994 1359047530</internalNodes>
      <leafValues>
        -4.3239045143127441e-01 3.4385535120964050e-01</leafValues></_>
    <_>
      <internalNodes>
        0 -1 77272 -1075368321 -281018691 -1342324761 -268439569 -557714
        1610612735 -1242208426 -161743387</internalNodes>
      <leafValues>
        -3.4108394384384155e-01 4.3118524551391602e-01</leafValues></_></weakClassifiers></stage1>
</opencv_storage>
