<?xml version="1.0"?>
<opencv_storage>
<stage11>
  <maxWeakCount>11</maxWeakCount>
  <stageThreshold>-1.1548029184341431e+00</stageThreshold>
  <weakClassifiers>
    <_>
      <internalNodes>
        0 -1 218692 -2647078 -749935925 1355962075 1609412869 -276124789
        -208535423 -85788677 -604000790</internalNodes>
      <leafValues>
        -6.2885361909866333e-01 1.7889087321236730e-03</leafValues></_>
    <_>
      <internalNodes>
        0 -1 11780 649878885 -272412439 1906203430 -439909547 -675573440
        -495259246 -1410664160 920474428</internalNodes>
      <leafValues>
        -5.8493423461914063e-01 8.3180606365203857e-02</leafValues></_>
    <_>
      <internalNodes>
        0 -1 346330 -574445653 1096669163 455327936 224674268 1640138627
        1760773039 -208936382 1207417754</internalNodes>
      <leafValues>
        -3.3440995216369629e-01 2.5937840342521667e-01</leafValues></_>
    <_>
      <internalNodes>
        0 -1 250729 -1529006275 1876941205 -251151328 -465565230
        -2088555682 -661970901 1907036536 2126965256</internalNodes>
      <leafValues>
        -4.0977597236633301e-01 2.5472882390022278e-01</leafValues></_>
    <_>
      <internalNodes>
        0 -1 322540 -841283166 1820872918 822121869 -1261375021
        -342940096 -1463091032 -1117488720 -164435936</internalNodes>
      <leafValues>
        -3.5399371385574341e-01 2.5974068045616150e-01</leafValues></_>
    <_>
      <internalNodes>
        0 -1 262100 -1396831376 -1026502655 -1919691372 -222627516
        -30764699 -752181119 -409775374 -1197455355</internalNodes>
      <leafValues>
        -4.5038238167762756e-01 2.2031652927398682e-01</leafValues></_>
    <_>
      <internalNodes>
        0 -1 319185 2132496531 938671530 1790951227 11224812 1197340648
        1895157311 2086137534 -871170169</internalNodes>
      <leafValues>
        -2.9653522372245789e-01 3.4823486208915710e-01</leafValues></_>
    <_>
      <internalNodes>
        0 -1 28896 -2132497213 -758975488 -1727629108 595600206
        1078053600 828039217 273112326 1515683959</internalNodes>
      <leafValues>
        -4.4258689880371094e-01 2.4082972109317780e-01</leafValues></_>
    <_>
      <internalNodes>
        0 -1 151075 -244341058 -693141972 -1166233605 -4802898
        -277684533 -851566756 -449464850 -167517126</internalNodes>
      <leafValues>
        -2.1658885478973389e-01 4.9288669228553772e-01</leafValues></_>
    <_>
      <internalNodes>
        0 -1 21972 -44308185 -222252391 430572220 2112382766 566488606
        -1318256464 877431480 1345811802</internalNodes>
      <leafValues>
        -3.5089743137359619e-01 3.0198186635971069e-01</leafValues></_>
    <_>
      <internalNodes>
        0 -1 11662 805887285 -543852771 -1052933 -1143083059 -1577728229
        -117571721 -1343293799 -1351802899</internalNodes>
      <leafValues>
        -2.7075704932212830e-01 3.9283010363578796e-01</leafValues></_></weakClassifiers></stage11>
</opencv_storage>
