<?xml version="1.0"?>
<opencv_storage>
<stage0>
  <maxWeakCount>7</maxWeakCount>
  <stageThreshold>-1.3868641853332520e+00</stageThreshold>
  <weakClassifiers>
    <_>
      <internalNodes>
        0 -1 92174 -800588834 -645865456 -1962878307 -788434622
        -1073707784 -494174192 -1065291526 2019018290</internalNodes>
      <leafValues>
        -7.5750577449798584e-01 -1.0138248652219772e-01</leafValues></_>
    <_>
      <internalNodes>
        0 -1 6986 -456731942 -210598974 -805301927 -520060918 -926891102
        -637362084 1224795160 1145295619</internalNodes>
      <leafValues>
        -5.3432160615921021e-01 2.6352384686470032e-01</leafValues></_>
    <_>
      <internalNodes>
        0 -1 150248 -81798954 -1860811454 1954562550 46493891
        -1565215788 1251606912 903531516 1076949186</internalNodes>
      <leafValues>
        -5.2373015880584717e-01 2.9603573679924011e-01</leafValues></_>
    <_>
      <internalNodes>
        0 -1 231136 -1728100236 -669255231 -745942051 -1103718311
        -829535792 -1574747968 -1697716556 -1097181532</internalNodes>
      <leafValues>
        -4.2696866393089294e-01 3.5732275247573853e-01</leafValues></_>
    <_>
      <internalNodes>
        0 -1 341017 -1406202073 -290455681 -148 -1393098950 -1090683521
        2012688254 -285286569 -184617129</internalNodes>
      <leafValues>
        -3.5342007875442505e-01 4.3686360120773315e-01</leafValues></_>
    <_>
      <internalNodes>
        0 -1 49275 -515063166 307282502 285459551 419825715 -1677360996
        -1878237056 1640120986 1080522070</internalNodes>
      <leafValues>
        -5.2749121189117432e-01 3.0606493353843689e-01</leafValues></_>
    <_>
      <internalNodes>
        0 -1 107687 2124343545 -82654894 1426063475 2025861194
        -1143182696 -360562555 -1962049200 1145332800</internalNodes>
      <leafValues>
        -5.3716135025024414e-01 3.0624049901962280e-01</leafValues></_></weakClassifiers></stage0>
</opencv_storage>
