<?xml version="1.0"?>
<opencv_storage>
<stage7>
  <maxWeakCount>11</maxWeakCount>
  <stageThreshold>-1.2913451194763184e+00</stageThreshold>
  <weakClassifiers>
    <_>
      <internalNodes>
        0 -1 56032 -2049 -3672113 -913651221 -338172977 -108595041
        -1474531 -84935817 -4211713</internalNodes>
      <leafValues>
        -6.1685168743133545e-01 1.7312660813331604e-01</leafValues></_>
    <_>
      <internalNodes>
        0 -1 346997 1053880125 -1411694177 -753405213 802558876
        -207751577 -226033532 -1719147675 1017667045</internalNodes>
      <leafValues>
        -5.7556647062301636e-01 1.0099027305841446e-01</leafValues></_>
    <_>
      <internalNodes>
        0 -1 28410 1881196422 424362102 -921671067 -1860631549
        1112345788 -1880774027 2067908952 -306125801</internalNodes>
      <leafValues>
        -3.7767311930656433e-01 2.5585284829139709e-01</leafValues></_>
    <_>
      <internalNodes>
        0 -1 231244 -1501669531 -321114040 -936683687 2144755827
        -2002715956 -393674623 666974533 -425788820</internalNodes>
      <leafValues>
        -3.2199791073799133e-01 3.2623970508575439e-01</leafValues></_>
    <_>
      <internalNodes>
        0 -1 205726 -1315052528 1390567512 -1800942659 -1662714174
        134973354 -1399832665 409935530 430699251</internalNodes>
      <leafValues>
        -4.0763619542121887e-01 2.4386204779148102e-01</leafValues></_>
    <_>
      <internalNodes>
        0 -1 66670 -643832800 1632176288 546066566 1791624855 -794133935
        1459646600 1694519302 1424945694</internalNodes>
      <leafValues>
        -4.3773609399795532e-01 2.5240725278854370e-01</leafValues></_>
    <_>
      <internalNodes>
        0 -1 302607 203313135 -1308311415 -864559458 -1110515195
        -1331138215 690717837 1089382623 -1346883335</internalNodes>
      <leafValues>
        -3.9626449346542358e-01 2.8153619170188904e-01</leafValues></_>
    <_>
      <internalNodes>
        0 -1 6138 -403730785 -34906509 -1082731169 521698421 1723127526
        -543264779 -330154259 -749607613</internalNodes>
      <leafValues>
        -2.5128570199012756e-01 4.4284084439277649e-01</leafValues></_>
    <_>
      <internalNodes>
        0 -1 77276 -761531647 -1545502369 -1739200061 792106443
        -450134457 -1816985267 1369994051 1943466871</internalNodes>
      <leafValues>
        -4.8749059438705444e-01 2.3682273924350739e-01</leafValues></_>
    <_>
      <internalNodes>
        0 -1 22543 -587807211 2119307543 -935016104 2108744466
        -386638855 218708043 2066693066 544491867</internalNodes>
      <leafValues>
        -3.9333525300025940e-01 2.8552901744842529e-01</leafValues></_>
    <_>
      <internalNodes>
        0 -1 122044 -1050247082 -796933068 -1323630469 -211529402
        -134150270 -1692823909 -1334998341 -839265248</internalNodes>
      <leafValues>
        -3.7080779671669006e-01 3.1195390224456787e-01</leafValues></_></weakClassifiers></stage7>
</opencv_storage>
