<?xml version="1.0"?>
<opencv_storage>
<stage5>
  <maxWeakCount>11</maxWeakCount>
  <stageThreshold>-1.7272738218307495e+00</stageThreshold>
  <weakClassifiers>
    <_>
      <internalNodes>
        0 -1 11780 -136315393 -302026261 -4195345 -270536195 -101975813
        -90461505 -67110105 -259</internalNodes>
      <leafValues>
        -7.6536965370178223e-01 -2.1842105686664581e-01</leafValues></_>
    <_>
      <internalNodes>
        0 -1 327440 -1376896257 -1579191905 -208672125 -1370817946
        -913331345 -72646409 -4263582 -329732</internalNodes>
      <leafValues>
        -4.8224687576293945e-01 1.2791779637336731e-01</leafValues></_>
    <_>
      <internalNodes>
        0 -1 227668 -1504573580 -289443479 -187300360 -1641124999
        -1317119915 -1679626693 -1465114947 -1426970960</internalNodes>
      <leafValues>
        -4.4362434744834900e-01 2.1546384692192078e-01</leafValues></_>
    <_>
      <internalNodes>
        0 -1 346940 754048829 -1428161591 -866264410 745403335
        -476385455 -851716549 -67439247 599526901</internalNodes>
      <leafValues>
        -5.7300132513046265e-01 1.7101462185382843e-01</leafValues></_>
    <_>
      <internalNodes>
        0 -1 128 -936380421 -677084708 1644282302 1326076890 1375573742
        -1919266607 365144286 177414144</internalNodes>
      <leafValues>
        -3.3607825636863708e-01 3.1262728571891785e-01</leafValues></_>
    <_>
      <internalNodes>
        0 -1 126228 -1409861317 -339804163 -17809 -268558683 -1241612929
        -9 1828716405 -67108935</internalNodes>
      <leafValues>
        -2.9058399796485901e-01 3.6467975378036499e-01</leafValues></_>
    <_>
      <internalNodes>
        0 -1 43638 2028928994 -46209254 -339588024 -1546586048
        1490960216 18114344 1345610152 1080545718</internalNodes>
      <leafValues>
        -4.8861521482467651e-01 2.2242568433284760e-01</leafValues></_>
    <_>
      <internalNodes>
        0 -1 348085 791956981 -1499819833 -79573921 -30012996 429273665
        -850868089 -71580811 -1359200267</internalNodes>
      <leafValues>
        -4.8996803164482117e-01 2.1134941279888153e-01</leafValues></_>
    <_>
      <internalNodes>
        0 -1 310642 -812716812 -1199640004 -490558050 428635655
        823587575 90320625 1484725960 1098372862</internalNodes>
      <leafValues>
        -3.9819428324699402e-01 2.6476705074310303e-01</leafValues></_>
    <_>
      <internalNodes>
        0 -1 56050 -579010571 1793048953 -153104198 651397447 1653226610
        1410058370 -1882543276 -84509763</internalNodes>
      <leafValues>
        -3.3637201786041260e-01 3.2217293977737427e-01</leafValues></_>
    <_>
      <internalNodes>
        0 -1 9525 -1932538260 1356922563 -1026760582 1388495426
        1929602317 -614924214 -86608187 1885628243</internalNodes>
      <leafValues>
        -5.4848849773406982e-01 1.9952894747257233e-01</leafValues></_></weakClassifiers></stage5>
</opencv_storage>
