<?xml version="1.0"?>
<opencv_storage>
<stage0>
  <maxWeakCount>8</maxWeakCount>
  <stageThreshold>-1.8886528015136719e+00</stageThreshold>
  <weakClassifiers>
    <_>
      <internalNodes>
        0 -1 147279 -705298724 -1320564263 -585565989 -649735076
        -121312114 -2003255116 -657066595 134997431</internalNodes>
      <leafValues>
        -8.6255925893783569e-01 -3.9200761914253235e-01</leafValues></_>
    <_>
      <internalNodes>
        0 -1 8278 -603982114 -237337734 882047732 294708324 -355078996
        589437798 1078286512 1074820306</internalNodes>
      <leafValues>
        -6.9854849576950073e-01 7.6546631753444672e-02</leafValues></_>
    <_>
      <internalNodes>
        0 -1 341017 -1406202097 -1431309765 -778841267 -1393081558
        -1163953025 2008517922 -292578537 -218169513</internalNodes>
      <leafValues>
        -4.0836659073829651e-01 3.4206652641296387e-01</leafValues></_>
    <_>
      <internalNodes>
        0 -1 339 -197595956 -136484396 -801061647 2127672048 -528172804
        -625999743 1908445874 1066096</internalNodes>
      <leafValues>
        -7.6178598403930664e-01 1.8956619501113892e-01</leafValues></_>
    <_>
      <internalNodes>
        0 -1 45393 -1214304389 -77711811 -934098706 -270698100 591355727
        -73809221 1816732469 -1275089419</internalNodes>
      <leafValues>
        -3.8193324208259583e-01 3.7225288152694702e-01</leafValues></_>
    <_>
      <internalNodes>
        0 -1 12889 -20975873 -1156383877 197446696 535679491 -358659122
        -359446460 -620513111 1078321410</internalNodes>
      <leafValues>
        -3.6007997393608093e-01 3.8365399837493896e-01</leafValues></_>
    <_>
      <internalNodes>
        0 -1 52433 -959519142 -565870058 -1756276657 808101610
        -1039610496 -99907431 442916874 1615323666</internalNodes>
      <leafValues>
        -4.9160146713256836e-01 2.9009106755256653e-01</leafValues></_>
    <_>
      <internalNodes>
        0 -1 231244 -1342222483 -288304344 -1073580163 -606903981
        1271462120 -393527159 730085953 -419533980</internalNodes>
      <leafValues>
        -4.0725564956665039e-01 3.4881025552749634e-01</leafValues></_></weakClassifiers></stage0>
</opencv_storage>
