<?xml version="1.0"?>
<opencv_storage>
<stage8>
  <maxWeakCount>12</maxWeakCount>
  <stageThreshold>-1.5620397329330444e+00</stageThreshold>
  <weakClassifiers>
    <_>
      <internalNodes>
        0 -1 345148 -4204545 -276826681 -226235921 -287573049 -358618117
        -115637469 -265361 -5</internalNodes>
      <leafValues>
        -7.5212866067886353e-01 -2.0325203239917755e-01</leafValues></_>
    <_>
      <internalNodes>
        0 -1 330400 -33572114 617971829 1376310538 -367013404 2010101089
        1547596838 254997590 -113529653</internalNodes>
      <leafValues>
        -4.1476595401763916e-01 1.5519471466541290e-01</leafValues></_>
    <_>
      <internalNodes>
        0 -1 347209 382235933 -1495736119 -2142518826 -228406371
        -677527587 -1163945221 -1412728624 -1160244939</internalNodes>
      <leafValues>
        -4.3046668171882629e-01 2.0863932371139526e-01</leafValues></_>
    <_>
      <internalNodes>
        0 -1 231256 -1383116811 -1371614378 -725539508 -1367954466
        2029967861 -23220085 -358760587 2130196468</internalNodes>
      <leafValues>
        -4.6264120936393738e-01 1.8212875723838806e-01</leafValues></_>
    <_>
      <internalNodes>
        0 -1 26402 -456680436 -2104826777 -2011982328 1787835670
        1595501637 61795326 1079731200 1074194275</internalNodes>
      <leafValues>
        -7.1346974372863770e-01 1.5920776128768921e-01</leafValues></_>
    <_>
      <internalNodes>
        0 -1 298298 -1975613200 548979277 -724559907 793260112
        -2035498783 -2116157317 -1836802312 32976568</internalNodes>
      <leafValues>
        -4.9403756856918335e-01 1.7861814796924591e-01</leafValues></_>
    <_>
      <internalNodes>
        0 -1 287124 -1361443808 869327821 -665795589 2011043798
        1468248476 -625270757 -99016980 -255194636</internalNodes>
      <leafValues>
        -3.8235309720039368e-01 2.3775814473628998e-01</leafValues></_>
    <_>
      <internalNodes>
        0 -1 231269 234640733 -1899531395 -347866418 -453671482 -8162537
        -476382967 2123533687 648942261</internalNodes>
      <leafValues>
        -5.5065572261810303e-01 1.6833189129829407e-01</leafValues></_>
    <_>
      <internalNodes>
        0 -1 290926 -246967759 317182569 -996963782 944502303 1196376457
        -1369741106 -100413190 -1732772083</internalNodes>
      <leafValues>
        -3.0311393737792969e-01 3.2930484414100647e-01</leafValues></_>
    <_>
      <internalNodes>
        0 -1 273193 -756305014 -693141596 -17465670 -761008390
        -1900890582 1163837439 -1478762606 -608991334</internalNodes>
      <leafValues>
        -2.3678117990493774e-01 4.3769067525863647e-01</leafValues></_>
    <_>
      <internalNodes>
        0 -1 40871 1614866102 1047263959 1395394453 -236559072
        -1273081660 -1317565005 -541048084 -2039195097</internalNodes>
      <leafValues>
        -3.8520166277885437e-01 2.7021187543869019e-01</leafValues></_>
    <_>
      <internalNodes>
        0 -1 98289 -1706137214 1995819890 1075912005 1877346753
        867877356 2078767173 -2000084633 249980932</internalNodes>
      <leafValues>
        -5.1434487104415894e-01 1.9464959204196930e-01</leafValues></_></weakClassifiers></stage8>
</opencv_storage>
