<?xml version="1.0"?>
<opencv_storage>
<stage12>
  <maxWeakCount>13</maxWeakCount>
  <stageThreshold>-1.8075379133224487e+00</stageThreshold>
  <weakClassifiers>
    <_>
      <internalNodes>
        0 -1 339244 -136314897 -33567809 -79046525 -428354601 -70393361
        -1347966564 -20456086 -68157441</internalNodes>
      <leafValues>
        -7.5089102983474731e-01 -1.7047451436519623e-01</leafValues></_>
    <_>
      <internalNodes>
        0 -1 342790 -134479881 -1382155816 -790898266 -288898129
        -76822281 -545013489 -35131578 -529</internalNodes>
      <leafValues>
        -3.3798825740814209e-01 3.1801816821098328e-01</leafValues></_>
    <_>
      <internalNodes>
        0 -1 4061 -654603285 -1653158082 -1140982029 -1820736573
        -966406193 -743993353 -1778956365 -344206361</internalNodes>
      <leafValues>
        -1.9476206600666046e-01 4.2998614907264709e-01</leafValues></_>
    <_>
      <internalNodes>
        0 -1 84695 -864858560 -1653712330 -1365527366 -2076657004
        1260944746 1309303193 -1064717948 -859506410</internalNodes>
      <leafValues>
        -4.0148004889488220e-01 2.1209138631820679e-01</leafValues></_>
    <_>
      <internalNodes>
        0 -1 66274 -1192219043 -62470221 -1789397794 -224628275
        -1095934689 1904361623 -390428196 -1468500236</internalNodes>
      <leafValues>
        -3.8191959261894226e-01 2.2438052296638489e-01</leafValues></_>
    <_>
      <internalNodes>
        0 -1 21972 -19141265 -1337919261 1468149436 1640129446 541566516
        1634666273 1950181304 1345748586</internalNodes>
      <leafValues>
        -3.7964141368865967e-01 2.4183276295661926e-01</leafValues></_>
    <_>
      <internalNodes>
        0 -1 347118 626814213 -146642852 -250022945 -254125667
        -1414657059 -578072433 -305169756 783821429</internalNodes>
      <leafValues>
        -5.0690251588821411e-01 1.9191727042198181e-01</leafValues></_>
    <_>
      <internalNodes>
        0 -1 73078 -764440997 -588832600 779648688 -1677985109
        -562569361 -59607052 223122621 -179319204</internalNodes>
      <leafValues>
        -2.3905868828296661e-01 4.0927234292030334e-01</leafValues></_>
    <_>
      <internalNodes>
        0 -1 218692 -762671478 -1008157678 1610415867 2147302712 -459830
        -675783211 -1325996038 -1812779550</internalNodes>
      <leafValues>
        -2.3878982663154602e-01 3.8695999979972839e-01</leafValues></_>
    <_>
      <internalNodes>
        0 -1 10377 -295787912 960504445 -1105854522 -833165078
        -1445066964 477410416 -427536612 1632984166</internalNodes>
      <leafValues>
        -4.9477219581604004e-01 1.9014430046081543e-01</leafValues></_>
    <_>
      <internalNodes>
        0 -1 224165 -1403822299 1879009825 -1608576683 1738494081
        602520555 1348485991 973272908 -268479680</internalNodes>
      <leafValues>
        -3.4902864694595337e-01 2.8708416223526001e-01</leafValues></_>
    <_>
      <internalNodes>
        0 -1 278965 -1500131448 -1672814521 -401812781 1505730880
        -1551274500 -1464627191 767806113 -1324324912</internalNodes>
      <leafValues>
        -3.8702064752578735e-01 2.5285527110099792e-01</leafValues></_>
    <_>
      <internalNodes>
        0 -1 298525 789935991 -308340881 -535826162 -2037934374
        -75452581 -279205702 764374356 1807514544</internalNodes>
      <leafValues>
        -4.6321070194244385e-01 2.0635659992694855e-01</leafValues></_></weakClassifiers></stage12>
</opencv_storage>
