<?xml version="1.0"?>
<opencv_storage>
<stage10>
  <maxWeakCount>12</maxWeakCount>
  <stageThreshold>-1.4143316745758057e+00</stageThreshold>
  <weakClassifiers>
    <_>
      <internalNodes>
        0 -1 310923 -71303217 -3877 1903321423 -1013224129 -117708309
        -614252293 -135550453 -69468193</internalNodes>
      <leafValues>
        -7.4678832292556763e-01 -1.6824196279048920e-01</leafValues></_>
    <_>
      <internalNodes>
        0 -1 332640 -202399526 -777510670 -1278032997 -69320481
        -1173358711 -259059416 -965037318 -81014534</internalNodes>
      <leafValues>
        -3.3509323000907898e-01 3.1853771209716797e-01</leafValues></_>
    <_>
      <internalNodes>
        0 -1 210014 241056565 -338243249 -1689611802 -1479910632
        1670346837 696847143 -1279430620 1945270480</internalNodes>
      <leafValues>
        -5.8242768049240112e-01 1.3690571486949921e-01</leafValues></_>
    <_>
      <internalNodes>
        0 -1 231136 -1195816331 -661270123 -246959114 -1099952036
        -1080146444 -1421533038 -1163132931 -1080388691</internalNodes>
      <leafValues>
        -3.0391076207160950e-01 2.8590729832649231e-01</leafValues></_>
    <_>
      <internalNodes>
        0 -1 1180 -145731575 1434235847 -753194754 -219350276 -140468123
        -574436491 -1289194571 12289</internalNodes>
      <leafValues>
        -4.3212905526161194e-01 2.1824769675731659e-01</leafValues></_>
    <_>
      <internalNodes>
        0 -1 317998 -1115947593 -143704209 -268763221 -453345377 -692289
        2147450879 -989864851 -138756609</internalNodes>
      <leafValues>
        -2.2528100013732910e-01 3.8459336757659912e-01</leafValues></_>
    <_>
      <internalNodes>
        0 -1 216364 -124870070 -45142908 644675230 -688980108
        -1092713316 1258561370 501081260 -130029638</internalNodes>
      <leafValues>
        -2.5168839097023010e-01 3.6744186282157898e-01</leafValues></_>
    <_>
      <internalNodes>
        0 -1 170147 -1879803652 -154925611 -250390530 -1500360687
        718105078 -1431430781 -1729594671 -1270987487</internalNodes>
      <leafValues>
        -4.7031697630882263e-01 2.0705895125865936e-01</leafValues></_>
    <_>
      <internalNodes>
        0 -1 22991 503078476 -285904713 -350357533 -394636352 1659876630
        -360078847 -1010242697 921796401</internalNodes>
      <leafValues>
        -5.8392697572708130e-01 1.5690641105175018e-01</leafValues></_>
    <_>
      <internalNodes>
        0 -1 318346 1364415863 -1165330474 -1832395299 453868312
        453629907 -3159997 1169963165 135287967</internalNodes>
      <leafValues>
        -3.7904790043830872e-01 2.4129389226436615e-01</leafValues></_>
    <_>
      <internalNodes>
        0 -1 12081 -1961952458 -605635198 475617514 -353445822
        1798140247 1911786289 -358753948 1689745879</internalNodes>
      <leafValues>
        -5.3389292955398560e-01 1.7122112214565277e-01</leafValues></_>
    <_>
      <internalNodes>
        0 -1 75830 -195338426 547215464 -1870545827 1900064668
        -756032105 1705203890 1438431916 2039792186</internalNodes>
      <leafValues>
        -3.6910247802734375e-01 2.5585803389549255e-01</leafValues></_></weakClassifiers></stage10>
</opencv_storage>
