<?xml version="1.0"?>
<opencv_storage>
<stage11>
  <maxWeakCount>12</maxWeakCount>
  <stageThreshold>-1.5689457654953003e+00</stageThreshold>
  <weakClassifiers>
    <_>
      <internalNodes>
        0 -1 77254 -2097409 -2686525 -825767033 -336620549 -7406849
        -78657383 -170333833 -1029</internalNodes>
      <leafValues>
        -7.5279623270034790e-01 -2.0640000700950623e-01</leafValues></_>
    <_>
      <internalNodes>
        0 -1 346997 1070952317 -1345592419 -78450965 801618878 -1181321
        -90505041 -1651122060 1055686013</internalNodes>
      <leafValues>
        -6.0427629947662354e-01 -9.1404588893055916e-03</leafValues></_>
    <_>
      <internalNodes>
        0 -1 80384 -748450430 -38862913 -1363202079 1396775920
        1543161734 89980799 -176162416 -608719122</internalNodes>
      <leafValues>
        -2.3003242909908295e-01 3.6363878846168518e-01</leafValues></_>
    <_>
      <internalNodes>
        0 -1 42639 1604241236 -648041903 -296847312 -2080119290
        1894677632 -1472624331 1077924880 1387112332</internalNodes>
      <leafValues>
        -4.4488754868507385e-01 1.8489764630794525e-01</leafValues></_>
    <_>
      <internalNodes>
        0 -1 277387 741084432 294568933 -1218504226 1046274306
        1291602157 -378821349 -1686490671 -2001175280</internalNodes>
      <leafValues>
        -5.1753944158554077e-01 1.8453119695186615e-01</leafValues></_>
    <_>
      <internalNodes>
        0 -1 348098 -337879063 -1382886421 -280116538 -1407831587
        -30525079 2082046603 -101717141 1068825053</internalNodes>
      <leafValues>
        -4.3018224835395813e-01 1.9078758358955383e-01</leafValues></_>
    <_>
      <internalNodes>
        0 -1 113776 212830452 443790259 -296724684 -1609385212 181304828
        959904153 741856872 2017949518</internalNodes>
      <leafValues>
        -4.1751325130462646e-01 2.1324975788593292e-01</leafValues></_>
    <_>
      <internalNodes>
        0 -1 166471 2064311464 638728533 1549724957 -1764945187
        1816920472 -1407080327 -198753062 7565843</internalNodes>
      <leafValues>
        -4.4999206066131592e-01 1.9597414135932922e-01</leafValues></_>
    <_>
      <internalNodes>
        0 -1 148450 -8390482 -722146372 1951186544 1597628093
        -1351815690 -1166786712 -419961094 -46160198</internalNodes>
      <leafValues>
        -2.0180116593837738e-01 4.6440339088439941e-01</leafValues></_>
    <_>
      <internalNodes>
        0 -1 330340 -1896734856 -1488039141 -359664334 985314049
        -743918852 -518299134 -1367178818 -1413945059</internalNodes>
      <leafValues>
        -3.7695810198783875e-01 2.4738742411136627e-01</leafValues></_>
    <_>
      <internalNodes>
        0 -1 153370 -135449537 802060858 8815246 -339496804 -253897025
        2131722241 323547428 2137896540</internalNodes>
      <leafValues>
        -3.7452769279479980e-01 2.4988007545471191e-01</leafValues></_>
    <_>
      <internalNodes>
        0 -1 34819 -877616680 712541702 92488890 -1753663048 508072885
        -303372250 -1196783011 744761104</internalNodes>
      <leafValues>
        -5.9379631280899048e-01 1.6123563051223755e-01</leafValues></_></weakClassifiers></stage11>
</opencv_storage>
