<?xml version="1.0"?>
<opencv_storage>
<stage6>
  <maxWeakCount>11</maxWeakCount>
  <stageThreshold>-1.8333554267883301e+00</stageThreshold>
  <weakClassifiers>
    <_>
      <internalNodes>
        0 -1 45411 -4196353 -525315 -172490769 -269489175 -72090673
        -73678167 -3408105 -1025</internalNodes>
      <leafValues>
        -7.4930977821350098e-01 -6.2098499387502670e-02</leafValues></_>
    <_>
      <internalNodes>
        0 -1 347015 503115613 -1893878979 -778839617 -339872813
        -171287971 -726664945 786167159 786201981</internalNodes>
      <leafValues>
        -6.3180059194564819e-01 6.7723621614277363e-03</leafValues></_>
    <_>
      <internalNodes>
        0 -1 126814 -88719631 -1087890170 477390512 2112519667
        -1898027876 -1156589928 1785692620 552363520</internalNodes>
      <leafValues>
        -4.9710959196090698e-01 1.7648045718669891e-01</leafValues></_>
    <_>
      <internalNodes>
        0 -1 155364 -739184688 -237867556 -616378148 -1811630668
        281827536 -1934085976 1490874612 4945712</internalNodes>
      <leafValues>
        -6.0002028942108154e-01 1.8242350220680237e-01</leafValues></_>
    <_>
      <internalNodes>
        0 -1 4862 -532233470 445786740 1095375373 97468449 791015308
        1852158128 1074924680 579007751</internalNodes>
      <leafValues>
        -4.9418410658836365e-01 1.9157882034778595e-01</leafValues></_>
    <_>
      <internalNodes>
        0 -1 317999 680493045 642716109 2047581166 -365263653 -423237894
        -1868314565 -1947561159 -1094779921</internalNodes>
      <leafValues>
        -3.5813635587692261e-01 2.9369735717773438e-01</leafValues></_>
    <_>
      <internalNodes>
        0 -1 170482 -1364169371 785138647 -108791323 -287434596
        -1316237497 1262928551 -4277483 1048473596</internalNodes>
      <leafValues>
        -4.9879989027976990e-01 1.9243577122688293e-01</leafValues></_>
    <_>
      <internalNodes>
        0 -1 7171 -998530830 -52031581 1806692315 2066546230 -326779395
        -325584972 -1767592479 -716967693</internalNodes>
      <leafValues>
        -2.8938317298889160e-01 3.6196783185005188e-01</leafValues></_>
    <_>
      <internalNodes>
        0 -1 66202 -1779413455 -1763773910 -653755422 -562146252
        -1430781151 -500440460 948465655 -1195743375</internalNodes>
      <leafValues>
        -4.0988466143608093e-01 2.6364022493362427e-01</leafValues></_>
    <_>
      <internalNodes>
        0 -1 296559 2059921360 355745920 -561097505 -1982360129
        182630732 -1669099342 -1999015730 1074122979</internalNodes>
      <leafValues>
        -3.9791736006736755e-01 2.5856894254684448e-01</leafValues></_>
    <_>
      <internalNodes>
        0 -1 142069 -831050028 -146226474 -206319975 635060978
        -764564894 -1940762110 32874922 422954315</internalNodes>
      <leafValues>
        -3.9632835984230042e-01 2.6819813251495361e-01</leafValues></_></weakClassifiers></stage6>
</opencv_storage>
