<?xml version="1.0"?>
<opencv_storage>
<stage4>
  <maxWeakCount>9</maxWeakCount>
  <stageThreshold>-1.5120599269866943e+00</stageThreshold>
  <weakClassifiers>
    <_>
      <internalNodes>
        0 -1 318004 -1513365505 -285238325 -271198553 -419431429
        -70254737 -21270354 -1814036865 -5377</internalNodes>
      <leafValues>
        -7.8111672401428223e-01 -2.5948718190193176e-01</leafValues></_>
    <_>
      <internalNodes>
        0 -1 327513 -285217313 -1898783937 2096608642 -1298113583
        1898829805 232637126 1517049156 -526329519</internalNodes>
      <leafValues>
        -5.1448160409927368e-01 1.0537610203027725e-01</leafValues></_>
    <_>
      <internalNodes>
        0 -1 208632 -51915082 556266176 -1257046276 1130294378
        1439638760 -1048153143 -1033087524 1361564382</internalNodes>
      <leafValues>
        -4.2210993170738220e-01 2.3542204499244690e-01</leafValues></_>
    <_>
      <internalNodes>
        0 -1 262541 753555811 1708322655 -18875322 -1560695889
        1323279735 -1366660869 -384156 -1808597450</internalNodes>
      <leafValues>
        -4.6862056851387024e-01 2.3003645241260529e-01</leafValues></_>
    <_>
      <internalNodes>
        0 -1 343966 -1207795731 -1343825953 -850738354 -285836305
        734986078 1059833859 -922774977 -1079050905</internalNodes>
      <leafValues>
        -3.1969466805458069e-01 3.2668316364288330e-01</leafValues></_>
    <_>
      <internalNodes>
        0 -1 11715 -138533 -403243137 2079680423 -101974042 804681538
        -814794881 2088517423 -48244922</internalNodes>
      <leafValues>
        -2.7270969748497009e-01 3.9721417427062988e-01</leafValues></_>
    <_>
      <internalNodes>
        0 -1 167383 1222112148 -665784102 -1014847094 1808244690
        -826457873 -1091917593 1040770186 -1051226026</internalNodes>
      <leafValues>
        -3.3874833583831787e-01 3.2553732395172119e-01</leafValues></_>
    <_>
      <internalNodes>
        0 -1 220051 -195890608 -261016465 298587547 470822774 406908094
        -2002186173 -1912915206 1257206130</internalNodes>
      <leafValues>
        -3.9953625202178955e-01 2.9992282390594482e-01</leafValues></_>
    <_>
      <internalNodes>
        0 -1 210060 -805855506 -453393964 -1331999678 -2000136506
        -353683600 305303817 -279235520 -1847266663</internalNodes>
      <leafValues>
        -4.5834699273109436e-01 2.3703515529632568e-01</leafValues></_></weakClassifiers></stage4>
</opencv_storage>
