<?xml version="1.0"?>
<opencv_storage>
<stage7>
  <maxWeakCount>12</maxWeakCount>
  <stageThreshold>-1.5469672679901123e+00</stageThreshold>
  <weakClassifiers>
    <_>
      <internalNodes>
        0 -1 135668 -2138625 -271066183 -726806265 -405043281 -341861377
        -19946869 -544277689 -263233</internalNodes>
      <leafValues>
        -7.6862508058547974e-01 -3.0939808487892151e-01</leafValues></_>
    <_>
      <internalNodes>
        0 -1 11760 901340461 -504374275 -779030078 -337678979
        -1148027373 1393417643 -641090719 916208624</internalNodes>
      <leafValues>
        -6.6518801450729370e-01 -2.2857362404465675e-02</leafValues></_>
    <_>
      <internalNodes>
        0 -1 275542 -1401009803 882531605 -1742105350 -266579568
        -2062980511 -807703651 -356091804 -1146464976</internalNodes>
      <leafValues>
        -4.1193503141403198e-01 1.9729779660701752e-01</leafValues></_>
    <_>
      <internalNodes>
        0 -1 268571 -1159728950 681819535 -879993624 -899486774
        -678765760 1951856834 -351300236 -1800544305</internalNodes>
      <leafValues>
        -4.1366949677467346e-01 2.4775530397891998e-01</leafValues></_>
    <_>
      <internalNodes>
        0 -1 303706 -582225908 -192466804 -262867768 -3672063 -99880614
        -513780951 276233664 -267471624</internalNodes>
      <leafValues>
        -3.0466473102569580e-01 3.0765211582183838e-01</leafValues></_>
    <_>
      <internalNodes>
        0 -1 256640 854724437 -1364344581 -803245745 -422053544
        -354960553 966609016 -118899586 330446708</internalNodes>
      <leafValues>
        -5.2553480863571167e-01 1.8114754557609558e-01</leafValues></_>
    <_>
      <internalNodes>
        0 -1 95857 2127035314 1933764204 -1248493239 -718094442
        -633088356 950159445 -1268771912 -1178151254</internalNodes>
      <leafValues>
        -3.1753849983215332e-01 3.1867060065269470e-01</leafValues></_>
    <_>
      <internalNodes>
        0 -1 147018 1347535688 2026150617 752472765 1601703267
        -1720753258 -572259545 -1695817301 145517621</internalNodes>
      <leafValues>
        -4.4250658154487610e-01 2.2825750708580017e-01</leafValues></_>
    <_>
      <internalNodes>
        0 -1 250107 -657460092 -1784003262 -36573512 491266696
        1912411863 931719207 1423069452 1126948029</internalNodes>
      <leafValues>
        -4.1841143369674683e-01 2.3695611953735352e-01</leafValues></_>
    <_>
      <internalNodes>
        0 -1 7185 -690524993 -143724956 -1418789065 335341334
        -1116875293 -357466507 -400431122 -46010553</internalNodes>
      <leafValues>
        -2.5166484713554382e-01 4.2457711696624756e-01</leafValues></_>
    <_>
      <internalNodes>
        0 -1 348099 691109183 -53225445 -1054652473 -293625189
        2072570687 -1163296069 -336137345 2008873727</internalNodes>
      <leafValues>
        -4.0853196382522583e-01 2.5299918651580811e-01</leafValues></_>
    <_>
      <internalNodes>
        0 -1 296553 -196786032 355688460 489338129 349684119 606074052
        2029013913 -116573248 -2141325890</internalNodes>
      <leafValues>
        -3.9758792519569397e-01 2.6609000563621521e-01</leafValues></_></weakClassifiers></stage7>
</opencv_storage>
