<?xml version="1.0"?>
<opencv_storage>
<stage7>
  <maxWeakCount>9</maxWeakCount>
  <stageThreshold>-1.5390182733535767e+00</stageThreshold>
  <weakClassifiers>
    <_>
      <internalNodes>
        0 -1 56014 -271361 -472416303 -127409277 -278931233 -1785736277
        -14966725 -880100526 -67376131</internalNodes>
      <leafValues>
        -6.3819402456283569e-01 -1.2861736118793488e-02</leafValues></_>
    <_>
      <internalNodes>
        0 -1 20560 -967839892 2071393052 1417083932 -140451618
        2051686442 2114979441 -799707014 1090699810</internalNodes>
      <leafValues>
        -5.5730885267257690e-01 1.1880703270435333e-01</leafValues></_>
    <_>
      <internalNodes>
        0 -1 228904 784075604 -1074130667 -643870254 495473413
        -2021332266 -1886236130 -1439012099 -1560646364</internalNodes>
      <leafValues>
        -4.5593497157096863e-01 2.0903365314006805e-01</leafValues></_>
    <_>
      <internalNodes>
        0 -1 337473 187246755 -1461831405 -183170454 -2103834290
        -888473474 1127917783 681163548 378985181</internalNodes>
      <leafValues>
        -5.6288945674896240e-01 2.1210174262523651e-01</leafValues></_>
    <_>
      <internalNodes>
        0 -1 247745 -77075548 1040237316 1098928489 -1926129468
        -2070865172 -1126453144 -975445908 1078061797</internalNodes>
      <leafValues>
        -4.6386843919754028e-01 2.1655520796775818e-01</leafValues></_>
    <_>
      <internalNodes>
        0 -1 347459 1020817237 -1609301603 -268183139 -761924649
        1909602997 -912031488 -1408274106 -1107541199</internalNodes>
      <leafValues>
        -4.4677114486694336e-01 2.3833996057510376e-01</leafValues></_>
    <_>
      <internalNodes>
        0 -1 3772 -991256361 1256882638 1698977216 219210070 1137525487
        1026207996 -42266431 1262447127</internalNodes>
      <leafValues>
        -3.8549333810806274e-01 2.7909287810325623e-01</leafValues></_>
    <_>
      <internalNodes>
        0 -1 11560 1065377121 -561473655 -1709651050 -1224910439
        847647801 -1291075551 -1158967132 -1213795460</internalNodes>
      <leafValues>
        -4.0801861882209778e-01 2.8176480531692505e-01</leafValues></_>
    <_>
      <internalNodes>
        0 -1 11860 1908132562 -422239963 1409290400 -2072115937
        -637480874 -1139754775 -642720996 1996483503</internalNodes>
      <leafValues>
        -4.3718123435974121e-01 2.5815153121948242e-01</leafValues></_></weakClassifiers></stage7>
</opencv_storage>
