<?xml version="1.0"?>
<opencv_storage>
<stage11>
  <maxWeakCount>11</maxWeakCount>
  <stageThreshold>-1.3516353368759155e+00</stageThreshold>
  <weakClassifiers>
    <_>
      <internalNodes>
        0 -1 309985 -570707310 -614965094 -1580665352 -741387362
        -878451991 -829210566 -348414533 -67382277</internalNodes>
      <leafValues>
        -6.2671434879302979e-01 3.6630036775022745e-03</leafValues></_>
    <_>
      <internalNodes>
        0 -1 346997 854871921 -1554329251 -648742205 -1497910577
        -1278391474 -221540215 -89986811 352123833</internalNodes>
      <leafValues>
        -6.1143386363983154e-01 8.3148017525672913e-02</leafValues></_>
    <_>
      <internalNodes>
        0 -1 347507 152922957 -1897933863 1346490699 -353030841
        -2146655457 -1130045425 986512207 -289645721</internalNodes>
      <leafValues>
        -4.0159457921981812e-01 2.2122544050216675e-01</leafValues></_>
    <_>
      <internalNodes>
        0 -1 6433 -890117665 -1737302510 1860943597 1407412218
        1114793705 -1105723521 1643609495 -43519913</internalNodes>
      <leafValues>
        -2.2830516099929810e-01 4.1028308868408203e-01</leafValues></_>
    <_>
      <internalNodes>
        0 -1 306401 -218124500 -1257337272 -1099382814 -227872786
        -436734002 1414871020 -724271875 -195065878</internalNodes>
      <leafValues>
        -2.6201787590980530e-01 3.7899160385131836e-01</leafValues></_>
    <_>
      <internalNodes>
        0 -1 202868 -230858366 -776920940 134365343 765413953 1354697056
        2088042888 -1670445329 543952162</internalNodes>
      <leafValues>
        -4.9172756075859070e-01 2.3322629928588867e-01</leafValues></_>
    <_>
      <internalNodes>
        0 -1 30281 -739250946 158740478 1878929015 -169546190 2146807774
        -75628569 -219888406 -672926013</internalNodes>
      <leafValues>
        -2.5719287991523743e-01 4.2879161238670349e-01</leafValues></_>
    <_>
      <internalNodes>
        0 -1 221344 1480244240 -1612950514 -1225583339 1334422594
        1089425552 454969503 1080858704 75528998</internalNodes>
      <leafValues>
        -5.4168891906738281e-01 2.0019811391830444e-01</leafValues></_>
    <_>
      <internalNodes>
        0 -1 11762 -1647309829 -1444359364 -687618354 -1051269872
        -1165333217 -1983708999 822169093 2099052849</internalNodes>
      <leafValues>
        -5.1225441694259644e-01 1.9340153038501740e-01</leafValues></_>
    <_>
      <internalNodes>
        0 -1 310795 -2069895465 821826191 -1711275431 1905235465
        -1555125734 -1971910119 -1731343208 545175622</internalNodes>
      <leafValues>
        -3.5558608174324036e-01 2.9348674416542053e-01</leafValues></_>
    <_>
      <internalNodes>
        0 -1 75107 -673208264 466020259 -1070622376 256253518 413467690
        125698334 1611621722 10569182</internalNodes>
      <leafValues>
        -4.9290561676025391e-01 2.2921916842460632e-01</leafValues></_></weakClassifiers></stage11>
</opencv_storage>
