<?xml version="1.0"?>
<opencv_storage>
<stage9>
  <maxWeakCount>11</maxWeakCount>
  <stageThreshold>-1.4143824577331543e+00</stageThreshold>
  <weakClassifiers>
    <_>
      <internalNodes>
        0 -1 97333 -101222539 -339122690 -83771186 -335601589 -223783625
        -125239125 -1148207593 -201344111</internalNodes>
      <leafValues>
        -6.9570177793502808e-01 -2.1321794390678406e-01</leafValues></_>
    <_>
      <internalNodes>
        0 -1 223360 -625752438 -210082134 -1493541211 -17252990
        -424507712 -1871440012 -1636437270 -743732242</internalNodes>
      <leafValues>
        -2.9884135723114014e-01 3.4212151169776917e-01</leafValues></_>
    <_>
      <internalNodes>
        0 -1 347134 846757829 174514232 -2120888067 513725143 -87794834
        -743991160 -1947435011 -1460110991</internalNodes>
      <leafValues>
        -4.3130359053611755e-01 2.1101133525371552e-01</leafValues></_>
    <_>
      <internalNodes>
        0 -1 259400 -1365484256 637276939 1908583118 378576273
        -930602447 -209715065 104472737 -1498148491</internalNodes>
      <leafValues>
        -5.5215048789978027e-01 1.6143815219402313e-01</leafValues></_>
    <_>
      <internalNodes>
        0 -1 119449 2038910032 668855758 815224991 522860438 -1613817042
        1022659389 310722991 1285916423</internalNodes>
      <leafValues>
        -3.7779787182807922e-01 2.6623398065567017e-01</leafValues></_>
    <_>
      <internalNodes>
        0 -1 66670 -67637650 -50644946 -272646514 -356569873 -16831
        2013163509 1417008910 -249567842</internalNodes>
      <leafValues>
        -2.5221511721611023e-01 4.1153764724731445e-01</leafValues></_>
    <_>
      <internalNodes>
        0 -1 57213 1662893715 -15754702 -2105431794 -226335824
        -1462391867 -1717970918 -1063957546 1245462721</internalNodes>
      <leafValues>
        -3.8706141710281372e-01 2.8035381436347961e-01</leafValues></_>
    <_>
      <internalNodes>
        0 -1 25726 -1026567230 227254742 -1811401507 1032457016
        2030400507 -891174154 -104346644 1592517975</internalNodes>
      <leafValues>
        -3.3359637856483459e-01 3.2356661558151245e-01</leafValues></_>
    <_>
      <internalNodes>
        0 -1 216280 -18907038 -172754570 -1074292885 -617751890
        1744803754 1845378492 783282126 -345001254</internalNodes>
      <leafValues>
        -2.1841058135032654e-01 5.1343291997909546e-01</leafValues></_>
    <_>
      <internalNodes>
        0 -1 152244 -1368419009 673894961 1493362756 -1050367706
        151308520 442877480 -1250565992 19869876</internalNodes>
      <leafValues>
        -4.6367767453193665e-01 2.5320231914520264e-01</leafValues></_>
    <_>
      <internalNodes>
        0 -1 11395 -1005137084 -556723430 -993518254 1235498770
        923168005 -585826303 1437161510 1618175072</internalNodes>
      <leafValues>
        -5.5346059799194336e-01 1.9625897705554962e-01</leafValues></_></weakClassifiers></stage9>
</opencv_storage>
