<?xml version="1.0"?>
<opencv_storage>
<stage12>
  <maxWeakCount>12</maxWeakCount>
  <stageThreshold>-1.4438625574111938e+00</stageThreshold>
  <weakClassifiers>
    <_>
      <internalNodes>
        0 -1 146770 -149973285 -8454033 -501436015 -178281993 -123209265
        -518454784 948353181 -2116934</internalNodes>
      <leafValues>
        -6.1879742145538330e-01 4.2194094508886337e-02</leafValues></_>
    <_>
      <internalNodes>
        0 -1 330385 -1399005361 -287563188 1393119 1725352261 46917181
        -1448375267 262847343 -270805697</internalNodes>
      <leafValues>
        -3.3990064263343811e-01 2.5667372345924377e-01</leafValues></_>
    <_>
      <internalNodes>
        0 -1 170483 765340783 1706196430 -577687162 1318885627
        2005343069 -24827197 -1694926491 883194484</internalNodes>
      <leafValues>
        -6.1424803733825684e-01 1.4682130515575409e-01</leafValues></_>
    <_>
      <internalNodes>
        0 -1 268450 -608466550 1815790528 -1824233470 149172864
        1619243520 841754635 -716977390 1140000762</internalNodes>
      <leafValues>
        -3.6771610379219055e-01 2.7635762095451355e-01</leafValues></_>
    <_>
      <internalNodes>
        0 -1 276964 75895165 -1163335348 -1862219560 -1654994602
        -1966072436 -1412259687 -1367176469 -1423812527</internalNodes>
      <leafValues>
        -4.2077651619911194e-01 2.1270097792148590e-01</leafValues></_>
    <_>
      <internalNodes>
        0 -1 345810 -55724978 -17963350 -1090572336 -756023638
        -1615465892 773750644 -998846225 -923800210</internalNodes>
      <leafValues>
        -2.3264643549919128e-01 4.1106975078582764e-01</leafValues></_>
    <_>
      <internalNodes>
        0 -1 330400 -604002580 1718438958 1928314794 670786891
        -1247355188 -717783352 1702685696 -115612514</internalNodes>
      <leafValues>
        -2.4413137137889862e-01 3.8754323124885559e-01</leafValues></_>
    <_>
      <internalNodes>
        0 -1 348099 2043944819 -138210607 1397312544 -295726307
        -225521381 -2100788733 -410342545 2145413599</internalNodes>
      <leafValues>
        -4.0014383196830750e-01 2.5572267174720764e-01</leafValues></_>
    <_>
      <internalNodes>
        0 -1 27442 -1261699954 -554532814 76745119 1306509780 1944951574
        2109384841 -258931642 -923275164</internalNodes>
      <leafValues>
        -3.3823043107986450e-01 3.1173208355903625e-01</leafValues></_>
    <_>
      <internalNodes>
        0 -1 267668 -163582186 1897583826 -591361133 1230139612
        -209789221 1754351755 -1579478983 1898375455</internalNodes>
      <leafValues>
        -3.4623897075653076e-01 3.0438074469566345e-01</leafValues></_>
    <_>
      <internalNodes>
        0 -1 283750 -1634538240 -724549390 -1869818411 -1293662591
        198224617 -1433534448 -492811914 -893772428</internalNodes>
      <leafValues>
        -3.8090661168098450e-01 2.8896808624267578e-01</leafValues></_>
    <_>
      <internalNodes>
        0 -1 347470 932214565 -1509633376 -1068314493 -1717682047
        1267262185 327155883 -1970555962 -1493408916</internalNodes>
      <leafValues>
        -4.5108458399772644e-01 2.4503004550933838e-01</leafValues></_></weakClassifiers></stage12>
</opencv_storage>
