<?xml version="1.0"?>
<opencv_storage>
<stage10>
  <maxWeakCount>12</maxWeakCount>
  <stageThreshold>-1.1722928285598755e+00</stageThreshold>
  <weakClassifiers>
    <_>
      <internalNodes>
        0 -1 331872 -220745477 -208293130 1636506109 -139486505
        -1416648001 -1375469134 -1156662358 -72363269</internalNodes>
      <leafValues>
        -6.0934424400329590e-01 1.8731988966464996e-01</leafValues></_>
    <_>
      <internalNodes>
        0 -1 346920 940898277 -1407393071 -1014394453 -1361775745
        -143132463 1337968728 -1095114217 1055488893</internalNodes>
      <leafValues>
        -5.5508673191070557e-01 1.0938436537981033e-01</leafValues></_>
    <_>
      <internalNodes>
        0 -1 337452 581976673 -1429057049 -615915198 -122514484
        -1314272819 -1987212367 299764641 -1533883936</internalNodes>
      <leafValues>
        -4.4583019614219666e-01 2.0298162102699280e-01</leafValues></_>
    <_>
      <internalNodes>
        0 -1 106411 -352580024 -894750406 -757262378 -805273251
        -1453128697 730402819 -342120304 -118330970</internalNodes>
      <leafValues>
        -3.2849881052970886e-01 3.1105095148086548e-01</leafValues></_>
    <_>
      <internalNodes>
        0 -1 27210 1802153971 1029362306 -1976390452 -1645916114
        14936235 -555596853 1814366905 1268809343</internalNodes>
      <leafValues>
        -3.2636100053787231e-01 3.0152708292007446e-01</leafValues></_>
    <_>
      <internalNodes>
        0 -1 8955 -262877507 -179067152 1285554879 500671202 1780560558
        1249786634 1776421050 425916018</internalNodes>
      <leafValues>
        -3.4089460968971252e-01 2.9961487650871277e-01</leafValues></_>
    <_>
      <internalNodes>
        0 -1 59227 257166098 -875313878 146540298 16935041 1276673395
        313570645 -1545250315 1618366739</internalNodes>
      <leafValues>
        -5.4290652275085449e-01 1.9164010882377625e-01</leafValues></_>
    <_>
      <internalNodes>
        0 -1 199560 -26422320 -1266518401 -1996480421 257691793
        1383285716 -23443051 2139699624 -1461121342</internalNodes>
      <leafValues>
        -3.7707594037055969e-01 2.7298912405967712e-01</leafValues></_>
    <_>
      <internalNodes>
        0 -1 268431 -1263045917 -1382186595 -1240891835 553024920
        -255775873 417795211 -15052528 1240390388</internalNodes>
      <leafValues>
        -4.7379940748214722e-01 2.2040849924087524e-01</leafValues></_>
    <_>
      <internalNodes>
        0 -1 206829 -1933698751 1453188413 -788459234 1459249951
        -200754191 -132087581 -913634852 -1766180832</internalNodes>
      <leafValues>
        -4.0799382328987122e-01 2.5080409646034241e-01</leafValues></_>
    <_>
      <internalNodes>
        0 -1 159250 -1274462972 -1680827942 291674001 1762960452
        1145313709 -749598209 -1158835404 1095493135</internalNodes>
      <leafValues>
        -4.3139511346817017e-01 2.4642099440097809e-01</leafValues></_>
    <_>
      <internalNodes>
        0 -1 296850 2137767575 825931647 1073686499 1027569779
        1158477245 -1906245804 -826819455 -936511869</internalNodes>
      <leafValues>
        -2.7945443987846375e-01 4.0731671452522278e-01</leafValues></_></weakClassifiers></stage10>
</opencv_storage>
