<?xml version="1.0"?>
<opencv_storage>
<stage1>
  <maxWeakCount>7</maxWeakCount>
  <stageThreshold>-1.1584066152572632e+00</stageThreshold>
  <weakClassifiers>
    <_>
      <internalNodes>
        0 -1 135684 -32897 -306184997 -639905149 -304358401 2147466087
        -73670470 -1310873 -21</internalNodes>
      <leafValues>
        -6.6945737600326538e-01 8.7407410144805908e-02</leafValues></_>
    <_>
      <internalNodes>
        0 -1 348099 782122999 -420039681 -585674426 -294652196
        -270532749 -1465268005 -67436945 -285423361</internalNodes>
      <leafValues>
        -4.8870396614074707e-01 2.8901121020317078e-01</leafValues></_>
    <_>
      <internalNodes>
        0 -1 302656 -1409325089 -1379147265 -102851761 -1570805825
        -1282444425 -150216085 -3204571 -71688</internalNodes>
      <leafValues>
        -3.6680954694747925e-01 3.9367339015007019e-01</leafValues></_>
    <_>
      <internalNodes>
        0 -1 148223 -775815852 -264195712 -2130173556 694022750 23130028
        -1601482408 -1874796354 198687119</internalNodes>
      <leafValues>
        -4.4376906752586365e-01 3.2816460728645325e-01</leafValues></_>
    <_>
      <internalNodes>
        0 -1 34202 742135563 786423257 -521142329 -805514980 -923839117
        -641228181 -1610977497 -1128268559</internalNodes>
      <leafValues>
        -4.2436596751213074e-01 3.5996821522712708e-01</leafValues></_>
    <_>
      <internalNodes>
        0 -1 12533 -364131654 -614730853 -938263218 2074837259
        -825299786 -338474591 -2069295893 1109256</internalNodes>
      <leafValues>
        -4.8595118522644043e-01 2.9934933781623840e-01</leafValues></_>
    <_>
      <internalNodes>
        0 -1 228316 111808293 -1403447219 -174225386 -791510184
        -238479699 -1626668956 -2141070540 -1413984716</internalNodes>
      <leafValues>
        -5.8103144168853760e-01 2.6159450411796570e-01</leafValues></_></weakClassifiers></stage1>
</opencv_storage>
