<?xml version="1.0"?>
<opencv_storage>
<stage4>
  <maxWeakCount>9</maxWeakCount>
  <stageThreshold>-1.3187919855117798e+00</stageThreshold>
  <weakClassifiers>
    <_>
      <internalNodes>
        0 -1 97316 -67144193 -812655015 -585416721 -406865153 -508862597
        -880025437 -72705161 -328835</internalNodes>
      <leafValues>
        -6.8717771768569946e-01 -1.0191725194454193e-01</leafValues></_>
    <_>
      <internalNodes>
        0 -1 347509 146832741 -1360607779 -733222174 -358661389
        -253691358 -421855101 -1561527513 212385653</internalNodes>
      <leafValues>
        -7.5557678937911987e-01 7.5883753597736359e-02</leafValues></_>
    <_>
      <internalNodes>
        0 -1 222998 -2108554 1101911720 -905474820 593505952 -822887476
        1096871936 -1240994384 1147651326</internalNodes>
      <leafValues>
        -4.5833030343055725e-01 2.6209998130798340e-01</leafValues></_>
    <_>
      <internalNodes>
        0 -1 37289 -352389617 -1364554806 2022955074 1222702554
        -1425715204 533924533 1455792150 1618471926</internalNodes>
      <leafValues>
        -5.0170171260833740e-01 2.6704728603363037e-01</leafValues></_>
    <_>
      <internalNodes>
        0 -1 299 -163262212 1803940498 1619046604 1662022226 -555207700
        -1432632576 2060462300 1108344896</internalNodes>
      <leafValues>
        -7.1587681770324707e-01 1.7739677429199219e-01</leafValues></_>
    <_>
      <internalNodes>
        0 -1 348098 797735319 827773899 -1856966491 -356192231
        -118599605 2063843349 -207918721 2147283929</internalNodes>
      <leafValues>
        -5.1943707466125488e-01 2.1964372694492340e-01</leafValues></_>
    <_>
      <internalNodes>
        0 -1 324540 -1537738809 -1064443554 -552566720 -296561703
        -627360495 317252010 -877948571 -621028687</internalNodes>
      <leafValues>
        -4.0841519832611084e-01 3.2937675714492798e-01</leafValues></_>
    <_>
      <internalNodes>
        0 -1 258630 -1508371486 -951817581 -249464329 -623242319
        996829789 -1778347798 -788357387 -2086791983</internalNodes>
      <leafValues>
        -4.4863140583038330e-01 3.1165555119514465e-01</leafValues></_>
    <_>
      <internalNodes>
        0 -1 56191 -714097754 -1406462030 -1786128664 -1572039544
        -1883170470 1444317306 -1509748169 619307718</internalNodes>
      <leafValues>
        -5.5055332183837891e-01 2.3959873616695404e-01</leafValues></_></weakClassifiers></stage4>
</opencv_storage>
