<?xml version="1.0"?>
<opencv_storage>
<stage3>
  <maxWeakCount>10</maxWeakCount>
  <stageThreshold>-1.5099738836288452e+00</stageThreshold>
  <weakClassifiers>
    <_>
      <internalNodes>
        0 -1 144535 -1410106505 -1357836641 -1018691605 -1023803937
        -152144041 -242234709 -1159212237 -17421961</internalNodes>
      <leafValues>
        -7.4381840229034424e-01 -1.8492673337459564e-01</leafValues></_>
    <_>
      <internalNodes>
        0 -1 347384 787774845 -1500488803 -627837456 -1099276690
        -1567794827 -923823590 -153405723 -1125328175</internalNodes>
      <leafValues>
        -5.5871510505676270e-01 1.9011172652244568e-01</leafValues></_>
    <_>
      <internalNodes>
        0 -1 227836 -1495393167 -22383273 -576843294 -1258376780
        1823661656 -122057793 -391924499 -1145428972</internalNodes>
      <leafValues>
        -4.3600508570671082e-01 2.9999983310699463e-01</leafValues></_>
    <_>
      <internalNodes>
        0 -1 237759 -1912652441 -301989957 -16783441 -1363935874
        -553654411 1073741687 -151527577 -17055754</internalNodes>
      <leafValues>
        -2.7393811941146851e-01 4.7076043486595154e-01</leafValues></_>
    <_>
      <internalNodes>
        0 -1 347068 268008629 735867748 -783825193 -1129562473
        -557449269 -550844261 -72635740 -1090749067</internalNodes>
      <leafValues>
        -4.5272442698478699e-01 3.1269392371177673e-01</leafValues></_>
    <_>
      <internalNodes>
        0 -1 33250 -727450634 -606273679 -268545739 -1482102668
        -948119620 -122200731 -1221010183 1401144540</internalNodes>
      <leafValues>
        -3.6914804577827454e-01 4.0198534727096558e-01</leafValues></_>
    <_>
      <internalNodes>
        0 -1 321538 -1077973249 -1359020101 -4177 -297796237 -1107460227
        -336609417 -1392529546 -16843779</internalNodes>
      <leafValues>
        -3.2471832633018494e-01 4.4209629297256470e-01</leafValues></_>
    <_>
      <internalNodes>
        0 -1 4740 -391730522 34402368 -1877256962 -1718147966 1095108999
        769796359 -164559907 -408685741</internalNodes>
      <leafValues>
        -4.0533757209777832e-01 3.6905527114868164e-01</leafValues></_>
    <_>
      <internalNodes>
        0 -1 297041 -405537034 991244824 -687833065 -174337536
        1216704648 -2010595197 1120094408 1145554159</internalNodes>
      <leafValues>
        -3.8100817799568176e-01 4.1700598597526550e-01</leafValues></_>
    <_>
      <internalNodes>
        0 -1 400 2141002861 -1150849569 -1190966349 -496797669
        1404866884 1904444867 -240308426 -1112998401</internalNodes>
      <leafValues>
        -4.1022714972496033e-01 3.8609418272972107e-01</leafValues></_></weakClassifiers></stage3>
</opencv_storage>
