<?xml version="1.0"?>
<opencv_storage>
<stage13>
  <maxWeakCount>5</maxWeakCount>
  <stageThreshold>-1.2005845308303833e+00</stageThreshold>
  <weakClassifiers>
    <_>
      <internalNodes>
        0 -1 273226 -176302121 2139333383 1645873137 -749252607
        -935012597 -1337782199 679581067 -301991701</internalNodes>
      <leafValues>
        -7.6829266548156738e-01 4.5945945382118225e-01</leafValues></_>
    <_>
      <internalNodes>
        0 -1 322446 -572653619 391282911 -1878936495 -1974226874
        -1266119525 -896156542 1781121697 -1733627313</internalNodes>
      <leafValues>
        -7.1350663900375366e-01 5.0447463989257813e-01</leafValues></_>
    <_>
      <internalNodes>
        0 -1 219419 -1110295105 -203079672 -1853862626 -1741454973
        -133731863 1746011297 -628486104 986441415</internalNodes>
      <leafValues>
        -7.9394119977951050e-01 4.8276957869529724e-01</leafValues></_>
    <_>
      <internalNodes>
        0 -1 261171 -606733515 -216952559 70330838 -144914225
        -1743656740 951388289 -914162941 -1226585457</internalNodes>
      <leafValues>
        -6.4959311485290527e-01 6.6056066751480103e-01</leafValues></_>
    <_>
      <internalNodes>
        0 -1 320210 -771126326 -2079976368 -2141890731 1544245319
        1959522354 -639074151 -1145453400 157274331</internalNodes>
      <leafValues>
        -7.6994293928146362e-01 5.5725282430648804e-01</leafValues></_></weakClassifiers></stage13>
</opencv_storage>
