<?xml version="1.0"?>
<opencv_storage>
<cascade>
  <stageType>BOOST</stageType>
  <featureType>LBP</featureType>
  <height>60</height>
  <width>60</width>
  <stageParams>
    <boostType>GAB</boostType>
    <minHitRate>9.9500000476837158e-01</minHitRate>
    <maxFalseAlarm>5.0000000000000000e-01</maxFalseAlarm>
    <weightTrimRate>9.4999999999999996e-01</weightTrimRate>
    <maxDepth>1</maxDepth>
    <maxWeakCount>100</maxWeakCount></stageParams>
  <featureParams>
    <maxCatCount>256</maxCatCount>
    <featSize>1</featSize></featureParams>
  <stageNum>15</stageNum>
  <stages>
    <!-- stage 0 -->
    <_>
      <maxWeakCount>7</maxWeakCount>
      <stageThreshold>-1.7033380270004272e+00</stageThreshold>
      <weakClassifiers>
        <_>
          <internalNodes>
            0 -1 40 -204999714 -7276390 -1845437491 1973285842
            -795967284 -1147158528 -249498930 1892938179</internalNodes>
          <leafValues>
            -8.3905392885208130e-01 -2.1830457448959351e-01</leafValues></_>
        <_>
          <internalNodes>
            0 -1 51 -722404136 -138350456 -652942882 -699868784
            -1337929476 -1457581664 954132732 1073861239</internalNodes>
          <leafValues>
            -7.4531280994415283e-01 1.2025304883718491e-01</leafValues></_>
        <_>
          <internalNodes>
            0 -1 28 -688924973 -1080103994 -1507849654 -1085114558
            -343676022 -686286402 1794082856 1078325990</internalNodes>
          <leafValues>
            -4.8224607110023499e-01 3.4490752220153809e-01</leafValues></_>
        <_>
          <internalNodes>
            0 -1 19 -87035150 462733450 -1790928916 560480780 1532797640
            16869520 1103656256 1347535042</internalNodes>
          <leafValues>
            -6.5442913770675659e-01 2.4333092570304871e-01</leafValues></_>
        <_>
          <internalNodes>
            0 -1 16 -766719822 -1711036278 555359517 961771668
            -1097012568 -1165932543 1233283561 1264804467</internalNodes>
          <leafValues>
            -4.4513675570487976e-01 3.6801841855049133e-01</leafValues></_>
        <_>
          <internalNodes>
            0 -1 42 -1565319377 -269615105 -151060950 1878261750
            -1644814498 -805306529 -302008490 -671615340</internalNodes>
          <leafValues>
            -3.9555576443672180e-01 4.3806153535842896e-01</leafValues></_>
        <_>
          <internalNodes>
            0 -1 112 -1971171912 1016857165 -787312420 -1093779072
            1917442488 2030266393 -649195076 -164439212</internalNodes>
          <leafValues>
            -4.7326821088790894e-01 3.4795951843261719e-01</leafValues></_></weakClassifiers></_>
    <!-- stage 1 -->
    <_>
      <maxWeakCount>8</maxWeakCount>
      <stageThreshold>-1.8365434408187866e+00</stageThreshold>
      <weakClassifiers>
        <_>
          <internalNodes>
            0 -1 45 -1073774737 -336593921 -228065917 -403702813
            -491913397 -637579585 -83906729 -269451</internalNodes>
          <leafValues>
            -8.0881935358047485e-01 -2.7782100439071655e-01</leafValues></_>
        <_>
          <internalNodes>
            0 -1 99 804990799 -1397237153 -1097336217 -1367435810
            2078242683 -35720833 -688261353 -16850955</internalNodes>
          <leafValues>
            -5.6791055202484131e-01 1.8358533084392548e-01</leafValues></_>
        <_>
          <internalNodes>
            0 -1 133 782509937 -1232181793 -2663490 -1461815862
            -74481801 989573599 -272662668 754745197</internalNodes>
          <leafValues>
            -8.0821222066879272e-01 1.6380304098129272e-01</leafValues></_>
        <_>
          <internalNodes>
            0 -1 15 -217525142 -245841572 -1873219303 -170823146
            -517163890 -1843379584 1800700146 1179898974</internalNodes>
          <leafValues>
            -5.0281608104705811e-01 3.1004527211189270e-01</leafValues></_>
        <_>
          <internalNodes>
            0 -1 66 733962021 -1394642413 -1813099089 -1426858009
            -1148066 -547400389 -2293915 -54854795</internalNodes>
          <leafValues>
            -4.7312030196189880e-01 3.2126677036285400e-01</leafValues></_>
        <_>
          <internalNodes>
            0 -1 118 -1512372249 -1595213401 -1055483993 -1595027238
            -218170497 1639916539 -353387657 -419508325</internalNodes>
          <leafValues>
            -3.9392077922821045e-01 3.7830045819282532e-01</leafValues></_>
        <_>
          <internalNodes>
            0 -1 100 -1501030287 528445528 -632122021 -233135138
            -1980965551 -217320789 -893179450 -1342562892</internalNodes>
          <leafValues>
            -4.4247239828109741e-01 3.3771824836730957e-01</leafValues></_>
        <_>
          <internalNodes>
            0 -1 57 1344262278 1563490676 1187082270 1430504605
            -758402894 -32239615 405071947 -1067977953</internalNodes>
          <leafValues>
            -3.9636966586112976e-01 3.7844273447990417e-01</leafValues></_></weakClassifiers></_>
    <!-- stage 2 -->
    <_>
      <maxWeakCount>7</maxWeakCount>
      <stageThreshold>-1.8028383255004883e+00</stageThreshold>
      <weakClassifiers>
        <_>
          <internalNodes>
            0 -1 35 -1210089601 -275775597 -1077948433 -268435473 -37017
            -303171397 -335610569 -16387</internalNodes>
          <leafValues>
            -8.1105363368988037e-01 -1.9609582424163818e-01</leafValues></_>
        <_>
          <internalNodes>
            0 -1 134 771063093 -1359512195 -577510622 -323028577
            -67830145 -360714933 -469827729 1056766973</internalNodes>
          <leafValues>
            -7.2176998853683472e-01 9.6658319234848022e-02</leafValues></_>
        <_>
          <internalNodes>
            0 -1 131 783646517 -1431675461 -6293799 -1360070407
            -570427531 2046788490 -83951723 -1094909955</internalNodes>
          <leafValues>
            -5.3527820110321045e-01 3.0872210860252380e-01</leafValues></_>
        <_>
          <internalNodes>
            0 -1 72 788414461 -1353189387 -70852630 -285573218 939294519
            1274802779 -1176569038 -1078272556</internalNodes>
          <leafValues>
            -5.1135462522506714e-01 3.1795006990432739e-01</leafValues></_>
        <_>
          <internalNodes>
            0 -1 109 -1349553337 795752793 -117457246 -425534522
            -1917520513 1339800157 -1348471004 620164093</internalNodes>
          <leafValues>
            -6.3154083490371704e-01 2.6404458284378052e-01</leafValues></_>
        <_>
          <internalNodes>
            0 -1 128 721178109 -1559243905 -623914543 -120273099
            -1446073369 2141899487 -1160881680 -1105437579</internalNodes>
          <leafValues>
            -5.8894509077072144e-01 2.7257922291755676e-01</leafValues></_>
        <_>
          <internalNodes>
            0 -1 22 -492314622 1834493509 822169894 874758487 356315316
            -363837267 349615275 1153660867</internalNodes>
          <leafValues>
            -5.6005716323852539e-01 2.8309032320976257e-01</leafValues></_></weakClassifiers></_>
    <!-- stage 3 -->
    <_>
      <maxWeakCount>8</maxWeakCount>
      <stageThreshold>-1.7483474016189575e+00</stageThreshold>
      <weakClassifiers>
        <_>
          <internalNodes>
            0 -1 20 -4194305 -268438548 -593791121 -270535681 -71828741
            -71574871 -802957 -1287</internalNodes>
          <leafValues>
            -7.4863648414611816e-01 -7.3756434023380280e-02</leafValues></_>
        <_>
          <internalNodes>
            0 -1 102 -2014283423 -1883384523 -619978754 -354519045
            -825467907 -487720449 -1678523497 -22390691</internalNodes>
          <leafValues>
            -5.3991311788558960e-01 1.8488679826259613e-01</leafValues></_>
        <_>
          <internalNodes>
            0 -1 137 649869669 -1362399749 -447744418 -84087908
            -1146569993 -84450597 -4294157 -1078450695</internalNodes>
          <leafValues>
            -4.9245080351829529e-01 2.7684348821640015e-01</leafValues></_>
        <_>
          <internalNodes>
            0 -1 6 -12060706 -1288375202 -1932108976 -1868131738
            -831413024 1608772675 1444246292 1088545858</internalNodes>
          <leafValues>
            -6.2417191267013550e-01 2.2587987780570984e-01</leafValues></_>
        <_>
          <internalNodes>
            0 -1 85 -1867223795 -1417277324 -377103649 -6523075
            -1329673735 -1074823141 -1156759884 -1564603947</internalNodes>
          <leafValues>
            -4.0121081471443176e-01 3.6784043908119202e-01</leafValues></_>
        <_>
          <internalNodes>
            0 -1 56 1761439601 -439397409 -703995986 -889193555
            -1090356633 -206911429 -418447564 -134587579</internalNodes>
          <leafValues>
            -4.2191576957702637e-01 3.4734591841697693e-01</leafValues></_>
        <_>
          <internalNodes>
            0 -1 83 -219676684 1395109392 1419246293 -1793530246
            -1959023964 -1735198196 -992232971 1078253635</internalNodes>
          <leafValues>
            -4.8611295223236084e-01 3.0303516983985901e-01</leafValues></_>
        <_>
          <internalNodes>
            0 -1 50 -1764768009 -539811376 -1601711566 -1077481529
            -280299009 -1198692127 -817422408 1081404181</internalNodes>
          <leafValues>
            -4.4218668341636658e-01 3.4415447711944580e-01</leafValues></_></weakClassifiers></_>
    <!-- stage 4 -->
    <_>
      <maxWeakCount>9</maxWeakCount>
      <stageThreshold>-1.6062539815902710e+00</stageThreshold>
      <weakClassifiers>
        <_>
          <internalNodes>
            0 -1 34 -262177 -68169253 -771629109 -271071025 -270533125
            -1684305506 -74515690 -1</internalNodes>
          <leafValues>
            -7.3299860954284668e-01 2.8708133846521378e-02</leafValues></_>
        <_>
          <internalNodes>
            0 -1 138 1878030703 1792392071 -229141057 -420017377
            -377686925 -1864664469 -269959377 -289866897</internalNodes>
          <leafValues>
            -4.8587825894355774e-01 1.8752734363079071e-01</leafValues></_>
        <_>
          <internalNodes>
            0 -1 124 979228541 -422260811 -282076246 -1361668131
            -141558923 -378284101 -1684047355 -1342571539</internalNodes>
          <leafValues>
            -3.9556485414505005e-01 3.0614486336708069e-01</leafValues></_>
        <_>
          <internalNodes>
            0 -1 1 -17326862 -1213171441 2127944844 -340864178
            -756164611 -918153832 -2103481880 -456859806</internalNodes>
          <leafValues>
            -3.7927725911140442e-01 3.1769233942031860e-01</leafValues></_>
        <_>
          <internalNodes>
            0 -1 82 -1933563777 -1345188393 -560802840 -1360040166
            -879531473 462665915 -1481687692 905341872</internalNodes>
          <leafValues>
            -6.3952589035034180e-01 1.9624076783657074e-01</leafValues></_>
        <_>
          <internalNodes>
            0 -1 32 1685316310 -147640721 -436289684 357816892 125080824
            787271524 -168274518 -250239486</internalNodes>
          <leafValues>
            -3.0670705437660217e-01 3.8930377364158630e-01</leafValues></_>
        <_>
          <internalNodes>
            0 -1 80 -1099160315 -1366679288 984970220 1959244629
            -1601376464 -1197571894 -1877634691 -1895896867</internalNodes>
          <leafValues>
            -4.4083237648010254e-01 2.7942088246345520e-01</leafValues></_>
        <_>
          <internalNodes>
            0 -1 127 1021110069 734417666 -707267358 -430458024
            -605244868 -192206710 -173999502 485251965</internalNodes>
          <leafValues>
            -6.2440305948257446e-01 2.1718013286590576e-01</leafValues></_>
        <_>
          <internalNodes>
            0 -1 94 -254869591 142851039 1107437356 -1128242696
            1099033069 -2066300751 1767741916 1477670334</internalNodes>
          <leafValues>
            -4.5340180397033691e-01 2.9099443554878235e-01</leafValues></_></weakClassifiers></_>
    <!-- stage 5 -->
    <_>
      <maxWeakCount>10</maxWeakCount>
      <stageThreshold>-1.4796884059906006e+00</stageThreshold>
      <weakClassifiers>
        <_>
          <internalNodes>
            0 -1 9 -1208484489 -268578355 -100958293 -268963345
            -141821325 -538984389 -279709 -627</internalNodes>
          <leafValues>
            -7.7217906713485718e-01 -2.9840973019599915e-01</leafValues></_>
        <_>
          <internalNodes>
            0 -1 120 -1175048321 -1366688929 -116207282 -295741811
            -1664491653 1657001102 -82907534 -151192641</internalNodes>
          <leafValues>
            -4.9507728219032288e-01 1.4503835141658783e-01</leafValues></_>
        <_>
          <internalNodes>
            0 -1 101 202389281 777788790 -585420817 865745280 596537324
            -1148196407 -1148429132 -1426187024</internalNodes>
          <leafValues>
            -5.1720041036605835e-01 2.1093809604644775e-01</leafValues></_>
        <_>
          <internalNodes>
            0 -1 140 747994869 -1403519713 -644884754 -427870497
            -203247045 713863883 -138609809 666660607</internalNodes>
          <leafValues>
            -5.5281764268875122e-01 2.0627745985984802e-01</leafValues></_>
        <_>
          <internalNodes>
            0 -1 10 1788337699 -1343975074 -1878408732 -318778942
            1980198727 -139311053 1384842084 1985213015</internalNodes>
          <leafValues>
            -5.9284144639968872e-01 2.2335244715213776e-01</leafValues></_>
        <_>
          <internalNodes>
            0 -1 18 -547955900 -145713354 -783754171 130134544
            -499081046 -6901164 -1056653110 1698941215</internalNodes>
          <leafValues>
            -3.9402911067008972e-01 2.9901212453842163e-01</leafValues></_>
        <_>
          <internalNodes>
            0 -1 31 -153421074 -25545910 1448268749 860000644 156537835
            -1911339444 700784940 -54942137</internalNodes>
          <leafValues>
            -3.3790716528892517e-01 3.6004021763801575e-01</leafValues></_>
        <_>
          <internalNodes>
            0 -1 29 -1143450023 -277364277 -565118649 -345076129
            -245925077 -1145012213 -337921193 -1224933391</internalNodes>
          <leafValues>
            -3.9876267313957214e-01 3.0935129523277283e-01</leafValues></_>
        <_>
          <internalNodes>
            0 -1 78 1846777940 1376897342 -2016348208 578824972
            -372248241 1812881697 2004341716 1423759111</internalNodes>
          <leafValues>
            -5.8163440227508545e-01 2.2584317624568939e-01</leafValues></_>
        <_>
          <internalNodes>
            0 -1 106 -26739693 -675456241 -151553 -651821150 -1459694131
            -1661075907 1744680943 -262938385</internalNodes>
          <leafValues>
            -2.4583528935909271e-01 5.3692817687988281e-01</leafValues></_></weakClassifiers></_>
    <!-- stage 6 -->
    <_>
      <maxWeakCount>10</maxWeakCount>
      <stageThreshold>-1.4671683311462402e+00</stageThreshold>
      <weakClassifiers>
        <_>
          <internalNodes>
            0 -1 55 -33793 -338167335 -8929265 -268479745 -343780353
            1536918499 -621807001 -71304261</internalNodes>
          <leafValues>
            -7.5838238000869751e-01 -2.6539754867553711e-01</leafValues></_>
        <_>
          <internalNodes>
            0 -1 86 -2144331496 -1169162538 -909064235 -18998296
            -1060157452 -74765883 -1731396055 -1157989004</internalNodes>
          <leafValues>
            -5.5606532096862793e-01 6.4712561666965485e-02</leafValues></_>
        <_>
          <internalNodes>
            0 -1 139 970743039 -270609207 -1955146302 -1430040131
            -7770497 2073273483 -74520197 2129688561</internalNodes>
          <leafValues>
            -5.3723371028900146e-01 1.7652617394924164e-01</leafValues></_>
        <_>
          <internalNodes>
            0 -1 98 -641745134 1371562838 1092098164 425991938
            2018507180 1221633458 1617416624 1085797635</internalNodes>
          <leafValues>
            -3.8692158460617065e-01 2.9223132133483887e-01</leafValues></_>
        <_>
          <internalNodes>
            0 -1 54 380418824 -1277930397 808062704 1052965 -1050425205
            -1432210992 -985204584 309851162</internalNodes>
          <leafValues>
            -5.0957059860229492e-01 2.0364207029342651e-01</leafValues></_>
        <_>
          <internalNodes>
            0 -1 26 483819109 -314758196 731207485 -170569220
            -1962970844 1869490183 621302564 -656127</internalNodes>
          <leafValues>
            -4.2590969800949097e-01 2.5155571103096008e-01</leafValues></_>
        <_>
          <internalNodes>
            0 -1 7 -873596930 1062081415 478518681 94522830 1920993453
            859257246 1354852430 -245301284</internalNodes>
          <leafValues>
            -4.0254193544387817e-01 2.7360731363296509e-01</leafValues></_>
        <_>
          <internalNodes>
            0 -1 110 -676364985 1437871159 1995227057 942305020
            -536918070 526352358 -29440999 -394537323</internalNodes>
          <leafValues>
            -3.0661043524742126e-01 3.7330222129821777e-01</leafValues></_>
        <_>
          <internalNodes>
            0 -1 11 -848322141 -1828087899 352424127 364790726 722455508
            730339479 -1815419938 -2004597967</internalNodes>
          <leafValues>
            -3.8086485862731934e-01 2.9933357238769531e-01</leafValues></_>
        <_>
          <internalNodes>
            0 -1 117 -380579244 -1478496232 -1735433902 -633539107
            -1070966995 1753312802 -2082018712 -1817644899</internalNodes>
          <leafValues>
            -3.8693815469741821e-01 3.0102890729904175e-01</leafValues></_></weakClassifiers></_>
    <!-- stage 7 -->
    <_>
      <maxWeakCount>10</maxWeakCount>
      <stageThreshold>-1.4097435474395752e+00</stageThreshold>
      <weakClassifiers>
        <_>
          <internalNodes>
            0 -1 95 -2097153 -6560289 -108409649 -270543365 -92802305
            -108017157 -84149633 -1281</internalNodes>
          <leafValues>
            -7.1453785896301270e-01 1.4606741070747375e-01</leafValues></_>
        <_>
          <internalNodes>
            0 -1 43 -1529723535 174211556 1455868274 -151350355
            -388120556 -1344668477 -1601644304 -1416988588</internalNodes>
          <leafValues>
            -5.4378348588943481e-01 7.0892930030822754e-02</leafValues></_>
        <_>
          <internalNodes>
            0 -1 136 635206909 -1454325133 -1122908929 -497616945
            -217384200 -20198973 -172944539 -1074235459</internalNodes>
          <leafValues>
            -4.1934546828269958e-01 2.2638116776943207e-01</leafValues></_>
        <_>
          <internalNodes>
            0 -1 37 1592696226 -11548994 -922470534 2111862978
            1078821280 13692709 -1599815256 1561355826</internalNodes>
          <leafValues>
            -4.5993763208389282e-01 2.1796141564846039e-01</leafValues></_>
        <_>
          <internalNodes>
            0 -1 4 -1037376112 1241978802 -679187737 18645730 417417610
            944775683 -125340027 1747316758</internalNodes>
          <leafValues>
            -4.8890355229377747e-01 2.3548525571823120e-01</leafValues></_>
        <_>
          <internalNodes>
            0 -1 53 -341457132 1230683136 -386737698 2106291446
            -797330022 2091288311 -450076406 1179556311</internalNodes>
          <leafValues>
            -4.3119406700134277e-01 2.5608274340629578e-01</leafValues></_>
        <_>
          <internalNodes>
            0 -1 63 1540211928 912238580 32837849 652267623 2126056786
            -1105507839 -2126336326 478113623</internalNodes>
          <leafValues>
            -4.0230000019073486e-01 2.6595437526702881e-01</leafValues></_>
        <_>
          <internalNodes>
            0 -1 71 -328406060 652825838 -1458831907 894340057
            -1192636162 30437349 -1654667810 -2122587021</internalNodes>
          <leafValues>
            -3.7658706307411194e-01 3.0335232615470886e-01</leafValues></_>
        <_>
          <internalNodes>
            0 -1 96 -1247866979 -1220579965 -678299516 -458271351
            -19180545 1059842459 -23464105 -356591651</internalNodes>
          <leafValues>
            -3.5036829113960266e-01 3.3189654350280762e-01</leafValues></_>
        <_>
          <internalNodes>
            0 -1 8 -92739060 1606486222 -837092722 720818835 994779956
            -45005802 -759802200 1111615078</internalNodes>
          <leafValues>
            -5.2830445766448975e-01 2.2581008076667786e-01</leafValues></_></weakClassifiers></_>
    <!-- stage 8 -->
    <_>
      <maxWeakCount>10</maxWeakCount>
      <stageThreshold>-1.5844502449035645e+00</stageThreshold>
      <weakClassifiers>
        <_>
          <internalNodes>
            0 -1 123 -638066721 -77613671 -784250899 1692662235
            -587559041 -352740134 -605291877 -538973477</internalNodes>
          <leafValues>
            -7.3634207248687744e-01 -1.6949152946472168e-01</leafValues></_>
        <_>
          <internalNodes>
            0 -1 48 1008435047 -346082469 -65799442 -812155442
            -1281664641 -609017607 -1346903709 1941167925</internalNodes>
          <leafValues>
            -5.5733108520507813e-01 7.1107834577560425e-02</leafValues></_>
        <_>
          <internalNodes>
            0 -1 125 1007976429 -1897079828 -640453677 -1503726697
            -1042474027 -388906845 -1747291339 706248053</internalNodes>
          <leafValues>
            -6.6085708141326904e-01 1.3736087083816528e-01</leafValues></_>
        <_>
          <internalNodes>
            0 -1 67 947797808 -2091353506 -461008260 807704318
            -1546709571 1331962069 818247128 269485688</internalNodes>
          <leafValues>
            -6.4980715513229370e-01 1.6608931124210358e-01</leafValues></_>
        <_>
          <internalNodes>
            0 -1 60 -1055145124 -605979752 -550746613 -1889119599
            1193301236 277681148 1884409334 1225218046</internalNodes>
          <leafValues>
            -4.3670809268951416e-01 2.2504863142967224e-01</leafValues></_>
        <_>
          <internalNodes>
            0 -1 58 1871806304 1519409895 -732924930 -2119091274
            1910964200 -778957166 1981757598 -155246798</internalNodes>
          <leafValues>
            -3.3921134471893311e-01 3.0489304661750793e-01</leafValues></_>
        <_>
          <internalNodes>
            0 -1 88 444577282 489929107 231735603 616962430 1739244744
            1005994618 461984159 275373385</internalNodes>
          <leafValues>
            -4.6729224920272827e-01 2.2040148079395294e-01</leafValues></_>
        <_>
          <internalNodes>
            0 -1 93 -1895825713 -1742741227 30777896 43178366 2085346069
            51485503 811744596 -1336551546</internalNodes>
          <leafValues>
            -4.3169319629669189e-01 2.3799043893814087e-01</leafValues></_>
        <_>
          <internalNodes>
            0 -1 38 1191181162 -1158045755 2147336157 -516243811
            -940161348 -929269889 -1319055172 -642342165</internalNodes>
          <leafValues>
            -2.8892976045608521e-01 3.7663212418556213e-01</leafValues></_>
        <_>
          <internalNodes>
            0 -1 12 775822356 987406963 1103448964 -2025875670
            -1446063630 -1564580682 1302988682 1507920</internalNodes>
          <leafValues>
            -6.3236069679260254e-01 1.7431789636611938e-01</leafValues></_></weakClassifiers></_>
    <!-- stage 9 -->
    <_>
      <maxWeakCount>10</maxWeakCount>
      <stageThreshold>-1.4419771432876587e+00</stageThreshold>
      <weakClassifiers>
        <_>
          <internalNodes>
            0 -1 97 -1 -201887373 -955809555 -337930797 -4457473
            -73301618 -1836425 -5121</internalNodes>
          <leafValues>
            -7.2048848867416382e-01 -3.7037037312984467e-02</leafValues></_>
        <_>
          <internalNodes>
            0 -1 21 -8430193 -170421829 -254117994 -1360555557
            -236784773 -116616033 -69047495 -4530177</internalNodes>
          <leafValues>
            -3.5974830389022827e-01 2.8305265307426453e-01</leafValues></_>
        <_>
          <internalNodes>
            0 -1 5 -162820398 1944799776 -1393529108 -1043722526
            1895813508 813038408 -1188303748 1378348870</internalNodes>
          <leafValues>
            -4.4145929813385010e-01 2.1445046365261078e-01</leafValues></_>
        <_>
          <internalNodes>
            0 -1 103 649493815 538899327 -728640602 -492937187 -73703323
            -61701601 -223927725 783171573</internalNodes>
          <leafValues>
            -6.0349833965301514e-01 1.6293358802795410e-01</leafValues></_>
        <_>
          <internalNodes>
            0 -1 69 -194884588 -1128426617 -1252605037 -709368495
            -1971139103 2055372878 1050257919 -1531290832</internalNodes>
          <leafValues>
            -3.4584367275238037e-01 2.9706168174743652e-01</leafValues></_>
        <_>
          <internalNodes>
            0 -1 27 -40943874 1318046171 -116368982 -1594631698
            -550867615 1695091587 -1256701578 -177735213</internalNodes>
          <leafValues>
            -4.5702302455902100e-01 2.2944019734859467e-01</leafValues></_>
        <_>
          <internalNodes>
            0 -1 77 929515056 1482112742 824060201 -1712745251 672727184
            -1946127389 -2116870743 1286185458</internalNodes>
          <leafValues>
            -4.6522140502929688e-01 2.2037686407566071e-01</leafValues></_>
        <_>
          <internalNodes>
            0 -1 68 1611329682 1032071292 2010988899 1569510170
            1448038896 -1737549094 35573803 1683345680</internalNodes>
          <leafValues>
            -4.7132977843284607e-01 2.2452278435230255e-01</leafValues></_>
        <_>
          <internalNodes>
            0 -1 121 -1210159221 -1415334513 -803938042 -1600189423
            2057878735 -71663438 -221323418 -1523132182</internalNodes>
          <leafValues>
            -3.8251221179962158e-01 2.8035956621170044e-01</leafValues></_>
        <_>
          <internalNodes>
            0 -1 13 -1450474996 72462254 285572051 1018291188 1619850448
            -1197518586 676912565 541084737</internalNodes>
          <leafValues>
            -5.9632581472396851e-01 1.7981007695198059e-01</leafValues></_></weakClassifiers></_>
    <!-- stage 10 -->
    <_>
      <maxWeakCount>10</maxWeakCount>
      <stageThreshold>-1.4946360588073730e+00</stageThreshold>
      <weakClassifiers>
        <_>
          <internalNodes>
            0 -1 76 -672146774 -604577318 -1035425316 -716760162
            -1430209662 192979519 -205260269 -67396913</internalNodes>
          <leafValues>
            -7.4836766719818115e-01 -2.6894864439964294e-01</leafValues></_>
        <_>
          <internalNodes>
            0 -1 132 747130093 616432586 -720674329 -254965281 -80880653
            -573599333 -37592075 721182077</internalNodes>
          <leafValues>
            -6.5560090541839600e-01 9.5091369003057480e-03</leafValues></_>
        <_>
          <internalNodes>
            0 -1 113 -397164279 584010436 -392371667 1753011599
            -921545202 -275182741 -1207276769 344979023</internalNodes>
          <leafValues>
            -4.7645020484924316e-01 1.7321784794330597e-01</leafValues></_>
        <_>
          <internalNodes>
            0 -1 116 -360738150 -230011734 1054712624 1352215786
            -2027266430 -1955711075 -293608790 -615782006</internalNodes>
          <leafValues>
            -2.0701208710670471e-01 4.4664353132247925e-01</leafValues></_>
        <_>
          <internalNodes>
            0 -1 92 -71137342 -721446405 1073167901 -1857634708
            -319640440 -34021513 -411846914 -83122198</internalNodes>
          <leafValues>
            -2.3167991638183594e-01 4.5920225977897644e-01</leafValues></_>
        <_>
          <internalNodes>
            0 -1 59 660472165 797173023 1434579144 652136775 1065901055
            1625507894 -557113994 1056467892</internalNodes>
          <leafValues>
            -6.6131782531738281e-01 1.8108245730400085e-01</leafValues></_>
        <_>
          <internalNodes>
            0 -1 33 -18396667 606347497 -1785544408 2124060105
            -368291572 -217882353 -1347906908 -458185272</internalNodes>
          <leafValues>
            -4.3742075562477112e-01 2.2932586073875427e-01</leafValues></_>
        <_>
          <internalNodes>
            0 -1 2 1023150157 -1177838129 -805089850 -423536261
            1889038096 1616414219 -879085202 378039293</internalNodes>
          <leafValues>
            -5.8452802896499634e-01 1.6030605137348175e-01</leafValues></_>
        <_>
          <internalNodes>
            0 -1 30 101755558 576233863 360277386 820573840 723152867
            204791903 1547640614 1343703414</internalNodes>
          <leafValues>
            -6.1001151800155640e-01 1.6393527388572693e-01</leafValues></_>
        <_>
          <internalNodes>
            0 -1 81 -1903813071 -790869935 -754723846 -10530479
            -1295846767 -366804317 -1654490648 -1691717556</internalNodes>
          <leafValues>
            -3.7963956594467163e-01 2.7715274691581726e-01</leafValues></_></weakClassifiers></_>
    <!-- stage 11 -->
    <_>
      <maxWeakCount>11</maxWeakCount>
      <stageThreshold>-1.6832529306411743e+00</stageThreshold>
      <weakClassifiers>
        <_>
          <internalNodes>
            0 -1 75 -140509445 -48749 -687488311 -410020969 -201872725
            -358563767 -612182690 -1049858</internalNodes>
          <leafValues>
            -7.2499424219131470e-01 -1.0421285778284073e-01</leafValues></_>
        <_>
          <internalNodes>
            0 -1 87 -299450690 -90951028 -234718242 -170002530
            -1568570968 -1467608918 -1853777250 -214962006</internalNodes>
          <leafValues>
            -3.4746974706649780e-01 2.8768324851989746e-01</leafValues></_>
        <_>
          <internalNodes>
            0 -1 91 609166628 1685043252 -2080200222 -355488634
            -351610043 -635788790 -1234273008 1970181324</internalNodes>
          <leafValues>
            -5.8969515562057495e-01 1.5112517774105072e-01</leafValues></_>
        <_>
          <internalNodes>
            0 -1 64 -1717817488 -1318917270 -341254210 669776420
            231768248 2067518460 1901380612 4972900</internalNodes>
          <leafValues>
            -5.6958049535751343e-01 1.4955638349056244e-01</leafValues></_>
        <_>
          <internalNodes>
            0 -1 79 -2135196924 -539097643 26033341 -1139771431
            -1467991824 447219264 717355516 -1229039240</internalNodes>
          <leafValues>
            -3.8825330138206482e-01 2.4741820991039276e-01</leafValues></_>
        <_>
          <internalNodes>
            0 -1 62 -2104355648 702200315 425721056 347904416 -119328400
            -605419305 -52796815 1147456000</internalNodes>
          <leafValues>
            -6.7272675037384033e-01 1.5245571732521057e-01</leafValues></_>
        <_>
          <internalNodes>
            0 -1 119 -1308167704 -1569989773 424264514 -291615724
            -1891463246 688492716 1339023142 -1006945543</internalNodes>
          <leafValues>
            -4.1820722818374634e-01 2.3856037855148315e-01</leafValues></_>
        <_>
          <internalNodes>
            0 -1 46 1414254168 813793739 -594227273 1309745860
            -757850852 -97527375 235239946 1615206430</internalNodes>
          <leafValues>
            -4.5924270153045654e-01 2.1954238414764404e-01</leafValues></_>
        <_>
          <internalNodes>
            0 -1 17 -265941189 1430440942 -259212851 2076328328
            983462645 -34944723 1465520263 -1837632655</internalNodes>
          <leafValues>
            -3.2652795314788818e-01 3.2155182957649231e-01</leafValues></_>
        <_>
          <internalNodes>
            0 -1 65 -1057584510 1985085118 800051197 1373929400
            -287954998 1693810672 1602133935 -875352162</internalNodes>
          <leafValues>
            -2.7254259586334229e-01 3.9747571945190430e-01</leafValues></_>
        <_>
          <internalNodes>
            0 -1 25 -436214156 -1172557754 421565933 -2105918950
            1613684113 -1308576658 -324617392 312852602</internalNodes>
          <leafValues>
            -4.7246739268302917e-01 2.3597805202007294e-01</leafValues></_></weakClassifiers></_>
    <!-- stage 12 -->
    <_>
      <maxWeakCount>11</maxWeakCount>
      <stageThreshold>-1.5349724292755127e+00</stageThreshold>
      <weakClassifiers>
        <_>
          <internalNodes>
            0 -1 114 -538968929 -245636188 -104093445 -2491749 -73665793
            -1101821776 -811085138 -70262021</internalNodes>
          <leafValues>
            -7.0858895778656006e-01 1.4406779408454895e-01</leafValues></_>
        <_>
          <internalNodes>
            0 -1 122 -92033008 -7143178 892207550 -1822555686 -215371549
            -1031648893 25940959 -791444562</internalNodes>
          <leafValues>
            -3.8226753473281860e-01 2.2191759943962097e-01</leafValues></_>
        <_>
          <internalNodes>
            0 -1 47 -1187095483 1809830543 -2003577906 -1495273035
            -93889665 1535578527 -86050188 1005928432</internalNodes>
          <leafValues>
            -5.0680464506149292e-01 1.7968437075614929e-01</leafValues></_>
        <_>
          <internalNodes>
            0 -1 36 735571798 1615165718 1300516061 -1277460814
            1650154324 -1005507278 1724637190 1078059474</internalNodes>
          <leafValues>
            -4.8132026195526123e-01 1.8490627408027649e-01</leafValues></_>
        <_>
          <internalNodes>
            0 -1 126 435968124 -832228378 -629026432 -1428694564
            -472041615 -242581373 1733043012 217873465</internalNodes>
          <leafValues>
            -6.9536310434341431e-01 1.5944987535476685e-01</leafValues></_>
        <_>
          <internalNodes>
            0 -1 70 -834529259 -1168762406 567409527 -26655953
            2032236976 -628136725 1038076315 149799937</internalNodes>
          <leafValues>
            -4.0298306941986084e-01 2.4156560003757477e-01</leafValues></_>
        <_>
          <internalNodes>
            0 -1 52 -133511460 1786138507 373870435 1845217739
            1907186217 -1151275845 813646139 -903195993</internalNodes>
          <leafValues>
            -3.4817966818809509e-01 2.8832584619522095e-01</leafValues></_>
        <_>
          <internalNodes>
            0 -1 24 -919614545 1907834733 -12812442 -174498009
            1203356892 -824180873 -548047111 -100667849</internalNodes>
          <leafValues>
            -2.2794362902641296e-01 4.6651709079742432e-01</leafValues></_>
        <_>
          <internalNodes>
            0 -1 73 -1005914512 -1549864044 67655994 -2051845978
            -1152793416 1016303895 1477361736 -2055870899</internalNodes>
          <leafValues>
            -3.9538010954856873e-01 2.7107793092727661e-01</leafValues></_>
        <_>
          <internalNodes>
            0 -1 49 -385978602 -218467569 -1027008035 1100127060
            -1747850602 511849103 1369792652 1202035274</internalNodes>
          <leafValues>
            -3.8051360845565796e-01 2.7050030231475830e-01</leafValues></_>
        <_>
          <internalNodes>
            0 -1 104 -5430 -367760340 -21123358 -1361117569 -679482192
            897400806 1883174215 -160462082</internalNodes>
          <leafValues>
            -2.7353525161743164e-01 3.7566867470741272e-01</leafValues></_></weakClassifiers></_>
    <!-- stage 13 -->
    <_>
      <maxWeakCount>10</maxWeakCount>
      <stageThreshold>-1.3363839387893677e+00</stageThreshold>
      <weakClassifiers>
        <_>
          <internalNodes>
            0 -1 89 -245370117 -672535846 -767428129 -69221665
            -103030118 -67501880 -1155531781 -67112469</internalNodes>
          <leafValues>
            -7.0218282938003540e-01 2.8323698043823242e-01</leafValues></_>
        <_>
          <internalNodes>
            0 -1 135 783581109 -880353441 -715834513 -356237217
            -303273894 403669643 -103106762 653541297</internalNodes>
          <leafValues>
            -6.9338274002075195e-01 2.3050636518746614e-03</leafValues></_>
        <_>
          <internalNodes>
            0 -1 130 1047035245 -2097876472 -83570339 480061895
            -225926680 -376791013 -1567032659 -19338907</internalNodes>
          <leafValues>
            -3.9424625039100647e-01 2.1660155057907104e-01</leafValues></_>
        <_>
          <internalNodes>
            0 -1 41 -689307126 -649530666 21048328 1371572356
            -1974853568 -1543142848 975107698 -736712118</internalNodes>
          <leafValues>
            -3.2684171199798584e-01 2.9990592598915100e-01</leafValues></_>
        <_>
          <internalNodes>
            0 -1 23 -821628353 -1067038667 804970063 2113578472
            1341688008 -270239883 2096563931 -903938841</internalNodes>
          <leafValues>
            -2.6797002553939819e-01 3.7835213541984558e-01</leafValues></_>
        <_>
          <internalNodes>
            0 -1 108 -1735738482 1114447762 -1359069494 1402568104
            -405501034 117374940 1063081951 -742140024</internalNodes>
          <leafValues>
            -2.9697984457015991e-01 3.5085886716842651e-01</leafValues></_>
        <_>
          <internalNodes>
            0 -1 3 536882081 -1635617241 25197011 -623265594 -1467282032
            2049297083 1085751905 170148417</internalNodes>
          <leafValues>
            -5.6594014167785645e-01 1.8284338712692261e-01</leafValues></_>
        <_>
          <internalNodes>
            0 -1 0 1373666572 -1638006782 1949408324 -526098467
            2046944080 305767368 1359627533 540562219</internalNodes>
          <leafValues>
            -6.1601394414901733e-01 1.6311496496200562e-01</leafValues></_>
        <_>
          <internalNodes>
            0 -1 74 -405896626 -68098652 402587387 -790397508 -402868890
            -587894788 1602058188 -76573554</internalNodes>
          <leafValues>
            -2.6658064126968384e-01 4.1060084104537964e-01</leafValues></_>
        <_>
          <internalNodes>
            0 -1 20 -1618723539 -1558712108 -91008852 -269602673
            -1431866657 2127286931 -90539165 1593585077</internalNodes>
          <leafValues>
            -5.3615128993988037e-01 2.2079837322235107e-01</leafValues></_></weakClassifiers></_>
    <!-- stage 14 -->
    <_>
      <maxWeakCount>11</maxWeakCount>
      <stageThreshold>-1.5570060014724731e+00</stageThreshold>
      <weakClassifiers>
        <_>
          <internalNodes>
            0 -1 107 -69209381 -73411894 -787902243 -183250053
            -242372418 -1157480008 -7341061 -72358145</internalNodes>
          <leafValues>
            -7.0735967159271240e-01 1.7647059261798859e-01</leafValues></_>
        <_>
          <internalNodes>
            0 -1 115 -96212022 -372780818 1921143106 1633930064
            -1724019248 1133429917 -617876862 -674498118</internalNodes>
          <leafValues>
            -3.5952335596084595e-01 2.5390523672103882e-01</leafValues></_>
        <_>
          <internalNodes>
            0 -1 129 480795985 1027372168 -989015638 811492189
            -493958963 -1164263287 -24614891 511195377</internalNodes>
          <leafValues>
            -5.9268009662628174e-01 1.4776962995529175e-01</leafValues></_>
        <_>
          <internalNodes>
            0 -1 90 512425886 16013536 -635932900 222464088 35383274
            308567176 -957575156 140004433</internalNodes>
          <leafValues>
            -6.0706543922424316e-01 1.3973563909530640e-01</leafValues></_>
        <_>
          <internalNodes>
            0 -1 105 780086243 -295964405 -728154078 1759817947
            -339484833 831242242 -68690400 1244564310</internalNodes>
          <leafValues>
            -5.1905882358551025e-01 1.8940529227256775e-01</leafValues></_>
        <_>
          <internalNodes>
            0 -1 14 -795632574 1074708716 -66501594 -2104181534
            -880115116 337355395 -219733150 1693939414</internalNodes>
          <leafValues>
            -7.4190145730972290e-01 1.4740537106990814e-01</leafValues></_>
        <_>
          <internalNodes>
            0 -1 61 -177392604 1802477704 -1993260342 -319035246
            -205209041 2068578562 709511270 1962802300</internalNodes>
          <leafValues>
            -4.6365326642990112e-01 1.9356159865856171e-01</leafValues></_>
        <_>
          <internalNodes>
            0 -1 39 -778243626 -1374156102 199221112 925311455
            -1830190380 159342654 1548061572 -1975709670</internalNodes>
          <leafValues>
            -4.2478322982788086e-01 2.3914873600006104e-01</leafValues></_>
        <_>
          <internalNodes>
            0 -1 111 -779519739 -1320486066 890627411 945238226
            -170073972 -1122975357 721781768 281530723</internalNodes>
          <leafValues>
            -3.7578734755516052e-01 2.8267514705657959e-01</leafValues></_>
        <_>
          <internalNodes>
            0 -1 44 268053604 115085444 -1054723759 119337029 719733284
            1619017728 586969405 -1432997115</internalNodes>
          <leafValues>
            -6.2129676342010498e-01 1.7156329751014709e-01</leafValues></_>
        <_>
          <internalNodes>
            0 -1 84 -119599054 1012178223 -1803471095 1143918006
            -842987866 458302129 542582667 1720511232</internalNodes>
          <leafValues>
            -4.9956169724464417e-01 2.0487302541732788e-01</leafValues></_></weakClassifiers></_></stages>
  <features>
    <_>
      <rect>
        0 0 2 1</rect></_>
    <_>
      <rect>
        0 0 18 5</rect></_>
    <_>
      <rect>
        0 1 1 1</rect></_>
    <_>
      <rect>
        0 6 10 5</rect></_>
    <_>
      <rect>
        0 17 12 7</rect></_>
    <_>
      <rect>
        0 23 14 5</rect></_>
    <_>
      <rect>
        0 24 20 8</rect></_>
    <_>
      <rect>
        0 25 17 11</rect></_>
    <_>
      <rect>
        0 30 8 5</rect></_>
    <_>
      <rect>
        0 57 1 1</rect></_>
    <_>
      <rect>
        0 57 6 1</rect></_>
    <_>
      <rect>
        1 0 10 7</rect></_>
    <_>
      <rect>
        1 0 19 11</rect></_>
    <_>
      <rect>
        1 4 13 13</rect></_>
    <_>
      <rect>
        1 8 15 2</rect></_>
    <_>
      <rect>
        1 8 16 17</rect></_>
    <_>
      <rect>
        1 10 14 9</rect></_>
    <_>
      <rect>
        1 11 6 2</rect></_>
    <_>
      <rect>
        1 13 9 15</rect></_>
    <_>
      <rect>
        1 33 19 7</rect></_>
    <_>
      <rect>
        1 56 1 1</rect></_>
    <_>
      <rect>
        2 0 1 1</rect></_>
    <_>
      <rect>
        2 8 19 11</rect></_>
    <_>
      <rect>
        2 13 6 6</rect></_>
    <_>
      <rect>
        2 14 14 11</rect></_>
    <_>
      <rect>
        2 39 15 7</rect></_>
    <_>
      <rect>
        2 55 2 1</rect></_>
    <_>
      <rect>
        3 0 7 1</rect></_>
    <_>
      <rect>
        3 0 18 7</rect></_>
    <_>
      <rect>
        3 57 1 1</rect></_>
    <_>
      <rect>
        4 11 11 4</rect></_>
    <_>
      <rect>
        4 17 10 5</rect></_>
    <_>
      <rect>
        4 23 6 7</rect></_>
    <_>
      <rect>
        4 42 1 1</rect></_>
    <_>
      <rect>
        4 56 1 1</rect></_>
    <_>
      <rect>
        4 57 1 1</rect></_>
    <_>
      <rect>
        5 51 16 3</rect></_>
    <_>
      <rect>
        6 36 7 7</rect></_>
    <_>
      <rect>
        6 37 15 7</rect></_>
    <_>
      <rect>
        7 11 14 16</rect></_>
    <_>
      <rect>
        7 17 14 12</rect></_>
    <_>
      <rect>
        7 38 1 1</rect></_>
    <_>
      <rect>
        7 57 1 1</rect></_>
    <_>
      <rect>
        8 28 1 1</rect></_>
    <_>
      <rect>
        8 55 1 1</rect></_>
    <_>
      <rect>
        8 57 1 1</rect></_>
    <_>
      <rect>
        9 19 12 6</rect></_>
    <_>
      <rect>
        9 56 1 1</rect></_>
    <_>
      <rect>
        9 57 2 1</rect></_>
    <_>
      <rect>
        10 35 6 4</rect></_>
    <_>
      <rect>
        11 1 16 7</rect></_>
    <_>
      <rect>
        11 6 16 18</rect></_>
    <_>
      <rect>
        11 10 14 9</rect></_>
    <_>
      <rect>
        11 19 16 8</rect></_>
    <_>
      <rect>
        11 26 9 7</rect></_>
    <_>
      <rect>
        11 56 1 1</rect></_>
    <_>
      <rect>
        12 57 1 1</rect></_>
    <_>
      <rect>
        13 16 15 8</rect></_>
    <_>
      <rect>
        13 48 7 4</rect></_>
    <_>
      <rect>
        13 56 1 1</rect></_>
    <_>
      <rect>
        14 11 15 16</rect></_>
    <_>
      <rect>
        14 57 1 1</rect></_>
    <_>
      <rect>
        15 0 9 4</rect></_>
    <_>
      <rect>
        15 8 14 8</rect></_>
    <_>
      <rect>
        15 25 15 9</rect></_>
    <_>
      <rect>
        15 31 1 1</rect></_>
    <_>
      <rect>
        16 57 1 1</rect></_>
    <_>
      <rect>
        18 41 10 6</rect></_>
    <_>
      <rect>
        20 18 10 8</rect></_>
    <_>
      <rect>
        20 25 1 1</rect></_>
    <_>
      <rect>
        21 20 5 4</rect></_>
    <_>
      <rect>
        21 44 13 5</rect></_>
    <_>
      <rect>
        21 56 1 1</rect></_>
    <_>
      <rect>
        22 30 10 3</rect></_>
    <_>
      <rect>
        22 39 1 1</rect></_>
    <_>
      <rect>
        22 56 1 1</rect></_>
    <_>
      <rect>
        23 0 1 1</rect></_>
    <_>
      <rect>
        23 12 12 7</rect></_>
    <_>
      <rect>
        24 5 12 3</rect></_>
    <_>
      <rect>
        24 15 1 1</rect></_>
    <_>
      <rect>
        24 47 1 1</rect></_>
    <_>
      <rect>
        24 54 1 1</rect></_>
    <_>
      <rect>
        25 56 2 1</rect></_>
    <_>
      <rect>
        26 27 11 9</rect></_>
    <_>
      <rect>
        27 9 11 6</rect></_>
    <_>
      <rect>
        29 17 1 1</rect></_>
    <_>
      <rect>
        29 25 1 1</rect></_>
    <_>
      <rect>
        30 7 1 1</rect></_>
    <_>
      <rect>
        30 7 10 5</rect></_>
    <_>
      <rect>
        30 30 1 1</rect></_>
    <_>
      <rect>
        30 40 10 6</rect></_>
    <_>
      <rect>
        30 57 1 1</rect></_>
    <_>
      <rect>
        31 38 1 1</rect></_>
    <_>
      <rect>
        32 0 9 3</rect></_>
    <_>
      <rect>
        32 37 9 6</rect></_>
    <_>
      <rect>
        32 56 1 1</rect></_>
    <_>
      <rect>
        32 56 2 1</rect></_>
    <_>
      <rect>
        35 56 1 1</rect></_>
    <_>
      <rect>
        36 30 8 3</rect></_>
    <_>
      <rect>
        36 56 1 1</rect></_>
    <_>
      <rect>
        37 20 1 1</rect></_>
    <_>
      <rect>
        37 25 1 1</rect></_>
    <_>
      <rect>
        37 51 1 1</rect></_>
    <_>
      <rect>
        37 57 1 1</rect></_>
    <_>
      <rect>
        38 0 1 1</rect></_>
    <_>
      <rect>
        38 57 2 1</rect></_>
    <_>
      <rect>
        39 13 7 8</rect></_>
    <_>
      <rect>
        39 14 1 1</rect></_>
    <_>
      <rect>
        39 37 1 1</rect></_>
    <_>
      <rect>
        39 56 3 1</rect></_>
    <_>
      <rect>
        41 15 5 3</rect></_>
    <_>
      <rect>
        42 22 6 4</rect></_>
    <_>
      <rect>
        43 50 1 1</rect></_>
    <_>
      <rect>
        44 57 5 1</rect></_>
    <_>
      <rect>
        46 30 1 1</rect></_>
    <_>
      <rect>
        47 0 1 1</rect></_>
    <_>
      <rect>
        47 14 1 1</rect></_>
    <_>
      <rect>
        48 16 1 1</rect></_>
    <_>
      <rect>
        50 57 1 1</rect></_>
    <_>
      <rect>
        51 0 3 1</rect></_>
    <_>
      <rect>
        51 56 1 1</rect></_>
    <_>
      <rect>
        52 57 2 1</rect></_>
    <_>
      <rect>
        54 22 1 1</rect></_>
    <_>
      <rect>
        55 56 1 1</rect></_>
    <_>
      <rect>
        56 0 1 1</rect></_>
    <_>
      <rect>
        56 2 1 1</rect></_>
    <_>
      <rect>
        56 3 1 1</rect></_>
    <_>
      <rect>
        56 4 1 1</rect></_>
    <_>
      <rect>
        56 8 1 2</rect></_>
    <_>
      <rect>
        56 11 1 1</rect></_>
    <_>
      <rect>
        56 47 1 1</rect></_>
    <_>
      <rect>
        56 48 1 1</rect></_>
    <_>
      <rect>
        56 50 1 1</rect></_>
    <_>
      <rect>
        56 56 1 1</rect></_>
    <_>
      <rect>
        56 57 1 1</rect></_>
    <_>
      <rect>
        57 5 1 1</rect></_>
    <_>
      <rect>
        57 8 1 1</rect></_>
    <_>
      <rect>
        57 51 1 1</rect></_>
    <_>
      <rect>
        57 55 1 1</rect></_>
    <_>
      <rect>
        57 56 1 1</rect></_>
    <_>
      <rect>
        57 57 1 1</rect></_></features></cascade>
</opencv_storage>
