<?xml version="1.0"?>
<opencv_storage>
<stage9>
  <maxWeakCount>10</maxWeakCount>
  <stageThreshold>-1.4419771432876587e+00</stageThreshold>
  <weakClassifiers>
    <_>
      <internalNodes>
        0 -1 293804 -1 -201887373 -955809555 -337930797 -4457473
        -73301618 -1836425 -5121</internalNodes>
      <leafValues>
        -7.2048848867416382e-01 -3.7037037312984467e-02</leafValues></_>
    <_>
      <internalNodes>
        0 -1 23010 -8430193 -170421829 -254117994 -1360555557 -236784773
        -116616033 -69047495 -4530177</internalNodes>
      <leafValues>
        -3.5974830389022827e-01 2.8305265307426453e-01</leafValues></_>
    <_>
      <internalNodes>
        0 -1 7520 -162820398 1944799776 -1393529108 -1043722526
        1895813508 813038408 -1188303748 1378348870</internalNodes>
      <leafValues>
        -4.4145929813385010e-01 2.1445046365261078e-01</leafValues></_>
    <_>
      <internalNodes>
        0 -1 302663 649493815 538899327 -728640602 -492937187 -73703323
        -61701601 -223927725 783171573</internalNodes>
      <leafValues>
        -6.0349833965301514e-01 1.6293358802795410e-01</leafValues></_>
    <_>
      <internalNodes>
        0 -1 199796 -194884588 -1128426617 -1252605037 -709368495
        -1971139103 2055372878 1050257919 -1531290832</internalNodes>
      <leafValues>
        -3.4584367275238037e-01 2.9706168174743652e-01</leafValues></_>
    <_>
      <internalNodes>
        0 -1 34340 -40943874 1318046171 -116368982 -1594631698
        -550867615 1695091587 -1256701578 -177735213</internalNodes>
      <leafValues>
        -4.5702302455902100e-01 2.2944019734859467e-01</leafValues></_>
    <_>
      <internalNodes>
        0 -1 219870 929515056 1482112742 824060201 -1712745251 672727184
        -1946127389 -2116870743 1286185458</internalNodes>
      <leafValues>
        -4.6522140502929688e-01 2.2037686407566071e-01</leafValues></_>
    <_>
      <internalNodes>
        0 -1 198772 1611329682 1032071292 2010988899 1569510170
        1448038896 -1737549094 35573803 1683345680</internalNodes>
      <leafValues>
        -4.7132977843284607e-01 2.2452278435230255e-01</leafValues></_>
    <_>
      <internalNodes>
        0 -1 343969 -1210159221 -1415334513 -803938042 -1600189423
        2057878735 -71663438 -221323418 -1523132182</internalNodes>
      <leafValues>
        -3.8251221179962158e-01 2.8035956621170044e-01</leafValues></_>
    <_>
      <internalNodes>
        0 -1 13491 -1450474996 72462254 285572051 1018291188 1619850448
        -1197518586 676912565 541084737</internalNodes>
      <leafValues>
        -5.9632581472396851e-01 1.7981007695198059e-01</leafValues></_></weakClassifiers></stage9>
</opencv_storage>
