<?xml version="1.0"?>
<opencv_storage>
<stage6>
  <maxWeakCount>10</maxWeakCount>
  <stageThreshold>-1.4671683311462402e+00</stageThreshold>
  <weakClassifiers>
    <_>
      <internalNodes>
        0 -1 126228 -33793 -338167335 -8929265 -268479745 -343780353
        1536918499 -621807001 -71304261</internalNodes>
      <leafValues>
        -7.5838238000869751e-01 -2.6539754867553711e-01</leafValues></_>
    <_>
      <internalNodes>
        0 -1 260570 -2144331496 -1169162538 -909064235 -18998296
        -1060157452 -74765883 -1731396055 -1157989004</internalNodes>
      <leafValues>
        -5.5606532096862793e-01 6.4712561666965485e-02</leafValues></_>
    <_>
      <internalNodes>
        0 -1 348098 970743039 -270609207 -1955146302 -1430040131
        -7770497 2073273483 -74520197 2129688561</internalNodes>
      <leafValues>
        -5.3723371028900146e-01 1.7652617394924164e-01</leafValues></_>
    <_>
      <internalNodes>
        0 -1 297452 -641745134 1371562838 1092098164 425991938
        2018507180 1221633458 1617416624 1085797635</internalNodes>
      <leafValues>
        -3.8692158460617065e-01 2.9223132133483887e-01</leafValues></_>
    <_>
      <internalNodes>
        0 -1 123362 380418824 -1277930397 808062704 1052965 -1050425205
        -1432210992 -985204584 309851162</internalNodes>
      <leafValues>
        -5.0957059860229492e-01 2.0364207029342651e-01</leafValues></_>
    <_>
      <internalNodes>
        0 -1 34164 483819109 -314758196 731207485 -170569220 -1962970844
        1869490183 621302564 -656127</internalNodes>
      <leafValues>
        -4.2590969800949097e-01 2.5155571103096008e-01</leafValues></_>
    <_>
      <internalNodes>
        0 -1 8026 -873596930 1062081415 478518681 94522830 1920993453
        859257246 1354852430 -245301284</internalNodes>
      <leafValues>
        -4.0254193544387817e-01 2.7360731363296509e-01</leafValues></_>
    <_>
      <internalNodes>
        0 -1 316092 -676364985 1437871159 1995227057 942305020
        -536918070 526352358 -29440999 -394537323</internalNodes>
      <leafValues>
        -3.0661043524742126e-01 3.7330222129821777e-01</leafValues></_>
    <_>
      <internalNodes>
        0 -1 11986 -848322141 -1828087899 352424127 364790726 722455508
        730339479 -1815419938 -2004597967</internalNodes>
      <leafValues>
        -3.8086485862731934e-01 2.9933357238769531e-01</leafValues></_>
    <_>
      <internalNodes>
        0 -1 336220 -380579244 -1478496232 -1735433902 -633539107
        -1070966995 1753312802 -2082018712 -1817644899</internalNodes>
      <leafValues>
        -3.8693815469741821e-01 3.0102890729904175e-01</leafValues></_></weakClassifiers></stage6>
</opencv_storage>
