<?xml version="1.0"?>
<opencv_storage>
<stage5>
  <maxWeakCount>10</maxWeakCount>
  <stageThreshold>-1.4796884059906006e+00</stageThreshold>
  <weakClassifiers>
    <_>
      <internalNodes>
        0 -1 11780 -1208484489 -268578355 -100958293 -268963345
        -141821325 -538984389 -279709 -627</internalNodes>
      <leafValues>
        -7.7217906713485718e-01 -2.9840973019599915e-01</leafValues></_>
    <_>
      <internalNodes>
        0 -1 342784 -1175048321 -1366688929 -116207282 -295741811
        -1664491653 1657001102 -82907534 -151192641</internalNodes>
      <leafValues>
        -4.9507728219032288e-01 1.4503835141658783e-01</leafValues></_>
    <_>
      <internalNodes>
        0 -1 301284 202389281 777788790 -585420817 865745280 596537324
        -1148196407 -1148429132 -1426187024</internalNodes>
      <leafValues>
        -5.1720041036605835e-01 2.1093809604644775e-01</leafValues></_>
    <_>
      <internalNodes>
        0 -1 348099 747994869 -1403519713 -644884754 -427870497
        -203247045 713863883 -138609809 666660607</internalNodes>
      <leafValues>
        -5.5281764268875122e-01 2.0627745985984802e-01</leafValues></_>
    <_>
      <internalNodes>
        0 -1 11785 1788337699 -1343975074 -1878408732 -318778942
        1980198727 -139311053 1384842084 1985213015</internalNodes>
      <leafValues>
        -5.9284144639968872e-01 2.2335244715213776e-01</leafValues></_>
    <_>
      <internalNodes>
        0 -1 16304 -547955900 -145713354 -783754171 130134544 -499081046
        -6901164 -1056653110 1698941215</internalNodes>
      <leafValues>
        -3.9402911067008972e-01 2.9901212453842163e-01</leafValues></_>
    <_>
      <internalNodes>
        0 -1 50762 -153421074 -25545910 1448268749 860000644 156537835
        -1911339444 700784940 -54942137</internalNodes>
      <leafValues>
        -3.3790716528892517e-01 3.6004021763801575e-01</leafValues></_>
    <_>
      <internalNodes>
        0 -1 45411 -1143450023 -277364277 -565118649 -345076129
        -245925077 -1145012213 -337921193 -1224933391</internalNodes>
      <leafValues>
        -3.9876267313957214e-01 3.0935129523277283e-01</leafValues></_>
    <_>
      <internalNodes>
        0 -1 225540 1846777940 1376897342 -2016348208 578824972
        -372248241 1812881697 2004341716 1423759111</internalNodes>
      <leafValues>
        -5.8163440227508545e-01 2.2584317624568939e-01</leafValues></_>
    <_>
      <internalNodes>
        0 -1 308507 -26739693 -675456241 -151553 -651821150 -1459694131
        -1661075907 1744680943 -262938385</internalNodes>
      <leafValues>
        -2.4583528935909271e-01 5.3692817687988281e-01</leafValues></_></weakClassifiers></stage5>
</opencv_storage>
