<?xml version="1.0"?>
<opencv_storage>
<stage3>
  <maxWeakCount>8</maxWeakCount>
  <stageThreshold>-1.7483474016189575e+00</stageThreshold>
  <weakClassifiers>
    <_>
      <internalNodes>
        0 -1 22972 -4194305 -268438548 -593791121 -270535681 -71828741
        -71574871 -802957 -1287</internalNodes>
      <leafValues>
        -7.4863648414611816e-01 -7.3756434023380280e-02</leafValues></_>
    <_>
      <internalNodes>
        0 -1 302586 -2014283423 -1883384523 -619978754 -354519045
        -825467907 -487720449 -1678523497 -22390691</internalNodes>
      <leafValues>
        -5.3991311788558960e-01 1.8488679826259613e-01</leafValues></_>
    <_>
      <internalNodes>
        0 -1 348088 649869669 -1362399749 -447744418 -84087908
        -1146569993 -84450597 -4294157 -1078450695</internalNodes>
      <leafValues>
        -4.9245080351829529e-01 2.7684348821640015e-01</leafValues></_>
    <_>
      <internalNodes>
        0 -1 7835 -12060706 -1288375202 -1932108976 -1868131738
        -831413024 1608772675 1444246292 1088545858</internalNodes>
      <leafValues>
        -6.2417191267013550e-01 2.2587987780570984e-01</leafValues></_>
    <_>
      <internalNodes>
        0 -1 259540 -1867223795 -1417277324 -377103649 -6523075
        -1329673735 -1074823141 -1156759884 -1564603947</internalNodes>
      <leafValues>
        -4.0121081471443176e-01 3.6784043908119202e-01</leafValues></_>
    <_>
      <internalNodes>
        0 -1 135684 1761439601 -439397409 -703995986 -889193555
        -1090356633 -206911429 -418447564 -134587579</internalNodes>
      <leafValues>
        -4.2191576957702637e-01 3.4734591841697693e-01</leafValues></_>
    <_>
      <internalNodes>
        0 -1 242442 -219676684 1395109392 1419246293 -1793530246
        -1959023964 -1735198196 -992232971 1078253635</internalNodes>
      <leafValues>
        -4.8611295223236084e-01 3.0303516983985901e-01</leafValues></_>
    <_>
      <internalNodes>
        0 -1 117431 -1764768009 -539811376 -1601711566 -1077481529
        -280299009 -1198692127 -817422408 1081404181</internalNodes>
      <leafValues>
        -4.4218668341636658e-01 3.4415447711944580e-01</leafValues></_></weakClassifiers></stage3>
</opencv_storage>
