<?xml version="1.0"?>
<opencv_storage>
<stage14>
  <maxWeakCount>11</maxWeakCount>
  <stageThreshold>-1.5570060014724731e+00</stageThreshold>
  <weakClassifiers>
    <_>
      <internalNodes>
        0 -1 308515 -69209381 -73411894 -787902243 -183250053 -242372418
        -1157480008 -7341061 -72358145</internalNodes>
      <leafValues>
        -7.0735967159271240e-01 1.7647059261798859e-01</leafValues></_>
    <_>
      <internalNodes>
        0 -1 332760 -96212022 -372780818 1921143106 1633930064
        -1724019248 1133429917 -617876862 -674498118</internalNodes>
      <leafValues>
        -3.5952335596084595e-01 2.5390523672103882e-01</leafValues></_>
    <_>
      <internalNodes>
        0 -1 347118 480795985 1027372168 -989015638 811492189 -493958963
        -1164263287 -24614891 511195377</internalNodes>
      <leafValues>
        -5.9268009662628174e-01 1.4776962995529175e-01</leafValues></_>
    <_>
      <internalNodes>
        0 -1 267879 512425886 16013536 -635932900 222464088 35383274
        308567176 -957575156 140004433</internalNodes>
      <leafValues>
        -6.0706543922424316e-01 1.3973563909530640e-01</leafValues></_>
    <_>
      <internalNodes>
        0 -1 306794 780086243 -295964405 -728154078 1759817947
        -339484833 831242242 -68690400 1244564310</internalNodes>
      <leafValues>
        -5.1905882358551025e-01 1.8940529227256775e-01</leafValues></_>
    <_>
      <internalNodes>
        0 -1 14851 -795632574 1074708716 -66501594 -2104181534
        -880115116 337355395 -219733150 1693939414</internalNodes>
      <leafValues>
        -7.4190145730972290e-01 1.4740537106990814e-01</leafValues></_>
    <_>
      <internalNodes>
        0 -1 153385 -177392604 1802477704 -1993260342 -319035246
        -205209041 2068578562 709511270 1962802300</internalNodes>
      <leafValues>
        -4.6365326642990112e-01 1.9356159865856171e-01</leafValues></_>
    <_>
      <internalNodes>
        0 -1 80879 -778243626 -1374156102 199221112 925311455
        -1830190380 159342654 1548061572 -1975709670</internalNodes>
      <leafValues>
        -4.2478322982788086e-01 2.3914873600006104e-01</leafValues></_>
    <_>
      <internalNodes>
        0 -1 320209 -779519739 -1320486066 890627411 945238226
        -170073972 -1122975357 721781768 281530723</internalNodes>
      <leafValues>
        -3.7578734755516052e-01 2.8267514705657959e-01</leafValues></_>
    <_>
      <internalNodes>
        0 -1 97299 268053604 115085444 -1054723759 119337029 719733284
        1619017728 586969405 -1432997115</internalNodes>
      <leafValues>
        -6.2129676342010498e-01 1.7156329751014709e-01</leafValues></_>
    <_>
      <internalNodes>
        0 -1 246250 -119599054 1012178223 -1803471095 1143918006
        -842987866 458302129 542582667 1720511232</internalNodes>
      <leafValues>
        -4.9956169724464417e-01 2.0487302541732788e-01</leafValues></_></weakClassifiers></stage14>
</opencv_storage>
