<?xml version="1.0"?>
<opencv_storage>
<stage2>
  <maxWeakCount>7</maxWeakCount>
  <stageThreshold>-1.8028383255004883e+00</stageThreshold>
  <weakClassifiers>
    <_>
      <internalNodes>
        0 -1 56032 -1210089601 -275775597 -1077948433 -268435473 -37017
        -303171397 -335610569 -16387</internalNodes>
      <leafValues>
        -8.1105363368988037e-01 -1.9609582424163818e-01</leafValues></_>
    <_>
      <internalNodes>
        0 -1 347509 771063093 -1359512195 -577510622 -323028577
        -67830145 -360714933 -469827729 1056766973</internalNodes>
      <leafValues>
        -7.2176998853683472e-01 9.6658319234848022e-02</leafValues></_>
    <_>
      <internalNodes>
        0 -1 347488 783646517 -1431675461 -6293799 -1360070407
        -570427531 2046788490 -83951723 -1094909955</internalNodes>
      <leafValues>
        -5.3527820110321045e-01 3.0872210860252380e-01</leafValues></_>
    <_>
      <internalNodes>
        0 -1 210014 788414461 -1353189387 -70852630 -285573218 939294519
        1274802779 -1176569038 -1078272556</internalNodes>
      <leafValues>
        -5.1135462522506714e-01 3.1795006990432739e-01</leafValues></_>
    <_>
      <internalNodes>
        0 -1 310918 -1349553337 795752793 -117457246 -425534522
        -1917520513 1339800157 -1348471004 620164093</internalNodes>
      <leafValues>
        -6.3154083490371704e-01 2.6404458284378052e-01</leafValues></_>
    <_>
      <internalNodes>
        0 -1 347069 721178109 -1559243905 -623914543 -120273099
        -1446073369 2141899487 -1160881680 -1105437579</internalNodes>
      <leafValues>
        -5.8894509077072144e-01 2.7257922291755676e-01</leafValues></_>
    <_>
      <internalNodes>
        0 -1 26138 -492314622 1834493509 822169894 874758487 356315316
        -363837267 349615275 1153660867</internalNodes>
      <leafValues>
        -5.6005716323852539e-01 2.8309032320976257e-01</leafValues></_></weakClassifiers></stage2>
</opencv_storage>
