<?xml version="1.0"?>
<opencv_storage>
<stage8>
  <maxWeakCount>10</maxWeakCount>
  <stageThreshold>-1.5844502449035645e+00</stageThreshold>
  <weakClassifiers>
    <_>
      <internalNodes>
        0 -1 346918 -638066721 -77613671 -784250899 1692662235
        -587559041 -352740134 -605291877 -538973477</internalNodes>
      <leafValues>
        -7.3634207248687744e-01 -1.6949152946472168e-01</leafValues></_>
    <_>
      <internalNodes>
        0 -1 107364 1008435047 -346082469 -65799442 -812155442
        -1281664641 -609017607 -1346903709 1941167925</internalNodes>
      <leafValues>
        -5.5733108520507813e-01 7.1107834577560425e-02</leafValues></_>
    <_>
      <internalNodes>
        0 -1 346959 1007976429 -1897079828 -640453677 -1503726697
        -1042474027 -388906845 -1747291339 706248053</internalNodes>
      <leafValues>
        -6.6085708141326904e-01 1.3736087083816528e-01</leafValues></_>
    <_>
      <internalNodes>
        0 -1 186291 947797808 -2091353506 -461008260 807704318
        -1546709571 1331962069 818247128 269485688</internalNodes>
      <leafValues>
        -6.4980715513229370e-01 1.6608931124210358e-01</leafValues></_>
    <_>
      <internalNodes>
        0 -1 147759 -1055145124 -605979752 -550746613 -1889119599
        1193301236 277681148 1884409334 1225218046</internalNodes>
      <leafValues>
        -4.3670809268951416e-01 2.2504863142967224e-01</leafValues></_>
    <_>
      <internalNodes>
        0 -1 144247 1871806304 1519409895 -732924930 -2119091274
        1910964200 -778957166 1981757598 -155246798</internalNodes>
      <leafValues>
        -3.3921134471893311e-01 3.0489304661750793e-01</leafValues></_>
    <_>
      <internalNodes>
        0 -1 264017 444577282 489929107 231735603 616962430 1739244744
        1005994618 461984159 275373385</internalNodes>
      <leafValues>
        -4.6729224920272827e-01 2.2040148079395294e-01</leafValues></_>
    <_>
      <internalNodes>
        0 -1 273922 -1895825713 -1742741227 30777896 43178366 2085346069
        51485503 811744596 -1336551546</internalNodes>
      <leafValues>
        -4.3169319629669189e-01 2.3799043893814087e-01</leafValues></_>
    <_>
      <internalNodes>
        0 -1 75882 1191181162 -1158045755 2147336157 -516243811
        -940161348 -929269889 -1319055172 -642342165</internalNodes>
      <leafValues>
        -2.8892976045608521e-01 3.7663212418556213e-01</leafValues></_>
    <_>
      <internalNodes>
        0 -1 12170 775822356 987406963 1103448964 -2025875670
        -1446063630 -1564580682 1302988682 1507920</internalNodes>
      <leafValues>
        -6.3236069679260254e-01 1.7431789636611938e-01</leafValues></_></weakClassifiers></stage8>
</opencv_storage>
