<?xml version="1.0"?>
<opencv_storage>
<stage10>
  <maxWeakCount>10</maxWeakCount>
  <stageThreshold>-1.4946360588073730e+00</stageThreshold>
  <weakClassifiers>
    <_>
      <internalNodes>
        0 -1 217120 -672146774 -604577318 -1035425316 -716760162
        -1430209662 192979519 -205260269 -67396913</internalNodes>
      <leafValues>
        -7.4836766719818115e-01 -2.6894864439964294e-01</leafValues></_>
    <_>
      <internalNodes>
        0 -1 347495 747130093 616432586 -720674329 -254965281 -80880653
        -573599333 -37592075 721182077</internalNodes>
      <leafValues>
        -6.5560090541839600e-01 9.5091369003057480e-03</leafValues></_>
    <_>
      <internalNodes>
        0 -1 327449 -397164279 584010436 -392371667 1753011599
        -921545202 -275182741 -1207276769 344979023</internalNodes>
      <leafValues>
        -4.7645020484924316e-01 1.7321784794330597e-01</leafValues></_>
    <_>
      <internalNodes>
        0 -1 333740 -360738150 -230011734 1054712624 1352215786
        -2027266430 -1955711075 -293608790 -615782006</internalNodes>
      <leafValues>
        -2.0701208710670471e-01 4.4664353132247925e-01</leafValues></_>
    <_>
      <internalNodes>
        0 -1 273067 -71137342 -721446405 1073167901 -1857634708
        -319640440 -34021513 -411846914 -83122198</internalNodes>
      <leafValues>
        -2.3167991638183594e-01 4.5920225977897644e-01</leafValues></_>
    <_>
      <internalNodes>
        0 -1 144520 660472165 797173023 1434579144 652136775 1065901055
        1625507894 -557113994 1056467892</internalNodes>
      <leafValues>
        -6.6131782531738281e-01 1.8108245730400085e-01</leafValues></_>
    <_>
      <internalNodes>
        0 -1 55132 -18396667 606347497 -1785544408 2124060105 -368291572
        -217882353 -1347906908 -458185272</internalNodes>
      <leafValues>
        -4.3742075562477112e-01 2.2932586073875427e-01</leafValues></_>
    <_>
      <internalNodes>
        0 -1 400 1023150157 -1177838129 -805089850 -423536261 1889038096
        1616414219 -879085202 378039293</internalNodes>
      <leafValues>
        -5.8452802896499634e-01 1.6030605137348175e-01</leafValues></_>
    <_>
      <internalNodes>
        0 -1 49157 101755558 576233863 360277386 820573840 723152867
        204791903 1547640614 1343703414</internalNodes>
      <leafValues>
        -6.1001151800155640e-01 1.6393527388572693e-01</leafValues></_>
    <_>
      <internalNodes>
        0 -1 231220 -1903813071 -790869935 -754723846 -10530479
        -1295846767 -366804317 -1654490648 -1691717556</internalNodes>
      <leafValues>
        -3.7963956594467163e-01 2.7715274691581726e-01</leafValues></_></weakClassifiers></stage10>
</opencv_storage>
