<?xml version="1.0"?>
<opencv_storage>
<stage13>
  <maxWeakCount>10</maxWeakCount>
  <stageThreshold>-1.3363839387893677e+00</stageThreshold>
  <weakClassifiers>
    <_>
      <internalNodes>
        0 -1 267000 -245370117 -672535846 -767428129 -69221665
        -103030118 -67501880 -1155531781 -67112469</internalNodes>
      <leafValues>
        -7.0218282938003540e-01 2.8323698043823242e-01</leafValues></_>
    <_>
      <internalNodes>
        0 -1 347605 783581109 -880353441 -715834513 -356237217
        -303273894 403669643 -103106762 653541297</internalNodes>
      <leafValues>
        -6.9338274002075195e-01 2.3050636518746614e-03</leafValues></_>
    <_>
      <internalNodes>
        0 -1 347484 1047035245 -2097876472 -83570339 480061895
        -225926680 -376791013 -1567032659 -19338907</internalNodes>
      <leafValues>
        -3.9424625039100647e-01 2.1660155057907104e-01</leafValues></_>
    <_>
      <internalNodes>
        0 -1 86011 -689307126 -649530666 21048328 1371572356 -1974853568
        -1543142848 975107698 -736712118</internalNodes>
      <leafValues>
        -3.2684171199798584e-01 2.9990592598915100e-01</leafValues></_>
    <_>
      <internalNodes>
        0 -1 27460 -821628353 -1067038667 804970063 2113578472
        1341688008 -270239883 2096563931 -903938841</internalNodes>
      <leafValues>
        -2.6797002553939819e-01 3.7835213541984558e-01</leafValues></_>
    <_>
      <internalNodes>
        0 -1 310342 -1735738482 1114447762 -1359069494 1402568104
        -405501034 117374940 1063081951 -742140024</internalNodes>
      <leafValues>
        -2.9697984457015991e-01 3.5085886716842651e-01</leafValues></_>
    <_>
      <internalNodes>
        0 -1 2426 536882081 -1635617241 25197011 -623265594 -1467282032
        2049297083 1085751905 170148417</internalNodes>
      <leafValues>
        -5.6594014167785645e-01 1.8284338712692261e-01</leafValues></_>
    <_>
      <internalNodes>
        0 -1 20 1373666572 -1638006782 1949408324 -526098467 2046944080
        305767368 1359627533 540562219</internalNodes>
      <leafValues>
        -6.1601394414901733e-01 1.6311496496200562e-01</leafValues></_>
    <_>
      <internalNodes>
        0 -1 216280 -405896626 -68098652 402587387 -790397508 -402868890
        -587894788 1602058188 -76573554</internalNodes>
      <leafValues>
        -2.6658064126968384e-01 4.1060084104537964e-01</leafValues></_>
    <_>
      <internalNodes>
        0 -1 22972 -1618723539 -1558712108 -91008852 -269602673
        -1431866657 2127286931 -90539165 1593585077</internalNodes>
      <leafValues>
        -5.3615128993988037e-01 2.2079837322235107e-01</leafValues></_></weakClassifiers></stage13>
</opencv_storage>
