<?xml version="1.0"?>
<opencv_storage>
<stage1>
  <maxWeakCount>8</maxWeakCount>
  <stageThreshold>-1.8365434408187866e+00</stageThreshold>
  <weakClassifiers>
    <_>
      <internalNodes>
        0 -1 97333 -1073774737 -336593921 -228065917 -403702813
        -491913397 -637579585 -83906729 -269451</internalNodes>
      <leafValues>
        -8.0881935358047485e-01 -2.7782100439071655e-01</leafValues></_>
    <_>
      <internalNodes>
        0 -1 298524 804990799 -1397237153 -1097336217 -1367435810
        2078242683 -35720833 -688261353 -16850955</internalNodes>
      <leafValues>
        -5.6791055202484131e-01 1.8358533084392548e-01</leafValues></_>
    <_>
      <internalNodes>
        0 -1 347508 782509937 -1232181793 -2663490 -1461815862 -74481801
        989573599 -272662668 754745197</internalNodes>
      <leafValues>
        -8.0821222066879272e-01 1.6380304098129272e-01</leafValues></_>
    <_>
      <internalNodes>
        0 -1 14883 -217525142 -245841572 -1873219303 -170823146
        -517163890 -1843379584 1800700146 1179898974</internalNodes>
      <leafValues>
        -5.0281608104705811e-01 3.1004527211189270e-01</leafValues></_>
    <_>
      <internalNodes>
        0 -1 170496 733962021 -1394642413 -1813099089 -1426858009
        -1148066 -547400389 -2293915 -54854795</internalNodes>
      <leafValues>
        -4.7312030196189880e-01 3.2126677036285400e-01</leafValues></_>
    <_>
      <internalNodes>
        0 -1 341017 -1512372249 -1595213401 -1055483993 -1595027238
        -218170497 1639916539 -353387657 -419508325</internalNodes>
      <leafValues>
        -3.9392077922821045e-01 3.7830045819282532e-01</leafValues></_>
    <_>
      <internalNodes>
        0 -1 300850 -1501030287 528445528 -632122021 -233135138
        -1980965551 -217320789 -893179450 -1342562892</internalNodes>
      <leafValues>
        -4.4247239828109741e-01 3.3771824836730957e-01</leafValues></_>
    <_>
      <internalNodes>
        0 -1 140028 1344262278 1563490676 1187082270 1430504605
        -758402894 -32239615 405071947 -1067977953</internalNodes>
      <leafValues>
        -3.9636966586112976e-01 3.7844273447990417e-01</leafValues></_></weakClassifiers></stage1>
</opencv_storage>
