<?xml version="1.0"?>
<opencv_storage>
<stage12>
  <maxWeakCount>11</maxWeakCount>
  <stageThreshold>-1.5349724292755127e+00</stageThreshold>
  <weakClassifiers>
    <_>
      <internalNodes>
        0 -1 332180 -538968929 -245636188 -104093445 -2491749 -73665793
        -1101821776 -811085138 -70262021</internalNodes>
      <leafValues>
        -7.0858895778656006e-01 1.4406779408454895e-01</leafValues></_>
    <_>
      <internalNodes>
        0 -1 345862 -92033008 -7143178 892207550 -1822555686 -215371549
        -1031648893 25940959 -791444562</internalNodes>
      <leafValues>
        -3.8226753473281860e-01 2.2191759943962097e-01</leafValues></_>
    <_>
      <internalNodes>
        0 -1 107346 -1187095483 1809830543 -2003577906 -1495273035
        -93889665 1535578527 -86050188 1005928432</internalNodes>
      <leafValues>
        -5.0680464506149292e-01 1.7968437075614929e-01</leafValues></_>
    <_>
      <internalNodes>
        0 -1 66501 735571798 1615165718 1300516061 -1277460814
        1650154324 -1005507278 1724637190 1078059474</internalNodes>
      <leafValues>
        -4.8132026195526123e-01 1.8490627408027649e-01</leafValues></_>
    <_>
      <internalNodes>
        0 -1 346978 435968124 -832228378 -629026432 -1428694564
        -472041615 -242581373 1733043012 217873465</internalNodes>
      <leafValues>
        -6.9536310434341431e-01 1.5944987535476685e-01</leafValues></_>
    <_>
      <internalNodes>
        0 -1 206715 -834529259 -1168762406 567409527 -26655953
        2032236976 -628136725 1038076315 149799937</internalNodes>
      <leafValues>
        -4.0298306941986084e-01 2.4156560003757477e-01</leafValues></_>
    <_>
      <internalNodes>
        0 -1 119948 -133511460 1786138507 373870435 1845217739
        1907186217 -1151275845 813646139 -903195993</internalNodes>
      <leafValues>
        -3.4817966818809509e-01 2.8832584619522095e-01</leafValues></_>
    <_>
      <internalNodes>
        0 -1 27870 -919614545 1907834733 -12812442 -174498009 1203356892
        -824180873 -548047111 -100667849</internalNodes>
      <leafValues>
        -2.2794362902641296e-01 4.6651709079742432e-01</leafValues></_>
    <_>
      <internalNodes>
        0 -1 215472 -1005914512 -1549864044 67655994 -2051845978
        -1152793416 1016303895 1477361736 -2055870899</internalNodes>
      <leafValues>
        -3.9538010954856873e-01 2.7107793092727661e-01</leafValues></_>
    <_>
      <internalNodes>
        0 -1 115263 -385978602 -218467569 -1027008035 1100127060
        -1747850602 511849103 1369792652 1202035274</internalNodes>
      <leafValues>
        -3.8051360845565796e-01 2.7050030231475830e-01</leafValues></_>
    <_>
      <internalNodes>
        0 -1 302670 -5430 -367760340 -21123358 -1361117569 -679482192
        897400806 1883174215 -160462082</internalNodes>
      <leafValues>
        -2.7353525161743164e-01 3.7566867470741272e-01</leafValues></_></weakClassifiers></stage12>
</opencv_storage>
