<?xml version="1.0"?>
<opencv_storage>
<stage0>
  <maxWeakCount>7</maxWeakCount>
  <stageThreshold>-1.7033380270004272e+00</stageThreshold>
  <weakClassifiers>
    <_>
      <internalNodes>
        0 -1 82396 -204999714 -7276390 -1845437491 1973285842 -795967284
        -1147158528 -249498930 1892938179</internalNodes>
      <leafValues>
        -8.3905392885208130e-01 -2.1830457448959351e-01</leafValues></_>
    <_>
      <internalNodes>
        0 -1 118915 -722404136 -138350456 -652942882 -699868784
        -1337929476 -1457581664 954132732 1073861239</internalNodes>
      <leafValues>
        -7.4531280994415283e-01 1.2025304883718491e-01</leafValues></_>
    <_>
      <internalNodes>
        0 -1 34566 -688924973 -1080103994 -1507849654 -1085114558
        -343676022 -686286402 1794082856 1078325990</internalNodes>
      <leafValues>
        -4.8224607110023499e-01 3.4490752220153809e-01</leafValues></_>
    <_>
      <internalNodes>
        0 -1 20955 -87035150 462733450 -1790928916 560480780 1532797640
        16869520 1103656256 1347535042</internalNodes>
      <leafValues>
        -6.5442913770675659e-01 2.4333092570304871e-01</leafValues></_>
    <_>
      <internalNodes>
        0 -1 15474 -766719822 -1711036278 555359517 961771668
        -1097012568 -1165932543 1233283561 1264804467</internalNodes>
      <leafValues>
        -4.4513675570487976e-01 3.6801841855049133e-01</leafValues></_>
    <_>
      <internalNodes>
        0 -1 87303 -1565319377 -269615105 -151060950 1878261750
        -1644814498 -805306529 -302008490 -671615340</internalNodes>
      <leafValues>
        -3.9555576443672180e-01 4.3806153535842896e-01</leafValues></_>
    <_>
      <internalNodes>
        0 -1 324425 -1971171912 1016857165 -787312420 -1093779072
        1917442488 2030266393 -649195076 -164439212</internalNodes>
      <leafValues>
        -4.7326821088790894e-01 3.4795951843261719e-01</leafValues></_></weakClassifiers></stage0>
</opencv_storage>
