<?xml version="1.0"?>
<opencv_storage>
<stage4>
  <maxWeakCount>11</maxWeakCount>
  <stageThreshold>-1.2688353061676025e+00</stageThreshold>
  <weakClassifiers>
    <_>
      <internalNodes>
        0 -1 346326 -102765121 -67148921 -64752177 -354451301 -203455637
        -99374935 -204605925 -1025</internalNodes>
      <leafValues>
        -6.3577902317047119e-01 1.5657620131969452e-01</leafValues></_>
    <_>
      <internalNodes>
        0 -1 47125 -28579582 -192432183 -926343000 43184894 -1461795128
        1145176690 1121013844 1354874674</internalNodes>
      <leafValues>
        -6.6361612081527710e-01 9.9952988326549530e-02</leafValues></_>
    <_>
      <internalNodes>
        0 -1 116805 211438385 1809676967 -711264596 -465192187
        -1208456406 -1014299713 -124866235 1853387508</internalNodes>
      <leafValues>
        -5.7323449850082397e-01 1.7381048202514648e-01</leafValues></_>
    <_>
      <internalNodes>
        0 -1 24724 -193673990 1393070420 1090525525 -683651052 -90377796
        -773715840 -784095208 1131464034</internalNodes>
      <leafValues>
        -4.9885147809982300e-01 2.3497511446475983e-01</leafValues></_>
    <_>
      <internalNodes>
        0 -1 262530 803175789 265968323 -780041819 -1368243977
        1910789225 -34373445 -107744755 -152536603</internalNodes>
      <leafValues>
        -4.4170260429382324e-01 2.7280026674270630e-01</leafValues></_>
    <_>
      <internalNodes>
        0 -1 23031 -1352717 -670733316 -16820378 -487931913 2147483462
        1039658858 -1888026855 -497098829</internalNodes>
      <leafValues>
        -3.1087034940719604e-01 3.8435494899749756e-01</leafValues></_>
    <_>
      <internalNodes>
        0 -1 15381 -367269334 2135270840 -1958125 2068171684 -906748750
        -1074724900 1135900108 1230488579</internalNodes>
      <leafValues>
        -3.3216896653175354e-01 3.4654846787452698e-01</leafValues></_>
    <_>
      <internalNodes>
        0 -1 113155 -1034708137 -1813042050 -285720867 1508961218
        1568529663 -17859212 -327101653 -380643822</internalNodes>
      <leafValues>
        -2.3796091973781586e-01 4.9595835804939270e-01</leafValues></_>
    <_>
      <internalNodes>
        0 -1 194115 -289782447 -580500843 -788511518 -118619942
        -208930688 -1434041847 -2103784528 -1171372512</internalNodes>
      <leafValues>
        -3.7477362155914307e-01 3.3201736211776733e-01</leafValues></_>
    <_>
      <internalNodes>
        0 -1 265432 -1005 -1674183469 1036867409 880934575 -94636824
        511638546 -1224477014 -332946721</internalNodes>
      <leafValues>
        -2.6030036807060242e-01 4.7597804665565491e-01</leafValues></_>
    <_>
      <internalNodes>
        0 -1 347531 760536557 -1471483225 -685685989 -1965899363
        -879533323 -649488245 1284198421 1878817232</internalNodes>
      <leafValues>
        -5.6409639120101929e-01 2.2343634068965912e-01</leafValues></_></weakClassifiers></stage4>
</opencv_storage>
