<?xml version="1.0"?>
<opencv_storage>
<stage7>
  <maxWeakCount>11</maxWeakCount>
  <stageThreshold>-1.3043111562728882e+00</stageThreshold>
  <weakClassifiers>
    <_>
      <internalNodes>
        0 -1 330395 -2013265925 -671624813 1371919274 -486649430
        -291767873 -98914230 -103040130 -262149</internalNodes>
      <leafValues>
        -6.5706974267959595e-01 -5.9431523084640503e-02</leafValues></_>
    <_>
      <internalNodes>
        0 -1 306261 -727988344 -246538110 1343260852 -669374132
        -763163940 -861175296 1629168264 -648314738</internalNodes>
      <leafValues>
        -3.3148086071014404e-01 2.8715711832046509e-01</leafValues></_>
    <_>
      <internalNodes>
        0 -1 348098 756834461 -1482761277 -1862187569 -1428790627
        -224499191 1803797227 1938303093 934836213</internalNodes>
      <leafValues>
        -6.5973240137100220e-01 1.4873887598514557e-01</leafValues></_>
    <_>
      <internalNodes>
        0 -1 292732 -211847664 1428206943 -1609461423 1232458506
        2055960716 -2144133110 -332521068 3602055</internalNodes>
      <leafValues>
        -3.8159048557281494e-01 2.6897186040878296e-01</leafValues></_>
    <_>
      <internalNodes>
        0 -1 330398 2058342655 1871835931 -654276210 -1026249777
        -204477866 -1948444533 -609332869 251091819</internalNodes>
      <leafValues>
        -3.5981267690658569e-01 2.7411386370658875e-01</leafValues></_>
    <_>
      <internalNodes>
        0 -1 2930 -379869875 -331340434 278358422 -1249787623 -305522035
        -1601497016 2125399007 1358428071</internalNodes>
      <leafValues>
        -3.3866876363754272e-01 3.0306470394134521e-01</leafValues></_>
    <_>
      <internalNodes>
        0 -1 21443 -557849817 1987012218 -17929094 -2115983392
        1190514207 1182039925 1718035899 -768121325</internalNodes>
      <leafValues>
        -3.1399792432785034e-01 3.3501297235488892e-01</leafValues></_>
    <_>
      <internalNodes>
        0 -1 97146 -399213291 -1701640059 -201313895 -1847858878
        -1521659537 -1427953141 -483824925 -1162048452</internalNodes>
      <leafValues>
        -3.4850826859474182e-01 3.1571671366691589e-01</leafValues></_>
    <_>
      <internalNodes>
        0 -1 296009 -797063609 325424723 -1225261915 414834517
        1436104182 981462899 -1784665108 -1978863985</internalNodes>
      <leafValues>
        -3.0129921436309814e-01 3.7294673919677734e-01</leafValues></_>
    <_>
      <internalNodes>
        0 -1 259130 -1104557742 -1247915582 -1059847481 -664331652
        2046779392 -1635096568 430262064 -636159536</internalNodes>
      <leafValues>
        -4.0521979331970215e-01 2.8561526536941528e-01</leafValues></_>
    <_>
      <internalNodes>
        0 -1 346794 804260377 -455962482 1342711824 1918941844 144753570
        -1168113016 1855580898 -740255568</internalNodes>
      <leafValues>
        -4.7513887286186218e-01 2.4063202738761902e-01</leafValues></_></weakClassifiers></stage7>
</opencv_storage>
