<?xml version="1.0"?>
<opencv_storage>
<stage5>
  <maxWeakCount>10</maxWeakCount>
  <stageThreshold>-1.2717368602752686e+00</stageThreshold>
  <weakClassifiers>
    <_>
      <internalNodes>
        0 -1 337476 -1348468737 -471864585 -1584162329 -358623013
        -222563545 -617897541 -1952206321 -16785921</internalNodes>
      <leafValues>
        -6.6951382160186768e-01 -7.2429902851581573e-02</leafValues></_>
    <_>
      <internalNodes>
        0 -1 302656 -1308656641 -309607793 -753535826 -358684277
        -95028497 -577010941 -271885529 -1121351</internalNodes>
      <leafValues>
        -3.5085600614547729e-01 2.9960641264915466e-01</leafValues></_>
    <_>
      <internalNodes>
        0 -1 346978 497835621 -1470856361 -452649062 -1366888287
        -578088067 -527505528 -1146533035 771251773</internalNodes>
      <leafValues>
        -6.6023689508438110e-01 1.5628267824649811e-01</leafValues></_>
    <_>
      <internalNodes>
        0 -1 12395 -78797572 -1651786181 -1274400002 197791590
        -1339580795 -1962513601 1223510253 1648389184</internalNodes>
      <leafValues>
        -4.5866817235946655e-01 2.4341692030429840e-01</leafValues></_>
    <_>
      <internalNodes>
        0 -1 259400 -1975891659 -1886185875 -175073281 -556750820
        -2009419468 954509463 -1736047152 -1527227612</internalNodes>
      <leafValues>
        -4.8720917105674744e-01 2.0436905324459076e-01</leafValues></_>
    <_>
      <internalNodes>
        0 -1 217120 -673189906 1252769786 -335861852 16155547 1991749378
        393592756 -570511565 -739826465</internalNodes>
      <leafValues>
        -2.8603953123092651e-01 4.0562000870704651e-01</leafValues></_>
    <_>
      <internalNodes>
        0 -1 20193 -276368182 1532612724 -636070236 -204351784
        1384531096 -1307562960 -511515110 1159840542</internalNodes>
      <leafValues>
        -4.3807393312454224e-01 2.5969907641410828e-01</leafValues></_>
    <_>
      <internalNodes>
        0 -1 205727 1525536144 2101542513 -1883423267 -41485558
        1048364794 -1996947478 -18497877 -840448645</internalNodes>
      <leafValues>
        -3.0528679490089417e-01 3.6700803041458130e-01</leafValues></_>
    <_>
      <internalNodes>
        0 -1 293804 670968157 1692746194 -775863486 -353184546
        -1320197525 1518576001 -876500124 905205608</internalNodes>
      <leafValues>
        -6.7498701810836792e-01 1.7980641126632690e-01</leafValues></_>
    <_>
      <internalNodes>
        0 -1 347393 1052597813 -1561013003 -788057261 -152907714
        1393626151 -1123491702 -1293189915 -1365741492</internalNodes>
      <leafValues>
        -4.8911467194557190e-01 2.4567285180091858e-01</leafValues></_></weakClassifiers></stage5>
</opencv_storage>
