<?xml version="1.0"?>
<opencv_storage>
<stage1>
  <maxWeakCount>7</maxWeakCount>
  <stageThreshold>-1.3258628845214844e+00</stageThreshold>
  <weakClassifiers>
    <_>
      <internalNodes>
        0 -1 107363 -1075880065 -338169537 -745552217 -421537905
        1741912579 -1682973245 -74188443 -4457547</internalNodes>
      <leafValues>
        -7.2465854883193970e-01 -7.5134165585041046e-02</leafValues></_>
    <_>
      <internalNodes>
        0 -1 293812 780098359 -1358966307 -8784945 -423632897 -413139341
        1802705091 -102908554 -318841884</internalNodes>
      <leafValues>
        -4.9479535222053528e-01 2.6870593428611755e-01</leafValues></_>
    <_>
      <internalNodes>
        0 -1 111253 -708529788 -237488742 17871132 -775860156
        -1058760724 -1991622519 -1845431590 1342291274</internalNodes>
      <leafValues>
        -5.6354731321334839e-01 2.4145916104316711e-01</leafValues></_>
    <_>
      <internalNodes>
        0 -1 347509 788356069 -1361650211 -79059550 -290491525
        -520521089 -426786293 -1543504001 922288125</internalNodes>
      <leafValues>
        -6.1499887704849243e-01 2.2644157707691193e-01</leafValues></_>
    <_>
      <internalNodes>
        0 -1 348093 249566393 -1541779517 -916891829 -527940538
        -16818137 -1085699741 -1702113936 -1498125001</internalNodes>
      <leafValues>
        -5.6344121694564819e-01 2.8280046582221985e-01</leafValues></_>
    <_>
      <internalNodes>
        0 -1 343968 -1158316165 -1921089737 -268435601 -286015621
        -1073741985 -562069505 -838860954 -356581901</internalNodes>
      <leafValues>
        -3.3684834837913513e-01 4.2226770520210266e-01</leafValues></_>
    <_>
      <internalNodes>
        0 -1 11780 -1212985943 -293601297 2147450791 -1350565907
        -536879629 -276824193 -33685658 -539140</internalNodes>
      <leafValues>
        -3.2124653458595276e-01 4.8146191239356995e-01</leafValues></_></weakClassifiers></stage1>
</opencv_storage>
