<?xml version="1.0"?>
<opencv_storage>
<stage2>
  <maxWeakCount>10</maxWeakCount>
  <stageThreshold>-1.3228746652603149e+00</stageThreshold>
  <weakClassifiers>
    <_>
      <internalNodes>
        0 -1 97316 -1077968897 -73404201 -7078227 -470297089 -879003043
        -337134329 -336643273 -4194315</internalNodes>
      <leafValues>
        -6.9893944263458252e-01 -5.8341864496469498e-02</leafValues></_>
    <_>
      <internalNodes>
        0 -1 347508 750022445 -1502185609 -81315186 -352691766 -295595
        2095049683 -990945420 767360621</internalNodes>
      <leafValues>
        -7.6652455329895020e-01 9.2050708830356598e-02</leafValues></_>
    <_>
      <internalNodes>
        0 -1 347495 581468053 83674453 -742406715 -153478537 -84970159
        -163725181 -1348210251 -1325599631</internalNodes>
      <leafValues>
        -5.2677333354949951e-01 2.3494678735733032e-01</leafValues></_>
    <_>
      <internalNodes>
        0 -1 5702 -1301356344 462864418 1073928321 2097791107 278151880
        1208242192 1761891806 -477904269</internalNodes>
      <leafValues>
        -4.1848039627075195e-01 3.4778377413749695e-01</leafValues></_>
    <_>
      <internalNodes>
        0 -1 239753 -892210992 -754900903 639248 -955135470 -1845192454
        -931004256 1082441932 1225379946</internalNodes>
      <leafValues>
        -4.5658174157142639e-01 3.0517131090164185e-01</leafValues></_>
    <_>
      <internalNodes>
        0 -1 134218 -1067517290 1652133954 -1793978148 -801583038
        1524564643 1087914155 1105562104 1406916714</internalNodes>
      <leafValues>
        -4.6393623948097229e-01 3.1546387076377869e-01</leafValues></_>
    <_>
      <internalNodes>
        0 -1 206127 -1385532843 -1355319186 -1738619153 -1240307840
        578996334 -365433154 -1473640207 -1392883343</internalNodes>
      <leafValues>
        -4.5690706372261047e-01 3.3755698800086975e-01</leafValues></_>
    <_>
      <internalNodes>
        0 -1 301200 -1426972777 -1239115711 -1870269609 -14796849
        -1740548436 1025082674 -2063062036 -37870352</internalNodes>
      <leafValues>
        -3.9407336711883545e-01 3.7110650539398193e-01</leafValues></_>
    <_>
      <internalNodes>
        0 -1 274442 -710429034 -788424688 8503552 356860161 -1737838942
        -603258055 1454092942 67689063</internalNodes>
      <leafValues>
        -4.3582692742347717e-01 3.4786397218704224e-01</leafValues></_>
    <_>
      <internalNodes>
        0 -1 107329 -1415233692 597382977 1675037565 -858382071
        164317249 -391505510 1741388591 -272664035</internalNodes>
      <leafValues>
        -4.4705736637115479e-01 3.4718671441078186e-01</leafValues></_></weakClassifiers></stage2>
</opencv_storage>
