<?xml version="1.0"?>
<opencv_storage>
<stage6>
  <maxWeakCount>10</maxWeakCount>
  <stageThreshold>-1.1927887201309204e+00</stageThreshold>
  <weakClassifiers>
    <_>
      <internalNodes>
        0 -1 335112 -203450373 -8398869 1963315501 -421817893 -207378325
        -808856949 -73418421 -2359333</internalNodes>
      <leafValues>
        -6.3377779722213745e-01 7.4285715818405151e-02</leafValues></_>
    <_>
      <internalNodes>
        0 -1 66652 751840805 -275061217 -107001405 -271723573 -685350297
        -1551641777 -1968903307 1475427172</internalNodes>
      <leafValues>
        -6.3181692361831665e-01 9.4837762415409088e-02</leafValues></_>
    <_>
      <internalNodes>
        0 -1 306800 -973365654 -267718916 -33587454 -1595248700
        -1963407454 187957247 -101017855 -673475905</internalNodes>
      <leafValues>
        -2.7767458558082581e-01 3.5897371172904968e-01</leafValues></_>
    <_>
      <internalNodes>
        0 -1 3428 -1031345485 496185046 -67846192 2067359262 -1974415386
        -1226113231 1086594293 -1047111693</internalNodes>
      <leafValues>
        -3.1090912222862244e-01 3.2487559318542480e-01</leafValues></_>
    <_>
      <internalNodes>
        0 -1 226768 -2046661771 1020011978 -783264106 -229127718
        -878652219 -234258357 42500857 -1365110316</internalNodes>
      <leafValues>
        -3.5845756530761719e-01 3.0926308035850525e-01</leafValues></_>
    <_>
      <internalNodes>
        0 -1 10635 2146804784 1382304506 -1193640374 -1282238318
        -253937906 1381040160 1776349216 1731256418</internalNodes>
      <leafValues>
        -5.4869109392166138e-01 1.9086141884326935e-01</leafValues></_>
    <_>
      <internalNodes>
        0 -1 345136 -1933685403 917302780 -16844801 -194789851
        -1902739721 -905969939 -436316673 -1644294721</internalNodes>
      <leafValues>
        -3.2469037175178528e-01 3.4892952442169189e-01</leafValues></_>
    <_>
      <internalNodes>
        0 -1 269140 982120144 -44705638 1363187093 -1165115328
        -662420404 -2000181109 -527514920 -2001612296</internalNodes>
      <leafValues>
        -4.6091663837432861e-01 2.3879325389862061e-01</leafValues></_>
    <_>
      <internalNodes>
        0 -1 56533 -1739787314 -1722403594 -1878908537 363406429
        -2136406642 -399310808 -433518615 470312229</internalNodes>
      <leafValues>
        -5.0349348783493042e-01 2.2024789452552795e-01</leafValues></_>
    <_>
      <internalNodes>
        0 -1 347015 749796093 1283909199 -753807069 -964897905
        -1316339629 1353433218 -1725377675 1052292469</internalNodes>
      <leafValues>
        -5.8071124553680420e-01 1.8763081729412079e-01</leafValues></_></weakClassifiers></stage6>
</opencv_storage>
