<?xml version="1.0"?>
<opencv_storage>
<cascade>
  <stageType>BOOST</stageType>
  <featureType>LBP</featureType>
  <height>60</height>
  <width>60</width>
  <stageParams>
    <boostType>GAB</boostType>
    <minHitRate>9.9500000476837158e-01</minHitRate>
    <maxFalseAlarm>5.0000000000000000e-01</maxFalseAlarm>
    <weightTrimRate>9.4999999999999996e-01</weightTrimRate>
    <maxDepth>1</maxDepth>
    <maxWeakCount>100</maxWeakCount></stageParams>
  <featureParams>
    <maxCatCount>256</maxCatCount>
    <featSize>1</featSize></featureParams>
  <stageNum>5</stageNum>
  <stages>
    <!-- stage 0 -->
    <_>
      <maxWeakCount>3</maxWeakCount>
      <stageThreshold>-1.5152544975280762e+00</stageThreshold>
      <weakClassifiers>
        <_>
          <internalNodes>
            0 -1 15 -572523521 -662191413 -804732143 -784089081
            -196420369 -938753918 -536624497 -606079493</internalNodes>
          <leafValues>
            -9.1846758127212524e-01 9.6153847873210907e-02</leafValues></_>
        <_>
          <internalNodes>
            0 -1 0 -320668957 -543784102 -2130636771 2107216015
            -669853509 -226328439 -535336757 -538714121</internalNodes>
          <leafValues>
            -8.0273818969726563e-01 2.7055433392524719e-01</leafValues></_>
        <_>
          <internalNodes>
            0 -1 10 -178520322 -1279016641 -2130644835 386551828
            671932671 1535414400 1905256504 1358422463</internalNodes>
          <leafValues>
            -8.0867022275924683e-01 4.2414858937263489e-01</leafValues></_></weakClassifiers></_>
    <!-- stage 1 -->
    <_>
      <maxWeakCount>3</maxWeakCount>
      <stageThreshold>-1.5230884552001953e+00</stageThreshold>
      <weakClassifiers>
        <_>
          <internalNodes>
            0 -1 2 -775421953 -111820209 -1056915107 -678440522
            -384894757 -611762046 -1048395541 -143655425</internalNodes>
          <leafValues>
            -9.0772217512130737e-01 1.1111111193895340e-01</leafValues></_>
        <_>
          <internalNodes>
            0 -1 6 -52693801 -15220308 -767305508 -169938554 -68833298
            -100014066 -359273735 -50990188</internalNodes>
          <leafValues>
            -7.8817558288574219e-01 2.2053028643131256e-01</leafValues></_>
        <_>
          <internalNodes>
            0 -1 5 -153682962 -144780322 285596642 -15715378 1254814938
            -637040381 -33328931 1132454141</internalNodes>
          <leafValues>
            -8.3589649200439453e-01 3.6146435141563416e-01</leafValues></_></weakClassifiers></_>
    <!-- stage 2 -->
    <_>
      <maxWeakCount>4</maxWeakCount>
      <stageThreshold>-1.9799982309341431e+00</stageThreshold>
      <weakClassifiers>
        <_>
          <internalNodes>
            0 -1 8 -77595681 -10617865 -1991976449 -134226145 -68187985
            -69629523 -7623969 -73401361</internalNodes>
          <leafValues>
            -8.9523810148239136e-01 5.0000000000000000e-01</leafValues></_>
        <_>
          <internalNodes>
            0 -1 3 528449337 2146882897 -444906561 -306742 -366839982
            -72740321 1811626527 -210797786</internalNodes>
          <leafValues>
            -8.7775945663452148e-01 4.1046526283025742e-02</leafValues></_>
        <_>
          <internalNodes>
            0 -1 4 -19137650 -71392257 -787300274 1995497438 1274279397
            -239761014 -879059844 -671089057</internalNodes>
          <leafValues>
            -6.5454387664794922e-01 4.7348630428314209e-01</leafValues></_>
        <_>
          <internalNodes>
            0 -1 11 -1308666334 2121752019 -1312733802 -1449483270
            780365804 -1951229796 726355643 -377884419</internalNodes>
          <leafValues>
            -7.9154080152511597e-01 4.4754314422607422e-01</leafValues></_></weakClassifiers></_>
    <!-- stage 3 -->
    <_>
      <maxWeakCount>3</maxWeakCount>
      <stageThreshold>-1.5259233713150024e+00</stageThreshold>
      <weakClassifiers>
        <_>
          <internalNodes>
            0 -1 12 -540018689 -546586105 -2075471589 -615787569
            -890245973 -1073512435 -464785185 -1025</internalNodes>
          <leafValues>
            -8.9594274759292603e-01 3.7777778506278992e-01</leafValues></_>
        <_>
          <internalNodes>
            0 -1 9 529743705 2136177015 -610674697 -140808453 2055894911
            -560854721 -67449929 -560137</internalNodes>
          <leafValues>
            -8.3819878101348877e-01 1.7472061514854431e-01</leafValues></_>
        <_>
          <internalNodes>
            0 -1 14 266542901 -18949763 -20851847 -1348800019
            -1378217123 -1144079427 -1360286737 -1074102556</internalNodes>
          <leafValues>
            -8.0470132827758789e-01 3.6127036809921265e-01</leafValues></_></weakClassifiers></_>
    <!-- stage 4 -->
    <_>
      <maxWeakCount>3</maxWeakCount>
      <stageThreshold>-1.5935854911804199e+00</stageThreshold>
      <weakClassifiers>
        <_>
          <internalNodes>
            0 -1 7 -134217729 -245378785 -2134650849 -134875653
            -427039825 -125135859 -71044453 -1049601</internalNodes>
          <leafValues>
            -8.9089184999465942e-01 5.6250000000000000e-01</leafValues></_>
        <_>
          <internalNodes>
            0 -1 13 232677119 1879046903 -63078785 -1074177831
            1542594397 -4218118 -349437955 -135775249</internalNodes>
          <leafValues>
            -8.4481751918792725e-01 8.2779064774513245e-02</leafValues></_>
        <_>
          <internalNodes>
            0 -1 1 -30478594 -169184493 1393226703 -1982078260 -83955033
            -660518475 -20055065 1900246375</internalNodes>
          <leafValues>
            -7.8547275066375732e-01 3.4697708487510681e-01</leafValues></_></weakClassifiers></_></stages>
  <features>
    <_>
      <rect>
        0 13 8 7</rect></_>
    <_>
      <rect>
        0 18 6 10</rect></_>
    <_>
      <rect>
        0 20 6 9</rect></_>
    <_>
      <rect>
        0 54 7 2</rect></_>
    <_>
      <rect>
        1 38 3 3</rect></_>
    <_>
      <rect>
        2 31 13 6</rect></_>
    <_>
      <rect>
        5 3 15 4</rect></_>
    <_>
      <rect>
        5 20 10 13</rect></_>
    <_>
      <rect>
        5 24 11 7</rect></_>
    <_>
      <rect>
        8 57 4 1</rect></_>
    <_>
      <rect>
        17 26 14 8</rect></_>
    <_>
      <rect>
        24 17 11 4</rect></_>
    <_>
      <rect>
        27 9 9 14</rect></_>
    <_>
      <rect>
        28 56 2 1</rect></_>
    <_>
      <rect>
        32 22 1 1</rect></_>
    <_>
      <rect>
        48 29 4 5</rect></_></features></cascade>
</opencv_storage>
