<?xml version="1.0"?>
<opencv_storage>
<stage5>
  <maxWeakCount>4</maxWeakCount>
  <stageThreshold>-1.6217094659805298e+00</stageThreshold>
  <weakClassifiers>
    <_>
      <internalNodes>
        0 -1 341923 -1048581 -164635359 -209630809 -23498525 -435438147
        -582236917 -312896881 -589308417</internalNodes>
      <leafValues>
        -9.1758793592453003e-01 -2.2666667401790619e-01</leafValues></_>
    <_>
      <internalNodes>
        0 -1 289093 998145847 -1346493987 -638087682 -14689041
        -158770193 -67431941 -544547329 -1426090017</internalNodes>
      <leafValues>
        -8.2008457183837891e-01 6.1525557190179825e-02</leafValues></_>
    <_>
      <internalNodes>
        0 -1 272267 -37632032 134193648 1362447793 -201559074 -68228610
        -1432638705 -545562636 -1066051419</internalNodes>
      <leafValues>
        -8.7080764770507813e-01 2.6625013351440430e-01</leafValues></_>
    <_>
      <internalNodes>
        0 -1 96380 -568594700 -1160709642 -1035870332 -1745553673
        -1696504899 1031313661 1418711548 280098558</internalNodes>
      <leafValues>
        -8.9643847942352295e-01 2.9584941267967224e-01</leafValues></_></weakClassifiers></stage5>
</opencv_storage>
