<?xml version="1.0"?>
<opencv_storage>
<stage2>
  <maxWeakCount>4</maxWeakCount>
  <stageThreshold>-1.9799982309341431e+00</stageThreshold>
  <weakClassifiers>
    <_>
      <internalNodes>
        0 -1 63016 -77595681 -10617865 -1991976449 -134226145 -68187985
        -69629523 -7623969 -73401361</internalNodes>
      <leafValues>
        -8.9523810148239136e-01 5.0000000000000000e-01</leafValues></_>
    <_>
      <internalNodes>
        0 -1 11713 528449337 2146882897 -444906561 -306742 -366839982
        -72740321 1811626527 -210797786</internalNodes>
      <leafValues>
        -8.7775945663452148e-01 4.1046526283025742e-02</leafValues></_>
    <_>
      <internalNodes>
        0 -1 21563 -19137650 -71392257 -787300274 1995497438 1274279397
        -239761014 -879059844 -671089057</internalNodes>
      <leafValues>
        -6.5454387664794922e-01 4.7348630428314209e-01</leafValues></_>
    <_>
      <internalNodes>
        0 -1 227811 -1308666334 2121752019 -1312733802 -1449483270
        780365804 -1951229796 726355643 -377884419</internalNodes>
      <leafValues>
        -7.9154080152511597e-01 4.4754314422607422e-01</leafValues></_></weakClassifiers></stage2>
</opencv_storage>
